digraph Tree {
node [shape=box, style="filled, rounded", color="black", fontname="helvetica"] ;
edge [fontname="helvetica"] ;
0 [label=<curious &le; 0.5<br/>gini = 0.498<br/>samples = 5089<br/>value = [4300, 3826]<br/>class = bad>, fillcolor="#fcf1e9"] ;
1 [label=<ahead &le; 0.5<br/>gini = 0.5<br/>samples = 4813<br/>value = [3866, 3821]<br/>class = bad>, fillcolor="#fffefd"] ;
0 -> 1 [labeldistance=2.5, labelangle=45, headlabel="True"] ;
2 [label=<10 &le; 0.5<br/>gini = 0.499<br/>samples = 4526<br/>value = [3488, 3752]<br/>class = good>, fillcolor="#f1f8fd"] ;
1 -> 2 ;
3 [label=<distance &le; 0.5<br/>gini = 0.491<br/>samples = 4119<br/>value = [2870, 3737]<br/>class = good>, fillcolor="#d1e8f9"] ;
2 -> 3 ;
4 [label=<ugly &le; 0.5<br/>gini = 0.488<br/>samples = 3999<br/>value = [2726, 3707]<br/>class = good>, fillcolor="#cbe5f8"] ;
3 -> 4 ;
5 [label=<rocky &le; 0.5<br/>gini = 0.487<br/>samples = 3945<br/>value = [2658, 3697]<br/>class = good>, fillcolor="#c7e3f8"] ;
4 -> 5 ;
6 [label=<wasn &le; 0.5<br/>gini = 0.485<br/>samples = 3903<br/>value = [2599, 3687]<br/>class = good>, fillcolor="#c5e2f7"] ;
5 -> 6 ;
7 [label=<al &le; 0.5<br/>gini = 0.478<br/>samples = 3784<br/>value = [2408, 3687]<br/>class = good>, fillcolor="#baddf6"] ;
6 -> 7 ;
8 [label=<grave &le; 0.5<br/>gini = 0.469<br/>samples = 3656<br/>value = [2208, 3683]<br/>class = good>, fillcolor="#b0d8f5"] ;
7 -> 8 ;
9 [label=<paul &le; 0.5<br/>gini = 0.465<br/>samples = 3598<br/>value = [2138, 3667]<br/>class = good>, fillcolor="#acd6f4"] ;
8 -> 9 ;
10 [label=<coke &le; 0.5<br/>gini = 0.461<br/>samples = 3549<br/>value = [2060, 3646]<br/>class = good>, fillcolor="#a9d4f4"] ;
9 -> 10 ;
11 [label=<society &le; 0.5<br/>gini = 0.459<br/>samples = 3512<br/>value = [2018, 3639]<br/>class = good>, fillcolor="#a7d3f3"] ;
10 -> 11 ;
12 [label=<with &le; 3.5<br/>gini = 0.457<br/>samples = 3491<br/>value = [1991, 3632]<br/>class = good>, fillcolor="#a6d3f3"] ;
11 -> 12 ;
13 [label=<nie &le; 0.5<br/>gini = 0.434<br/>samples = 2793<br/>value = [1415, 3039]<br/>class = good>, fillcolor="#95cbf1"] ;
12 -> 13 ;
14 [label=<hits &le; 0.5<br/>gini = 0.429<br/>samples = 2770<br/>value = [1379, 3039]<br/>class = good>, fillcolor="#93c9f1"] ;
13 -> 14 ;
15 [label=<par &le; 0.5<br/>gini = 0.426<br/>samples = 2741<br/>value = [1350, 3029]<br/>class = good>, fillcolor="#91c9f1"] ;
14 -> 15 ;
16 [label=<posto &le; 0.5<br/>gini = 0.424<br/>samples = 2729<br/>value = [1329, 3029]<br/>class = good>, fillcolor="#90c8f0"] ;
15 -> 16 ;
17 [label=<different &le; 0.5<br/>gini = 0.423<br/>samples = 2726<br/>value = [1323, 3029]<br/>class = good>, fillcolor="#8fc8f0"] ;
16 -> 17 ;
18 [label=<editor &le; 0.5<br/>gini = 0.419<br/>samples = 2634<br/>value = [1254, 2946]<br/>class = good>, fillcolor="#8dc7f0"] ;
17 -> 18 ;
19 [label=<they &le; 4.5<br/>gini = 0.422<br/>samples = 2598<br/>value = [1254, 2890]<br/>class = good>, fillcolor="#8fc8f0"] ;
18 -> 19 ;
20 [label=<dominio &le; 0.5<br/>gini = 0.418<br/>samples = 2483<br/>value = [1174, 2779]<br/>class = good>, fillcolor="#8dc6f0"] ;
19 -> 20 ;
21 [label=<con &le; 0.5<br/>gini = 0.415<br/>samples = 2473<br/>value = [1159, 2779]<br/>class = good>, fillcolor="#8cc6f0"] ;
20 -> 21 ;
22 [label=<demons &le; 0.5<br/>gini = 0.404<br/>samples = 2421<br/>value = [1083, 2769]<br/>class = good>, fillcolor="#86c3ef"] ;
21 -> 22 ;
23 [label=<loves &le; 0.5<br/>gini = 0.401<br/>samples = 2402<br/>value = [1061, 2759]<br/>class = good>, fillcolor="#85c3ef"] ;
22 -> 23 ;
24 [label=<louboutins &le; 0.5<br/>gini = 0.409<br/>samples = 2310<br/>value = [1053, 2625]<br/>class = good>, fillcolor="#88c4ef"] ;
23 -> 24 ;
25 [label=<that &le; 0.5<br/>gini = 0.408<br/>samples = 2309<br/>value = [1047, 2625]<br/>class = good>, fillcolor="#88c4ef"] ;
24 -> 25 ;
26 [label=<brought &le; 0.5<br/>gini = 0.46<br/>samples = 757<br/>value = [414, 743]<br/>class = good>, fillcolor="#a7d4f3"] ;
25 -> 26 ;
27 [label=<ellos &le; 0.5<br/>gini = 0.462<br/>samples = 746<br/>value = [413, 726]<br/>class = good>, fillcolor="#aad5f4"] ;
26 -> 27 ;
28 [label=<in &le; 0.5<br/>gini = 0.46<br/>samples = 743<br/>value = [407, 726]<br/>class = good>, fillcolor="#a8d4f4"] ;
27 -> 28 ;
29 [label=<íbamos &le; 1.0<br/>gini = 0.488<br/>samples = 266<br/>value = [179, 243]<br/>class = good>, fillcolor="#cbe5f8"] ;
28 -> 29 ;
30 [label=<skyline &le; 0.5<br/>gini = 0.487<br/>samples = 265<br/>value = [176, 243]<br/>class = good>, fillcolor="#c8e4f8"] ;
29 -> 30 ;
31 [label=<tom &le; 0.5<br/>gini = 0.486<br/>samples = 263<br/>value = [173, 243]<br/>class = good>, fillcolor="#c6e3f8"] ;
30 -> 31 ;
32 [label=<get &le; 0.5<br/>gini = 0.484<br/>samples = 259<br/>value = [169, 243]<br/>class = good>, fillcolor="#c3e1f7"] ;
31 -> 32 ;
33 [label=<noir &le; 0.5<br/>gini = 0.499<br/>samples = 204<br/>value = [158, 172]<br/>class = good>, fillcolor="#eff7fd"] ;
32 -> 33 ;
34 [label=<sozinho &le; 0.5<br/>gini = 0.498<br/>samples = 201<br/>value = [151, 172]<br/>class = good>, fillcolor="#e7f3fc"] ;
33 -> 34 ;
35 [label=<tonight &le; 4.0<br/>gini = 0.497<br/>samples = 200<br/>value = [148, 172]<br/>class = good>, fillcolor="#e3f1fb"] ;
34 -> 35 ;
36 [label=<won &le; 0.5<br/>gini = 0.499<br/>samples = 197<br/>value = [148, 165]<br/>class = good>, fillcolor="#ebf5fc"] ;
35 -> 36 ;
37 [label=<up &le; 1.5<br/>gini = 0.496<br/>samples = 191<br/>value = [139, 165]<br/>class = good>, fillcolor="#e0f0fb"] ;
36 -> 37 ;
38 [label=<te &le; 0.5<br/>gini = 0.493<br/>samples = 178<br/>value = [127, 160]<br/>class = good>, fillcolor="#d6ebfa"] ;
37 -> 38 ;
39 [label=<né &le; 0.5<br/>gini = 0.478<br/>samples = 164<br/>value = [104, 160]<br/>class = good>, fillcolor="#baddf6"] ;
38 -> 39 ;
40 [label=<mirufiiyu &le; 0.5<br/>gini = 0.474<br/>samples = 161<br/>value = [101, 160]<br/>class = good>, fillcolor="#b6dbf5"] ;
39 -> 40 ;
41 [label=<olmaz &le; 1.0<br/>gini = 0.472<br/>samples = 160<br/>value = [99, 160]<br/>class = good>, fillcolor="#b4daf5"] ;
40 -> 41 ;
42 [label=<likeह &le; 0.5<br/>gini = 0.47<br/>samples = 159<br/>value = [97, 160]<br/>class = good>, fillcolor="#b1d8f5"] ;
41 -> 42 ;
43 [label=<mouillé &le; 0.5<br/>gini = 0.466<br/>samples = 158<br/>value = [94, 160]<br/>class = good>, fillcolor="#add7f4"] ;
42 -> 43 ;
44 [label=<funk &le; 0.5<br/>gini = 0.464<br/>samples = 157<br/>value = [92, 160]<br/>class = good>, fillcolor="#abd5f4"] ;
43 -> 44 ;
45 [label=<right &le; 0.5<br/>gini = 0.459<br/>samples = 155<br/>value = [89, 160]<br/>class = good>, fillcolor="#a7d4f3"] ;
44 -> 45 ;
46 [label=<would &le; 0.5<br/>gini = 0.476<br/>samples = 132<br/>value = [82, 128]<br/>class = good>, fillcolor="#b8dcf6"] ;
45 -> 46 ;
47 [label=<byť &le; 3.0<br/>gini = 0.483<br/>samples = 126<br/>value = [81, 118]<br/>class = good>, fillcolor="#c1e0f7"] ;
46 -> 47 ;
48 [label=<nakanta &le; 1.0<br/>gini = 0.482<br/>samples = 125<br/>value = [80, 118]<br/>class = good>, fillcolor="#bfdff7"] ;
47 -> 48 ;
49 [label=<next &le; 1.5<br/>gini = 0.479<br/>samples = 124<br/>value = [78, 118]<br/>class = good>, fillcolor="#bcdef6"] ;
48 -> 49 ;
50 [label=<where &le; 1.5<br/>gini = 0.482<br/>samples = 122<br/>value = [78, 115]<br/>class = good>, fillcolor="#bfdff7"] ;
49 -> 50 ;
51 [label=<thank &le; 0.5<br/>gini = 0.476<br/>samples = 117<br/>value = [72, 112]<br/>class = good>, fillcolor="#b8dcf6"] ;
50 -> 51 ;
52 [label=<kunkum &le; 0.5<br/>gini = 0.472<br/>samples = 116<br/>value = [69, 112]<br/>class = good>, fillcolor="#b3d9f5"] ;
51 -> 52 ;
53 [label=<ver1embed &le; 0.5<br/>gini = 0.47<br/>samples = 115<br/>value = [68, 112]<br/>class = good>, fillcolor="#b1d8f5"] ;
52 -> 53 ;
54 [label=<answer &le; 0.5<br/>gini = 0.467<br/>samples = 114<br/>value = [66, 112]<br/>class = good>, fillcolor="#aed7f4"] ;
53 -> 54 ;
55 [label=<true &le; 0.5<br/>gini = 0.463<br/>samples = 113<br/>value = [64, 112]<br/>class = good>, fillcolor="#aad5f4"] ;
54 -> 55 ;
56 [label=<mama &le; 0.5<br/>gini = 0.467<br/>samples = 109<br/>value = [64, 108]<br/>class = good>, fillcolor="#aed7f4"] ;
55 -> 56 ;
57 [label=<fight &le; 2.5<br/>gini = 0.459<br/>samples = 106<br/>value = [60, 108]<br/>class = good>, fillcolor="#a7d3f3"] ;
56 -> 57 ;
58 [label=<mutekime &le; 2.0<br/>gini = 0.455<br/>samples = 105<br/>value = [58, 108]<br/>class = good>, fillcolor="#a3d2f3"] ;
57 -> 58 ;
59 [label=<tiedät &le; 0.5<br/>gini = 0.45<br/>samples = 104<br/>value = [56, 108]<br/>class = good>, fillcolor="#a0d0f2"] ;
58 -> 59 ;
60 [label=<takes &le; 2.0<br/>gini = 0.447<br/>samples = 103<br/>value = [55, 108]<br/>class = good>, fillcolor="#9ecff2"] ;
59 -> 60 ;
61 [label=<vou &le; 1.0<br/>gini = 0.448<br/>samples = 102<br/>value = [55, 107]<br/>class = good>, fillcolor="#9fcff2"] ;
60 -> 61 ;
62 [label=<tell &le; 0.5<br/>gini = 0.446<br/>samples = 101<br/>value = [54, 107]<br/>class = good>, fillcolor="#9dcef2"] ;
61 -> 62 ;
63 [label=<sun &le; 0.5<br/>gini = 0.455<br/>samples = 95<br/>value = [54, 100]<br/>class = good>, fillcolor="#a4d2f3"] ;
62 -> 63 ;
64 [label=<kısa &le; 0.5<br/>gini = 0.438<br/>samples = 89<br/>value = [47, 98]<br/>class = good>, fillcolor="#98ccf1"] ;
63 -> 64 ;
65 [label=<ואל &le; 1.0<br/>gini = 0.435<br/>samples = 88<br/>value = [46, 98]<br/>class = good>, fillcolor="#96cbf1"] ;
64 -> 65 ;
66 [label=<hesaplarıyla &le; 0.5<br/>gini = 0.431<br/>samples = 87<br/>value = [45, 98]<br/>class = good>, fillcolor="#94caf1"] ;
65 -> 66 ;
67 [label=<goûterai &le; 0.5<br/>gini = 0.428<br/>samples = 86<br/>value = [44, 98]<br/>class = good>, fillcolor="#92c9f1"] ;
66 -> 67 ;
68 [label=<was &le; 1.5<br/>gini = 0.424<br/>samples = 85<br/>value = [43, 98]<br/>class = good>, fillcolor="#90c8f0"] ;
67 -> 68 ;
69 [label=<swirl &le; 0.5<br/>gini = 0.434<br/>samples = 80<br/>value = [43, 92]<br/>class = good>, fillcolor="#96cbf1"] ;
68 -> 69 ;
70 [label=<wondering &le; 1.0<br/>gini = 0.438<br/>samples = 79<br/>value = [43, 90]<br/>class = good>, fillcolor="#98ccf1"] ;
69 -> 70 ;
71 [label=<znajdziecie &le; 0.5<br/>gini = 0.434<br/>samples = 78<br/>value = [42, 90]<br/>class = good>, fillcolor="#95cbf1"] ;
70 -> 71 ;
72 [label=<floor &le; 1.0<br/>gini = 0.426<br/>samples = 77<br/>value = [40, 90]<br/>class = good>, fillcolor="#91c9f1"] ;
71 -> 72 ;
73 [label=<jalin &le; 1.0<br/>gini = 0.43<br/>samples = 76<br/>value = [40, 88]<br/>class = good>, fillcolor="#93caf1"] ;
72 -> 73 ;
74 [label=<летаюembed &le; 0.5<br/>gini = 0.426<br/>samples = 75<br/>value = [39, 88]<br/>class = good>, fillcolor="#91c8f1"] ;
73 -> 74 ;
75 [label=<bêtise &le; 0.5<br/>gini = 0.421<br/>samples = 74<br/>value = [38, 88]<br/>class = good>, fillcolor="#8ec7f0"] ;
74 -> 75 ;
76 [label=<red &le; 0.5<br/>gini = 0.417<br/>samples = 73<br/>value = [37, 88]<br/>class = good>, fillcolor="#8cc6f0"] ;
75 -> 76 ;
77 [label=<she &le; 19.5<br/>gini = 0.419<br/>samples = 72<br/>value = [37, 87]<br/>class = good>, fillcolor="#8dc7f0"] ;
76 -> 77 ;
78 [label=<hooo &le; 0.5<br/>gini = 0.427<br/>samples = 71<br/>value = [37, 83]<br/>class = good>, fillcolor="#91c9f1"] ;
77 -> 78 ;
79 [label=<yes &le; 0.5<br/>gini = 0.422<br/>samples = 70<br/>value = [36, 83]<br/>class = good>, fillcolor="#8fc8f0"] ;
78 -> 79 ;
80 [label=<gold &le; 0.5<br/>gini = 0.4<br/>samples = 67<br/>value = [31, 81]<br/>class = good>, fillcolor="#85c3ef"] ;
79 -> 80 ;
81 [label=<hours &le; 2.0<br/>gini = 0.409<br/>samples = 66<br/>value = [31, 77]<br/>class = good>, fillcolor="#89c4ef"] ;
80 -> 81 ;
82 [label=<light &le; 0.5<br/>gini = 0.404<br/>samples = 65<br/>value = [30, 77]<br/>class = good>, fillcolor="#86c3ef"] ;
81 -> 82 ;
83 [label=<lead &le; 0.5<br/>gini = 0.391<br/>samples = 64<br/>value = [28, 77]<br/>class = good>, fillcolor="#81c1ee"] ;
82 -> 83 ;
84 [label=<through &le; 0.5<br/>gini = 0.393<br/>samples = 63<br/>value = [28, 76]<br/>class = good>, fillcolor="#82c1ef"] ;
83 -> 84 ;
85 [label=<forevermoregoodbye &le; 0.5<br/>gini = 0.392<br/>samples = 60<br/>value = [27, 74]<br/>class = good>, fillcolor="#81c1ee"] ;
84 -> 85 ;
86 [label=<without &le; 3.0<br/>gini = 0.397<br/>samples = 59<br/>value = [27, 72]<br/>class = good>, fillcolor="#83c2ef"] ;
85 -> 86 ;
87 [label=<meyoure &le; 0.5<br/>gini = 0.385<br/>samples = 57<br/>value = [25, 71]<br/>class = good>, fillcolor="#7fc0ee"] ;
86 -> 87 ;
88 [label=<here &le; 0.5<br/>gini = 0.393<br/>samples = 56<br/>value = [25, 68]<br/>class = good>, fillcolor="#82c1ef"] ;
87 -> 88 ;
89 [label=<standing &le; 0.5<br/>gini = 0.407<br/>samples = 53<br/>value = [25, 63]<br/>class = good>, fillcolor="#88c4ef"] ;
88 -> 89 ;
90 [label=<may &le; 0.5<br/>gini = 0.41<br/>samples = 52<br/>value = [25, 62]<br/>class = good>, fillcolor="#89c5ef"] ;
89 -> 90 ;
91 [label=<nearand &le; 0.5<br/>gini = 0.412<br/>samples = 51<br/>value = [25, 61]<br/>class = good>, fillcolor="#8ac5f0"] ;
90 -> 91 ;
92 [label=<gone &le; 0.5<br/>gini = 0.415<br/>samples = 50<br/>value = [25, 60]<br/>class = good>, fillcolor="#8bc6f0"] ;
91 -> 92 ;
93 [label=<blows &le; 0.5<br/>gini = 0.418<br/>samples = 49<br/>value = [25, 59]<br/>class = good>, fillcolor="#8dc7f0"] ;
92 -> 93 ;
94 [label=<share &le; 0.5<br/>gini = 0.421<br/>samples = 48<br/>value = [25, 58]<br/>class = good>, fillcolor="#8ec7f0"] ;
93 -> 94 ;
95 [label=<cause &le; 0.5<br/>gini = 0.424<br/>samples = 47<br/>value = [25, 57]<br/>class = good>, fillcolor="#90c8f0"] ;
94 -> 95 ;
96 [label=<romance &le; 0.5<br/>gini = 0.436<br/>samples = 45<br/>value = [25, 53]<br/>class = good>, fillcolor="#96cbf1"] ;
95 -> 96 ;
97 [label=<alone &le; 1.5<br/>gini = 0.444<br/>samples = 44<br/>value = [25, 50]<br/>class = good>, fillcolor="#9ccef2"] ;
96 -> 97 ;
98 [label=<firechariots &le; 0.5<br/>gini = 0.447<br/>samples = 43<br/>value = [25, 49]<br/>class = good>, fillcolor="#9ecff2"] ;
97 -> 98 ;
99 [label=<felt &le; 1.0<br/>gini = 0.45<br/>samples = 42<br/>value = [25, 48]<br/>class = good>, fillcolor="#a0d0f3"] ;
98 -> 99 ;
100 [label=<telephoneand &le; 0.5<br/>gini = 0.453<br/>samples = 41<br/>value = [25, 47]<br/>class = good>, fillcolor="#a2d1f3"] ;
99 -> 100 ;
101 [label=<need &le; 1.5<br/>gini = 0.462<br/>samples = 40<br/>value = [25, 44]<br/>class = good>, fillcolor="#aad5f4"] ;
100 -> 101 ;
102 [label=<close &le; 0.5<br/>gini = 0.465<br/>samples = 39<br/>value = [25, 43]<br/>class = good>, fillcolor="#acd6f4"] ;
101 -> 102 ;
103 [label=<one &le; 2.0<br/>gini = 0.46<br/>samples = 38<br/>value = [24, 43]<br/>class = good>, fillcolor="#a8d4f4"] ;
102 -> 103 ;
104 [label=<ride &le; 1.0<br/>gini = 0.463<br/>samples = 37<br/>value = [24, 42]<br/>class = good>, fillcolor="#aad5f4"] ;
103 -> 104 ;
105 [label=<stormsyou &le; 0.5<br/>gini = 0.475<br/>samples = 36<br/>value = [24, 38]<br/>class = good>, fillcolor="#b6dbf5"] ;
104 -> 105 ;
106 [label=<why &le; 1.0<br/>gini = 0.47<br/>samples = 35<br/>value = [23, 38]<br/>class = good>, fillcolor="#b1d8f5"] ;
105 -> 106 ;
107 [label=<such &le; 0.5<br/>gini = 0.473<br/>samples = 34<br/>value = [23, 37]<br/>class = good>, fillcolor="#b4daf5"] ;
106 -> 107 ;
108 [label=<also &le; 0.5<br/>gini = 0.481<br/>samples = 33<br/>value = [23, 34]<br/>class = good>, fillcolor="#bfdff7"] ;
107 -> 108 ;
109 [label=<me &le; 1.5<br/>gini = 0.453<br/>samples = 29<br/>value = [18, 34]<br/>class = good>, fillcolor="#a2d1f3"] ;
108 -> 109 ;
110 [label=<funditus &le; 0.5<br/>gini = 0.457<br/>samples = 28<br/>value = [18, 33]<br/>class = good>, fillcolor="#a5d2f3"] ;
109 -> 110 ;
111 [label=<instrumental &le; 0.5<br/>gini = 0.449<br/>samples = 27<br/>value = [17, 33]<br/>class = good>, fillcolor="#9fcff2"] ;
110 -> 111 ;
112 [label=<na &le; 0.5<br/>gini = 0.5<br/>samples = 19<br/>value = [17, 16]<br/>class = bad>, fillcolor="#fdf8f3"] ;
111 -> 112 ;
113 [label=<gini = 0.0<br/>samples = 10<br/>value = [17, 0]<br/>class = bad>, fillcolor="#e58139"] ;
112 -> 113 ;
114 [label=<gini = 0.0<br/>samples = 9<br/>value = [0, 16]<br/>class = good>, fillcolor="#399de5"] ;
112 -> 114 ;
115 [label=<gini = 0.0<br/>samples = 8<br/>value = [0, 17]<br/>class = good>, fillcolor="#399de5"] ;
111 -> 115 ;
116 [label=<gini = 0.0<br/>samples = 1<br/>value = [1, 0]<br/>class = bad>, fillcolor="#e58139"] ;
110 -> 116 ;
117 [label=<gini = 0.0<br/>samples = 1<br/>value = [0, 1]<br/>class = good>, fillcolor="#399de5"] ;
109 -> 117 ;
118 [label=<gini = 0.0<br/>samples = 4<br/>value = [5, 0]<br/>class = bad>, fillcolor="#e58139"] ;
108 -> 118 ;
119 [label=<gini = 0.0<br/>samples = 1<br/>value = [0, 3]<br/>class = good>, fillcolor="#399de5"] ;
107 -> 119 ;
120 [label=<gini = 0.0<br/>samples = 1<br/>value = [0, 1]<br/>class = good>, fillcolor="#399de5"] ;
106 -> 120 ;
121 [label=<gini = 0.0<br/>samples = 1<br/>value = [1, 0]<br/>class = bad>, fillcolor="#e58139"] ;
105 -> 121 ;
122 [label=<gini = 0.0<br/>samples = 1<br/>value = [0, 4]<br/>class = good>, fillcolor="#399de5"] ;
104 -> 122 ;
123 [label=<gini = 0.0<br/>samples = 1<br/>value = [0, 1]<br/>class = good>, fillcolor="#399de5"] ;
103 -> 123 ;
124 [label=<gini = 0.0<br/>samples = 1<br/>value = [1, 0]<br/>class = bad>, fillcolor="#e58139"] ;
102 -> 124 ;
125 [label=<gini = 0.0<br/>samples = 1<br/>value = [0, 1]<br/>class = good>, fillcolor="#399de5"] ;
101 -> 125 ;
126 [label=<gini = 0.0<br/>samples = 1<br/>value = [0, 3]<br/>class = good>, fillcolor="#399de5"] ;
100 -> 126 ;
127 [label=<gini = 0.0<br/>samples = 1<br/>value = [0, 1]<br/>class = good>, fillcolor="#399de5"] ;
99 -> 127 ;
128 [label=<gini = 0.0<br/>samples = 1<br/>value = [0, 1]<br/>class = good>, fillcolor="#399de5"] ;
98 -> 128 ;
129 [label=<gini = 0.0<br/>samples = 1<br/>value = [0, 1]<br/>class = good>, fillcolor="#399de5"] ;
97 -> 129 ;
130 [label=<gini = 0.0<br/>samples = 1<br/>value = [0, 3]<br/>class = good>, fillcolor="#399de5"] ;
96 -> 130 ;
131 [label=<gini = 0.0<br/>samples = 2<br/>value = [0, 4]<br/>class = good>, fillcolor="#399de5"] ;
95 -> 131 ;
132 [label=<gini = 0.0<br/>samples = 1<br/>value = [0, 1]<br/>class = good>, fillcolor="#399de5"] ;
94 -> 132 ;
133 [label=<gini = 0.0<br/>samples = 1<br/>value = [0, 1]<br/>class = good>, fillcolor="#399de5"] ;
93 -> 133 ;
134 [label=<gini = 0.0<br/>samples = 1<br/>value = [0, 1]<br/>class = good>, fillcolor="#399de5"] ;
92 -> 134 ;
135 [label=<gini = 0.0<br/>samples = 1<br/>value = [0, 1]<br/>class = good>, fillcolor="#399de5"] ;
91 -> 135 ;
136 [label=<gini = 0.0<br/>samples = 1<br/>value = [0, 1]<br/>class = good>, fillcolor="#399de5"] ;
90 -> 136 ;
137 [label=<gini = 0.0<br/>samples = 1<br/>value = [0, 1]<br/>class = good>, fillcolor="#399de5"] ;
89 -> 137 ;
138 [label=<gini = 0.0<br/>samples = 3<br/>value = [0, 5]<br/>class = good>, fillcolor="#399de5"] ;
88 -> 138 ;
139 [label=<gini = 0.0<br/>samples = 1<br/>value = [0, 3]<br/>class = good>, fillcolor="#399de5"] ;
87 -> 139 ;
140 [label=<to &le; 2.0<br/>gini = 0.444<br/>samples = 2<br/>value = [2, 1]<br/>class = bad>, fillcolor="#f2c09c"] ;
86 -> 140 ;
141 [label=<gini = 0.0<br/>samples = 1<br/>value = [0, 1]<br/>class = good>, fillcolor="#399de5"] ;
140 -> 141 ;
142 [label=<gini = 0.0<br/>samples = 1<br/>value = [2, 0]<br/>class = bad>, fillcolor="#e58139"] ;
140 -> 142 ;
143 [label=<gini = 0.0<br/>samples = 1<br/>value = [0, 2]<br/>class = good>, fillcolor="#399de5"] ;
85 -> 143 ;
144 [label=<been &le; 0.5<br/>gini = 0.444<br/>samples = 3<br/>value = [1, 2]<br/>class = good>, fillcolor="#9ccef2"] ;
84 -> 144 ;
145 [label=<gini = 0.0<br/>samples = 2<br/>value = [0, 2]<br/>class = good>, fillcolor="#399de5"] ;
144 -> 145 ;
146 [label=<gini = 0.0<br/>samples = 1<br/>value = [1, 0]<br/>class = bad>, fillcolor="#e58139"] ;
144 -> 146 ;
147 [label=<gini = 0.0<br/>samples = 1<br/>value = [0, 1]<br/>class = good>, fillcolor="#399de5"] ;
83 -> 147 ;
148 [label=<gini = 0.0<br/>samples = 1<br/>value = [2, 0]<br/>class = bad>, fillcolor="#e58139"] ;
82 -> 148 ;
149 [label=<gini = 0.0<br/>samples = 1<br/>value = [1, 0]<br/>class = bad>, fillcolor="#e58139"] ;
81 -> 149 ;
150 [label=<gini = 0.0<br/>samples = 1<br/>value = [0, 4]<br/>class = good>, fillcolor="#399de5"] ;
80 -> 150 ;
151 [label=<entropy &le; 0.5<br/>gini = 0.408<br/>samples = 3<br/>value = [5, 2]<br/>class = bad>, fillcolor="#efb388"] ;
79 -> 151 ;
152 [label=<who &le; 0.5<br/>gini = 0.5<br/>samples = 2<br/>value = [2, 2]<br/>class = bad>, fillcolor="#ffffff"] ;
151 -> 152 ;
153 [label=<gini = 0.0<br/>samples = 1<br/>value = [2, 0]<br/>class = bad>, fillcolor="#e58139"] ;
152 -> 153 ;
154 [label=<gini = 0.0<br/>samples = 1<br/>value = [0, 2]<br/>class = good>, fillcolor="#399de5"] ;
152 -> 154 ;
155 [label=<gini = 0.0<br/>samples = 1<br/>value = [3, 0]<br/>class = bad>, fillcolor="#e58139"] ;
151 -> 155 ;
156 [label=<gini = 0.0<br/>samples = 1<br/>value = [1, 0]<br/>class = bad>, fillcolor="#e58139"] ;
78 -> 156 ;
157 [label=<gini = 0.0<br/>samples = 1<br/>value = [0, 4]<br/>class = good>, fillcolor="#399de5"] ;
77 -> 157 ;
158 [label=<gini = 0.0<br/>samples = 1<br/>value = [0, 1]<br/>class = good>, fillcolor="#399de5"] ;
76 -> 158 ;
159 [label=<gini = 0.0<br/>samples = 1<br/>value = [1, 0]<br/>class = bad>, fillcolor="#e58139"] ;
75 -> 159 ;
160 [label=<gini = 0.0<br/>samples = 1<br/>value = [1, 0]<br/>class = bad>, fillcolor="#e58139"] ;
74 -> 160 ;
161 [label=<gini = 0.0<br/>samples = 1<br/>value = [1, 0]<br/>class = bad>, fillcolor="#e58139"] ;
73 -> 161 ;
162 [label=<gini = 0.0<br/>samples = 1<br/>value = [0, 2]<br/>class = good>, fillcolor="#399de5"] ;
72 -> 162 ;
163 [label=<gini = 0.0<br/>samples = 1<br/>value = [2, 0]<br/>class = bad>, fillcolor="#e58139"] ;
71 -> 163 ;
164 [label=<gini = 0.0<br/>samples = 1<br/>value = [1, 0]<br/>class = bad>, fillcolor="#e58139"] ;
70 -> 164 ;
165 [label=<gini = 0.0<br/>samples = 1<br/>value = [0, 2]<br/>class = good>, fillcolor="#399de5"] ;
69 -> 165 ;
166 [label=<gini = 0.0<br/>samples = 5<br/>value = [0, 6]<br/>class = good>, fillcolor="#399de5"] ;
68 -> 166 ;
167 [label=<gini = 0.0<br/>samples = 1<br/>value = [1, 0]<br/>class = bad>, fillcolor="#e58139"] ;
67 -> 167 ;
168 [label=<gini = 0.0<br/>samples = 1<br/>value = [1, 0]<br/>class = bad>, fillcolor="#e58139"] ;
66 -> 168 ;
169 [label=<gini = 0.0<br/>samples = 1<br/>value = [1, 0]<br/>class = bad>, fillcolor="#e58139"] ;
65 -> 169 ;
170 [label=<gini = 0.0<br/>samples = 1<br/>value = [1, 0]<br/>class = bad>, fillcolor="#e58139"] ;
64 -> 170 ;
171 [label=<no &le; 2.0<br/>gini = 0.346<br/>samples = 6<br/>value = [7, 2]<br/>class = bad>, fillcolor="#eca572"] ;
63 -> 171 ;
172 [label=<do &le; 9.0<br/>gini = 0.408<br/>samples = 4<br/>value = [5, 2]<br/>class = bad>, fillcolor="#efb388"] ;
171 -> 172 ;
173 [label=<gini = 0.0<br/>samples = 3<br/>value = [5, 0]<br/>class = bad>, fillcolor="#e58139"] ;
172 -> 173 ;
174 [label=<gini = 0.0<br/>samples = 1<br/>value = [0, 2]<br/>class = good>, fillcolor="#399de5"] ;
172 -> 174 ;
175 [label=<gini = 0.0<br/>samples = 2<br/>value = [2, 0]<br/>class = bad>, fillcolor="#e58139"] ;
171 -> 175 ;
176 [label=<gini = 0.0<br/>samples = 6<br/>value = [0, 7]<br/>class = good>, fillcolor="#399de5"] ;
62 -> 176 ;
177 [label=<gini = 0.0<br/>samples = 1<br/>value = [1, 0]<br/>class = bad>, fillcolor="#e58139"] ;
61 -> 177 ;
178 [label=<gini = 0.0<br/>samples = 1<br/>value = [0, 1]<br/>class = good>, fillcolor="#399de5"] ;
60 -> 178 ;
179 [label=<gini = 0.0<br/>samples = 1<br/>value = [1, 0]<br/>class = bad>, fillcolor="#e58139"] ;
59 -> 179 ;
180 [label=<gini = 0.0<br/>samples = 1<br/>value = [2, 0]<br/>class = bad>, fillcolor="#e58139"] ;
58 -> 180 ;
181 [label=<gini = 0.0<br/>samples = 1<br/>value = [2, 0]<br/>class = bad>, fillcolor="#e58139"] ;
57 -> 181 ;
182 [label=<gini = 0.0<br/>samples = 3<br/>value = [4, 0]<br/>class = bad>, fillcolor="#e58139"] ;
56 -> 182 ;
183 [label=<gini = 0.0<br/>samples = 4<br/>value = [0, 4]<br/>class = good>, fillcolor="#399de5"] ;
55 -> 183 ;
184 [label=<gini = 0.0<br/>samples = 1<br/>value = [2, 0]<br/>class = bad>, fillcolor="#e58139"] ;
54 -> 184 ;
185 [label=<gini = 0.0<br/>samples = 1<br/>value = [2, 0]<br/>class = bad>, fillcolor="#e58139"] ;
53 -> 185 ;
186 [label=<gini = 0.0<br/>samples = 1<br/>value = [1, 0]<br/>class = bad>, fillcolor="#e58139"] ;
52 -> 186 ;
187 [label=<gini = 0.0<br/>samples = 1<br/>value = [3, 0]<br/>class = bad>, fillcolor="#e58139"] ;
51 -> 187 ;
188 [label=<darkness &le; 1.5<br/>gini = 0.444<br/>samples = 5<br/>value = [6, 3]<br/>class = bad>, fillcolor="#f2c09c"] ;
50 -> 188 ;
189 [label=<wondereverybody &le; 0.5<br/>gini = 0.49<br/>samples = 4<br/>value = [4, 3]<br/>class = bad>, fillcolor="#f8e0ce"] ;
188 -> 189 ;
190 [label=<straight &le; 0.5<br/>gini = 0.32<br/>samples = 3<br/>value = [4, 1]<br/>class = bad>, fillcolor="#eca06a"] ;
189 -> 190 ;
191 [label=<winds &le; 1.0<br/>gini = 0.444<br/>samples = 2<br/>value = [2, 1]<br/>class = bad>, fillcolor="#f2c09c"] ;
190 -> 191 ;
192 [label=<gini = 0.0<br/>samples = 1<br/>value = [2, 0]<br/>class = bad>, fillcolor="#e58139"] ;
191 -> 192 ;
193 [label=<gini = 0.0<br/>samples = 1<br/>value = [0, 1]<br/>class = good>, fillcolor="#399de5"] ;
191 -> 193 ;
194 [label=<gini = 0.0<br/>samples = 1<br/>value = [2, 0]<br/>class = bad>, fillcolor="#e58139"] ;
190 -> 194 ;
195 [label=<gini = 0.0<br/>samples = 1<br/>value = [0, 2]<br/>class = good>, fillcolor="#399de5"] ;
189 -> 195 ;
196 [label=<gini = 0.0<br/>samples = 1<br/>value = [2, 0]<br/>class = bad>, fillcolor="#e58139"] ;
188 -> 196 ;
197 [label=<gini = 0.0<br/>samples = 2<br/>value = [0, 3]<br/>class = good>, fillcolor="#399de5"] ;
49 -> 197 ;
198 [label=<gini = 0.0<br/>samples = 1<br/>value = [2, 0]<br/>class = bad>, fillcolor="#e58139"] ;
48 -> 198 ;
199 [label=<gini = 0.0<br/>samples = 1<br/>value = [1, 0]<br/>class = bad>, fillcolor="#e58139"] ;
47 -> 199 ;
200 [label=<againplease &le; 0.5<br/>gini = 0.165<br/>samples = 6<br/>value = [1, 10]<br/>class = good>, fillcolor="#4da7e8"] ;
46 -> 200 ;
201 [label=<hold &le; 0.5<br/>gini = 0.18<br/>samples = 5<br/>value = [1, 9]<br/>class = good>, fillcolor="#4fa8e8"] ;
200 -> 201 ;
202 [label=<feelin &le; 0.5<br/>gini = 0.375<br/>samples = 3<br/>value = [1, 3]<br/>class = good>, fillcolor="#7bbeee"] ;
201 -> 202 ;
203 [label=<songs &le; 0.5<br/>gini = 0.444<br/>samples = 2<br/>value = [1, 2]<br/>class = good>, fillcolor="#9ccef2"] ;
202 -> 203 ;
204 [label=<gini = 0.0<br/>samples = 1<br/>value = [1, 0]<br/>class = bad>, fillcolor="#e58139"] ;
203 -> 204 ;
205 [label=<gini = 0.0<br/>samples = 1<br/>value = [0, 2]<br/>class = good>, fillcolor="#399de5"] ;
203 -> 205 ;
206 [label=<gini = 0.0<br/>samples = 1<br/>value = [0, 1]<br/>class = good>, fillcolor="#399de5"] ;
202 -> 206 ;
207 [label=<gini = 0.0<br/>samples = 2<br/>value = [0, 6]<br/>class = good>, fillcolor="#399de5"] ;
201 -> 207 ;
208 [label=<gini = 0.0<br/>samples = 1<br/>value = [0, 1]<br/>class = good>, fillcolor="#399de5"] ;
200 -> 208 ;
209 [label=<ohone &le; 0.5<br/>gini = 0.295<br/>samples = 23<br/>value = [7, 32]<br/>class = good>, fillcolor="#64b2eb"] ;
45 -> 209 ;
210 [label=<conquer &le; 0.5<br/>gini = 0.313<br/>samples = 22<br/>value = [7, 29]<br/>class = good>, fillcolor="#69b5eb"] ;
209 -> 210 ;
211 [label=<body &le; 0.5<br/>gini = 0.32<br/>samples = 21<br/>value = [7, 28]<br/>class = good>, fillcolor="#6ab6ec"] ;
210 -> 211 ;
212 [label=<those &le; 0.5<br/>gini = 0.334<br/>samples = 20<br/>value = [7, 26]<br/>class = good>, fillcolor="#6eb7ec"] ;
211 -> 212 ;
213 [label=<way &le; 0.5<br/>gini = 0.342<br/>samples = 19<br/>value = [7, 25]<br/>class = good>, fillcolor="#70b8ec"] ;
212 -> 213 ;
214 [label=<but &le; 0.5<br/>gini = 0.366<br/>samples = 17<br/>value = [7, 22]<br/>class = good>, fillcolor="#78bced"] ;
213 -> 214 ;
215 [label=<am &le; 3.5<br/>gini = 0.434<br/>samples = 12<br/>value = [7, 15]<br/>class = good>, fillcolor="#95cbf1"] ;
214 -> 215 ;
216 [label=<lovely &le; 0.5<br/>gini = 0.278<br/>samples = 11<br/>value = [3, 15]<br/>class = good>, fillcolor="#61b1ea"] ;
215 -> 216 ;
217 [label=<likin &le; 0.5<br/>gini = 0.305<br/>samples = 10<br/>value = [3, 13]<br/>class = good>, fillcolor="#67b4eb"] ;
216 -> 217 ;
218 [label=<double &le; 1.0<br/>gini = 0.32<br/>samples = 9<br/>value = [3, 12]<br/>class = good>, fillcolor="#6ab6ec"] ;
217 -> 218 ;
219 [label=<time &le; 0.5<br/>gini = 0.337<br/>samples = 8<br/>value = [3, 11]<br/>class = good>, fillcolor="#6fb8ec"] ;
218 -> 219 ;
220 [label=<gini = 0.0<br/>samples = 4<br/>value = [0, 7]<br/>class = good>, fillcolor="#399de5"] ;
219 -> 220 ;
221 [label=<fine &le; 0.5<br/>gini = 0.49<br/>samples = 4<br/>value = [3, 4]<br/>class = good>, fillcolor="#cee6f8"] ;
219 -> 221 ;
222 [label=<gini = 0.0<br/>samples = 2<br/>value = [0, 4]<br/>class = good>, fillcolor="#399de5"] ;
221 -> 222 ;
223 [label=<gini = 0.0<br/>samples = 2<br/>value = [3, 0]<br/>class = bad>, fillcolor="#e58139"] ;
221 -> 223 ;
224 [label=<gini = 0.0<br/>samples = 1<br/>value = [0, 1]<br/>class = good>, fillcolor="#399de5"] ;
218 -> 224 ;
225 [label=<gini = 0.0<br/>samples = 1<br/>value = [0, 1]<br/>class = good>, fillcolor="#399de5"] ;
217 -> 225 ;
226 [label=<gini = 0.0<br/>samples = 1<br/>value = [0, 2]<br/>class = good>, fillcolor="#399de5"] ;
216 -> 226 ;
227 [label=<gini = 0.0<br/>samples = 1<br/>value = [4, 0]<br/>class = bad>, fillcolor="#e58139"] ;
215 -> 227 ;
228 [label=<gini = 0.0<br/>samples = 5<br/>value = [0, 7]<br/>class = good>, fillcolor="#399de5"] ;
214 -> 228 ;
229 [label=<gini = 0.0<br/>samples = 2<br/>value = [0, 3]<br/>class = good>, fillcolor="#399de5"] ;
213 -> 229 ;
230 [label=<gini = 0.0<br/>samples = 1<br/>value = [0, 1]<br/>class = good>, fillcolor="#399de5"] ;
212 -> 230 ;
231 [label=<gini = 0.0<br/>samples = 1<br/>value = [0, 2]<br/>class = good>, fillcolor="#399de5"] ;
211 -> 231 ;
232 [label=<gini = 0.0<br/>samples = 1<br/>value = [0, 1]<br/>class = good>, fillcolor="#399de5"] ;
210 -> 232 ;
233 [label=<gini = 0.0<br/>samples = 1<br/>value = [0, 3]<br/>class = good>, fillcolor="#399de5"] ;
209 -> 233 ;
234 [label=<gini = 0.0<br/>samples = 2<br/>value = [3, 0]<br/>class = bad>, fillcolor="#e58139"] ;
44 -> 234 ;
235 [label=<gini = 0.0<br/>samples = 1<br/>value = [2, 0]<br/>class = bad>, fillcolor="#e58139"] ;
43 -> 235 ;
236 [label=<gini = 0.0<br/>samples = 1<br/>value = [3, 0]<br/>class = bad>, fillcolor="#e58139"] ;
42 -> 236 ;
237 [label=<gini = 0.0<br/>samples = 1<br/>value = [2, 0]<br/>class = bad>, fillcolor="#e58139"] ;
41 -> 237 ;
238 [label=<gini = 0.0<br/>samples = 1<br/>value = [2, 0]<br/>class = bad>, fillcolor="#e58139"] ;
40 -> 238 ;
239 [label=<gini = 0.0<br/>samples = 3<br/>value = [3, 0]<br/>class = bad>, fillcolor="#e58139"] ;
39 -> 239 ;
240 [label=<gini = 0.0<br/>samples = 14<br/>value = [23, 0]<br/>class = bad>, fillcolor="#e58139"] ;
38 -> 240 ;
241 [label=<shy &le; 0.5<br/>gini = 0.415<br/>samples = 13<br/>value = [12, 5]<br/>class = bad>, fillcolor="#f0b58b"] ;
37 -> 241 ;
242 [label=<wish &le; 1.5<br/>gini = 0.375<br/>samples = 12<br/>value = [12, 4]<br/>class = bad>, fillcolor="#eeab7b"] ;
241 -> 242 ;
243 [label=<vidim &le; 0.5<br/>gini = 0.32<br/>samples = 11<br/>value = [12, 3]<br/>class = bad>, fillcolor="#eca06a"] ;
242 -> 243 ;
244 [label=<you &le; 17.0<br/>gini = 0.355<br/>samples = 10<br/>value = [10, 3]<br/>class = bad>, fillcolor="#eda774"] ;
243 -> 244 ;
245 [label=<head &le; 1.5<br/>gini = 0.278<br/>samples = 9<br/>value = [10, 2]<br/>class = bad>, fillcolor="#ea9a61"] ;
244 -> 245 ;
246 [label=<come &le; 0.5<br/>gini = 0.32<br/>samples = 8<br/>value = [8, 2]<br/>class = bad>, fillcolor="#eca06a"] ;
245 -> 246 ;
247 [label=<time &le; 1.0<br/>gini = 0.198<br/>samples = 7<br/>value = [8, 1]<br/>class = bad>, fillcolor="#e89152"] ;
246 -> 247 ;
248 [label=<hand &le; 1.0<br/>gini = 0.219<br/>samples = 6<br/>value = [7, 1]<br/>class = bad>, fillcolor="#e99355"] ;
247 -> 248 ;
249 [label=<keep &le; 4.0<br/>gini = 0.278<br/>samples = 5<br/>value = [5, 1]<br/>class = bad>, fillcolor="#ea9a61"] ;
248 -> 249 ;
250 [label=<it &le; 3.0<br/>gini = 0.32<br/>samples = 4<br/>value = [4, 1]<br/>class = bad>, fillcolor="#eca06a"] ;
249 -> 250 ;
251 [label=<liberty &le; 0.5<br/>gini = 0.5<br/>samples = 2<br/>value = [1, 1]<br/>class = bad>, fillcolor="#ffffff"] ;
250 -> 251 ;
252 [label=<gini = 0.0<br/>samples = 1<br/>value = [1, 0]<br/>class = bad>, fillcolor="#e58139"] ;
251 -> 252 ;
253 [label=<gini = 0.0<br/>samples = 1<br/>value = [0, 1]<br/>class = good>, fillcolor="#399de5"] ;
251 -> 253 ;
254 [label=<gini = 0.0<br/>samples = 2<br/>value = [3, 0]<br/>class = bad>, fillcolor="#e58139"] ;
250 -> 254 ;
255 [label=<gini = 0.0<br/>samples = 1<br/>value = [1, 0]<br/>class = bad>, fillcolor="#e58139"] ;
249 -> 255 ;
256 [label=<gini = 0.0<br/>samples = 1<br/>value = [2, 0]<br/>class = bad>, fillcolor="#e58139"] ;
248 -> 256 ;
257 [label=<gini = 0.0<br/>samples = 1<br/>value = [1, 0]<br/>class = bad>, fillcolor="#e58139"] ;
247 -> 257 ;
258 [label=<gini = 0.0<br/>samples = 1<br/>value = [0, 1]<br/>class = good>, fillcolor="#399de5"] ;
246 -> 258 ;
259 [label=<gini = 0.0<br/>samples = 1<br/>value = [2, 0]<br/>class = bad>, fillcolor="#e58139"] ;
245 -> 259 ;
260 [label=<gini = 0.0<br/>samples = 1<br/>value = [0, 1]<br/>class = good>, fillcolor="#399de5"] ;
244 -> 260 ;
261 [label=<gini = 0.0<br/>samples = 1<br/>value = [2, 0]<br/>class = bad>, fillcolor="#e58139"] ;
243 -> 261 ;
262 [label=<gini = 0.0<br/>samples = 1<br/>value = [0, 1]<br/>class = good>, fillcolor="#399de5"] ;
242 -> 262 ;
263 [label=<gini = 0.0<br/>samples = 1<br/>value = [0, 1]<br/>class = good>, fillcolor="#399de5"] ;
241 -> 263 ;
264 [label=<gini = 0.0<br/>samples = 6<br/>value = [9, 0]<br/>class = bad>, fillcolor="#e58139"] ;
36 -> 264 ;
265 [label=<gini = 0.0<br/>samples = 3<br/>value = [0, 7]<br/>class = good>, fillcolor="#399de5"] ;
35 -> 265 ;
266 [label=<gini = 0.0<br/>samples = 1<br/>value = [3, 0]<br/>class = bad>, fillcolor="#e58139"] ;
34 -> 266 ;
267 [label=<gini = 0.0<br/>samples = 3<br/>value = [7, 0]<br/>class = bad>, fillcolor="#e58139"] ;
33 -> 267 ;
268 [label=<웬만한 &le; 0.5<br/>gini = 0.232<br/>samples = 55<br/>value = [11, 71]<br/>class = good>, fillcolor="#58ace9"] ;
32 -> 268 ;
269 [label=<strayed &le; 0.5<br/>gini = 0.2<br/>samples = 54<br/>value = [9, 71]<br/>class = good>, fillcolor="#52a9e8"] ;
268 -> 269 ;
270 [label=<progress &le; 0.5<br/>gini = 0.163<br/>samples = 53<br/>value = [7, 71]<br/>class = good>, fillcolor="#4da7e8"] ;
269 -> 270 ;
271 [label=<about &le; 0.5<br/>gini = 0.123<br/>samples = 52<br/>value = [5, 71]<br/>class = good>, fillcolor="#47a4e7"] ;
270 -> 271 ;
272 [label=<telling &le; 0.5<br/>gini = 0.15<br/>samples = 41<br/>value = [5, 56]<br/>class = good>, fillcolor="#4ba6e7"] ;
271 -> 272 ;
273 [label=<without &le; 1.0<br/>gini = 0.158<br/>samples = 39<br/>value = [5, 53]<br/>class = good>, fillcolor="#4ca6e7"] ;
272 -> 273 ;
274 [label=<lets &le; 0.5<br/>gini = 0.177<br/>samples = 36<br/>value = [5, 46]<br/>class = good>, fillcolor="#4fa8e8"] ;
273 -> 274 ;
275 [label=<past &le; 0.5<br/>gini = 0.201<br/>samples = 31<br/>value = [5, 39]<br/>class = good>, fillcolor="#52aae8"] ;
274 -> 275 ;
276 [label=<pass &le; 5.0<br/>gini = 0.169<br/>samples = 30<br/>value = [4, 39]<br/>class = good>, fillcolor="#4da7e8"] ;
275 -> 276 ;
277 [label=<kick &le; 1.0<br/>gini = 0.133<br/>samples = 29<br/>value = [3, 39]<br/>class = good>, fillcolor="#48a5e7"] ;
276 -> 277 ;
278 [label=<arm &le; 0.5<br/>gini = 0.093<br/>samples = 28<br/>value = [2, 39]<br/>class = good>, fillcolor="#43a2e6"] ;
277 -> 278 ;
279 [label=<tonight &le; 0.5<br/>gini = 0.1<br/>samples = 27<br/>value = [2, 36]<br/>class = good>, fillcolor="#44a2e6"] ;
278 -> 279 ;
280 [label=<gonna &le; 0.5<br/>gini = 0.121<br/>samples = 24<br/>value = [2, 29]<br/>class = good>, fillcolor="#47a4e7"] ;
279 -> 280 ;
281 [label=<baby &le; 0.5<br/>gini = 0.172<br/>samples = 18<br/>value = [2, 19]<br/>class = good>, fillcolor="#4ea7e8"] ;
280 -> 281 ;
282 [label=<gini = 0.0<br/>samples = 9<br/>value = [0, 12]<br/>class = good>, fillcolor="#399de5"] ;
281 -> 282 ;
283 [label=<all &le; 0.5<br/>gini = 0.346<br/>samples = 9<br/>value = [2, 7]<br/>class = good>, fillcolor="#72b9ec"] ;
281 -> 283 ;
284 [label=<geared &le; 0.5<br/>gini = 0.444<br/>samples = 6<br/>value = [2, 4]<br/>class = good>, fillcolor="#9ccef2"] ;
283 -> 284 ;
285 [label=<where &le; 0.5<br/>gini = 0.48<br/>samples = 5<br/>value = [2, 3]<br/>class = good>, fillcolor="#bddef6"] ;
284 -> 285 ;
286 [label=<see &le; 0.5<br/>gini = 0.5<br/>samples = 4<br/>value = [2, 2]<br/>class = bad>, fillcolor="#ffffff"] ;
285 -> 286 ;
287 [label=<gini = 0.0<br/>samples = 1<br/>value = [1, 0]<br/>class = bad>, fillcolor="#e58139"] ;
286 -> 287 ;
288 [label=<too &le; 0.5<br/>gini = 0.444<br/>samples = 3<br/>value = [1, 2]<br/>class = good>, fillcolor="#9ccef2"] ;
286 -> 288 ;
289 [label=<gini = 0.0<br/>samples = 2<br/>value = [0, 2]<br/>class = good>, fillcolor="#399de5"] ;
288 -> 289 ;
290 [label=<gini = 0.0<br/>samples = 1<br/>value = [1, 0]<br/>class = bad>, fillcolor="#e58139"] ;
288 -> 290 ;
291 [label=<gini = 0.0<br/>samples = 1<br/>value = [0, 1]<br/>class = good>, fillcolor="#399de5"] ;
285 -> 291 ;
292 [label=<gini = 0.0<br/>samples = 1<br/>value = [0, 1]<br/>class = good>, fillcolor="#399de5"] ;
284 -> 292 ;
293 [label=<gini = 0.0<br/>samples = 3<br/>value = [0, 3]<br/>class = good>, fillcolor="#399de5"] ;
283 -> 293 ;
294 [label=<gini = 0.0<br/>samples = 6<br/>value = [0, 10]<br/>class = good>, fillcolor="#399de5"] ;
280 -> 294 ;
295 [label=<gini = 0.0<br/>samples = 3<br/>value = [0, 7]<br/>class = good>, fillcolor="#399de5"] ;
279 -> 295 ;
296 [label=<gini = 0.0<br/>samples = 1<br/>value = [0, 3]<br/>class = good>, fillcolor="#399de5"] ;
278 -> 296 ;
297 [label=<gini = 0.0<br/>samples = 1<br/>value = [1, 0]<br/>class = bad>, fillcolor="#e58139"] ;
277 -> 297 ;
298 [label=<gini = 0.0<br/>samples = 1<br/>value = [1, 0]<br/>class = bad>, fillcolor="#e58139"] ;
276 -> 298 ;
299 [label=<gini = 0.0<br/>samples = 1<br/>value = [1, 0]<br/>class = bad>, fillcolor="#e58139"] ;
275 -> 299 ;
300 [label=<gini = 0.0<br/>samples = 5<br/>value = [0, 7]<br/>class = good>, fillcolor="#399de5"] ;
274 -> 300 ;
301 [label=<gini = 0.0<br/>samples = 3<br/>value = [0, 7]<br/>class = good>, fillcolor="#399de5"] ;
273 -> 301 ;
302 [label=<gini = 0.0<br/>samples = 2<br/>value = [0, 3]<br/>class = good>, fillcolor="#399de5"] ;
272 -> 302 ;
303 [label=<gini = 0.0<br/>samples = 11<br/>value = [0, 15]<br/>class = good>, fillcolor="#399de5"] ;
271 -> 303 ;
304 [label=<gini = 0.0<br/>samples = 1<br/>value = [2, 0]<br/>class = bad>, fillcolor="#e58139"] ;
270 -> 304 ;
305 [label=<gini = 0.0<br/>samples = 1<br/>value = [2, 0]<br/>class = bad>, fillcolor="#e58139"] ;
269 -> 305 ;
306 [label=<gini = 0.0<br/>samples = 1<br/>value = [2, 0]<br/>class = bad>, fillcolor="#e58139"] ;
268 -> 306 ;
307 [label=<gini = 0.0<br/>samples = 4<br/>value = [4, 0]<br/>class = bad>, fillcolor="#e58139"] ;
31 -> 307 ;
308 [label=<gini = 0.0<br/>samples = 2<br/>value = [3, 0]<br/>class = bad>, fillcolor="#e58139"] ;
30 -> 308 ;
309 [label=<gini = 0.0<br/>samples = 1<br/>value = [3, 0]<br/>class = bad>, fillcolor="#e58139"] ;
29 -> 309 ;
310 [label=<geld &le; 0.5<br/>gini = 0.436<br/>samples = 477<br/>value = [228, 483]<br/>class = good>, fillcolor="#96cbf1"] ;
28 -> 310 ;
311 [label=<more &le; 0.5<br/>gini = 0.43<br/>samples = 472<br/>value = [220, 483]<br/>class = good>, fillcolor="#93caf1"] ;
310 -> 311 ;
312 [label=<indiscreet &le; 0.5<br/>gini = 0.451<br/>samples = 384<br/>value = [193, 370]<br/>class = good>, fillcolor="#a0d0f3"] ;
311 -> 312 ;
313 [label=<way &le; 2.5<br/>gini = 0.448<br/>samples = 382<br/>value = [190, 370]<br/>class = good>, fillcolor="#9fcff2"] ;
312 -> 313 ;
314 [label=<roam &le; 1.5<br/>gini = 0.458<br/>samples = 360<br/>value = [186, 337]<br/>class = good>, fillcolor="#a6d3f3"] ;
313 -> 314 ;
315 [label=<en &le; 0.5<br/>gini = 0.456<br/>samples = 358<br/>value = [183, 337]<br/>class = good>, fillcolor="#a5d2f3"] ;
314 -> 315 ;
316 [label=<cage &le; 0.5<br/>gini = 0.453<br/>samples = 355<br/>value = [179, 337]<br/>class = good>, fillcolor="#a2d1f3"] ;
315 -> 316 ;
317 [label=<legs &le; 0.5<br/>gini = 0.448<br/>samples = 352<br/>value = [173, 337]<br/>class = good>, fillcolor="#9fcff2"] ;
316 -> 317 ;
318 [label=<won &le; 1.5<br/>gini = 0.444<br/>samples = 350<br/>value = [168, 337]<br/>class = good>, fillcolor="#9ccef2"] ;
317 -> 318 ;
319 [label=<oder &le; 0.5<br/>gini = 0.438<br/>samples = 344<br/>value = [161, 337]<br/>class = good>, fillcolor="#98ccf1"] ;
318 -> 319 ;
320 [label=<spend &le; 0.5<br/>gini = 0.433<br/>samples = 341<br/>value = [156, 337]<br/>class = good>, fillcolor="#95caf1"] ;
319 -> 320 ;
321 [label=<living &le; 0.5<br/>gini = 0.436<br/>samples = 335<br/>value = [156, 329]<br/>class = good>, fillcolor="#97cbf1"] ;
320 -> 321 ;
322 [label=<gnu &le; 0.5<br/>gini = 0.431<br/>samples = 322<br/>value = [147, 321]<br/>class = good>, fillcolor="#94caf1"] ;
321 -> 322 ;
323 [label=<sleep &le; 2.5<br/>gini = 0.429<br/>samples = 321<br/>value = [145, 321]<br/>class = good>, fillcolor="#92c9f1"] ;
322 -> 323 ;
324 [label=<colada &le; 14.5<br/>gini = 0.426<br/>samples = 320<br/>value = [143, 321]<br/>class = good>, fillcolor="#91c9f1"] ;
323 -> 324 ;
325 [label=<pride &le; 2.0<br/>gini = 0.423<br/>samples = 319<br/>value = [140, 321]<br/>class = good>, fillcolor="#8fc8f0"] ;
324 -> 325 ;
326 [label=<kalibwoy &le; 0.5<br/>gini = 0.419<br/>samples = 318<br/>value = [137, 321]<br/>class = good>, fillcolor="#8ec7f0"] ;
325 -> 326 ;
327 [label=<food &le; 0.5<br/>gini = 0.416<br/>samples = 317<br/>value = [134, 321]<br/>class = good>, fillcolor="#8cc6f0"] ;
326 -> 327 ;
328 [label=<free &le; 0.5<br/>gini = 0.413<br/>samples = 316<br/>value = [132, 321]<br/>class = good>, fillcolor="#8ac5f0"] ;
327 -> 328 ;
329 [label=<flo &le; 0.5<br/>gini = 0.424<br/>samples = 291<br/>value = [128, 292]<br/>class = good>, fillcolor="#90c8f0"] ;
328 -> 329 ;
330 [label=<muoio &le; 0.5<br/>gini = 0.422<br/>samples = 290<br/>value = [127, 292]<br/>class = good>, fillcolor="#8fc8f0"] ;
329 -> 330 ;
331 [label=<two &le; 1.5<br/>gini = 0.42<br/>samples = 289<br/>value = [125, 292]<br/>class = good>, fillcolor="#8ec7f0"] ;
330 -> 331 ;
332 [label=<sudden &le; 2.5<br/>gini = 0.413<br/>samples = 285<br/>value = [120, 291]<br/>class = good>, fillcolor="#8bc5f0"] ;
331 -> 332 ;
333 [label=<für &le; 0.5<br/>gini = 0.412<br/>samples = 284<br/>value = [119, 291]<br/>class = good>, fillcolor="#8ac5f0"] ;
332 -> 333 ;
334 [label=<tropics &le; 0.5<br/>gini = 0.406<br/>samples = 280<br/>value = [115, 291]<br/>class = good>, fillcolor="#87c4ef"] ;
333 -> 334 ;
335 [label=<ends &le; 3.5<br/>gini = 0.401<br/>samples = 279<br/>value = [112, 291]<br/>class = good>, fillcolor="#85c3ef"] ;
334 -> 335 ;
336 [label=<moment &le; 1.5<br/>gini = 0.4<br/>samples = 278<br/>value = [111, 291]<br/>class = good>, fillcolor="#85c2ef"] ;
335 -> 336 ;
337 [label=<tears &le; 2.5<br/>gini = 0.392<br/>samples = 275<br/>value = [106, 290]<br/>class = good>, fillcolor="#81c1ef"] ;
336 -> 337 ;
338 [label=<min &le; 2.5<br/>gini = 0.39<br/>samples = 274<br/>value = [105, 290]<br/>class = good>, fillcolor="#81c0ee"] ;
337 -> 338 ;
339 [label=<screams &le; 0.5<br/>gini = 0.389<br/>samples = 273<br/>value = [104, 290]<br/>class = good>, fillcolor="#80c0ee"] ;
338 -> 339 ;
340 [label=<palpitations &le; 0.5<br/>gini = 0.387<br/>samples = 272<br/>value = [103, 290]<br/>class = good>, fillcolor="#7fc0ee"] ;
339 -> 340 ;
341 [label=<luta &le; 0.5<br/>gini = 0.381<br/>samples = 271<br/>value = [100, 290]<br/>class = good>, fillcolor="#7dbfee"] ;
340 -> 341 ;
342 [label=<elastic &le; 0.5<br/>gini = 0.379<br/>samples = 270<br/>value = [99, 290]<br/>class = good>, fillcolor="#7dbeee"] ;
341 -> 342 ;
343 [label=<ever &le; 2.5<br/>gini = 0.376<br/>samples = 269<br/>value = [97, 290]<br/>class = good>, fillcolor="#7bbeee"] ;
342 -> 343 ;
344 [label=<lemonade &le; 0.5<br/>gini = 0.39<br/>samples = 257<br/>value = [96, 266]<br/>class = good>, fillcolor="#80c0ee"] ;
343 -> 344 ;
345 [label=<both &le; 1.5<br/>gini = 0.388<br/>samples = 256<br/>value = [95, 266]<br/>class = good>, fillcolor="#80c0ee"] ;
344 -> 345 ;
346 [label=<there &le; 3.5<br/>gini = 0.382<br/>samples = 255<br/>value = [92, 266]<br/>class = good>, fillcolor="#7dbfee"] ;
345 -> 346 ;
347 [label=<aromatic &le; 0.5<br/>gini = 0.37<br/>samples = 239<br/>value = [81, 250]<br/>class = good>, fillcolor="#79bded"] ;
346 -> 347 ;
348 [label=<alley &le; 0.5<br/>gini = 0.367<br/>samples = 238<br/>value = [80, 250]<br/>class = good>, fillcolor="#78bced"] ;
347 -> 348 ;
349 [label=<axle &le; 0.5<br/>gini = 0.363<br/>samples = 237<br/>value = [78, 250]<br/>class = good>, fillcolor="#77bced"] ;
348 -> 349 ;
350 [label=<let &le; 0.5<br/>gini = 0.36<br/>samples = 236<br/>value = [77, 250]<br/>class = good>, fillcolor="#76bbed"] ;
349 -> 350 ;
351 [label=<awhile &le; 1.0<br/>gini = 0.324<br/>samples = 166<br/>value = [48, 188]<br/>class = good>, fillcolor="#6cb6ec"] ;
350 -> 351 ;
352 [label=<freedom &le; 0.5<br/>gini = 0.32<br/>samples = 165<br/>value = [47, 188]<br/>class = good>, fillcolor="#6ab6ec"] ;
351 -> 352 ;
353 [label=<addiction &le; 0.5<br/>gini = 0.316<br/>samples = 164<br/>value = [46, 188]<br/>class = good>, fillcolor="#69b5eb"] ;
352 -> 353 ;
354 [label=<stay &le; 1.5<br/>gini = 0.312<br/>samples = 163<br/>value = [45, 188]<br/>class = good>, fillcolor="#68b4eb"] ;
353 -> 354 ;
355 [label=<cathy &le; 1.5<br/>gini = 0.287<br/>samples = 159<br/>value = [39, 186]<br/>class = good>, fillcolor="#63b2ea"] ;
354 -> 355 ;
356 [label=<inhabit &le; 1.0<br/>gini = 0.282<br/>samples = 158<br/>value = [38, 186]<br/>class = good>, fillcolor="#61b1ea"] ;
355 -> 356 ;
357 [label=<amore &le; 0.5<br/>gini = 0.277<br/>samples = 157<br/>value = [37, 186]<br/>class = good>, fillcolor="#60b0ea"] ;
356 -> 357 ;
358 [label=<tamer &le; 0.5<br/>gini = 0.267<br/>samples = 156<br/>value = [35, 186]<br/>class = good>, fillcolor="#5eafea"] ;
357 -> 358 ;
359 [label=<stretched &le; 0.5<br/>gini = 0.261<br/>samples = 155<br/>value = [34, 186]<br/>class = good>, fillcolor="#5dafea"] ;
358 -> 359 ;
360 [label=<going &le; 0.5<br/>gini = 0.257<br/>samples = 153<br/>value = [33, 185]<br/>class = good>, fillcolor="#5caeea"] ;
359 -> 360 ;
361 [label=<panic &le; 0.5<br/>gini = 0.23<br/>samples = 139<br/>value = [26, 170]<br/>class = good>, fillcolor="#57ace9"] ;
360 -> 361 ;
362 [label=<gon &le; 0.5<br/>gini = 0.224<br/>samples = 138<br/>value = [25, 170]<br/>class = good>, fillcolor="#56abe9"] ;
361 -> 362 ;
363 [label=<life &le; 1.5<br/>gini = 0.212<br/>samples = 136<br/>value = [23, 168]<br/>class = good>, fillcolor="#54aae9"] ;
362 -> 363 ;
364 [label=<re &le; 0.5<br/>gini = 0.193<br/>samples = 123<br/>value = [19, 157]<br/>class = good>, fillcolor="#51a9e8"] ;
363 -> 364 ;
365 [label=<die &le; 0.5<br/>gini = 0.133<br/>samples = 117<br/>value = [12, 156]<br/>class = good>, fillcolor="#48a5e7"] ;
364 -> 365 ;
366 [label=<brain &le; 0.5<br/>gini = 0.124<br/>samples = 114<br/>value = [11, 154]<br/>class = good>, fillcolor="#47a4e7"] ;
365 -> 366 ;
367 [label=<though &le; 0.5<br/>gini = 0.127<br/>samples = 112<br/>value = [11, 151]<br/>class = good>, fillcolor="#47a4e7"] ;
366 -> 367 ;
368 [label=<twirl &le; 0.5<br/>gini = 0.134<br/>samples = 105<br/>value = [11, 141]<br/>class = good>, fillcolor="#48a5e7"] ;
367 -> 368 ;
369 [label=<womans &le; 0.5<br/>gini = 0.124<br/>samples = 104<br/>value = [10, 141]<br/>class = good>, fillcolor="#47a4e7"] ;
368 -> 369 ;
370 [label=<car &le; 0.5<br/>gini = 0.124<br/>samples = 103<br/>value = [10, 140]<br/>class = good>, fillcolor="#47a4e7"] ;
369 -> 370 ;
371 [label=<resting &le; 1.0<br/>gini = 0.128<br/>samples = 100<br/>value = [10, 136]<br/>class = good>, fillcolor="#48a4e7"] ;
370 -> 371 ;
372 [label=<treasure &le; 0.5<br/>gini = 0.131<br/>samples = 99<br/>value = [10, 132]<br/>class = good>, fillcolor="#48a4e7"] ;
371 -> 372 ;
373 [label=<the &le; 7.5<br/>gini = 0.133<br/>samples = 98<br/>value = [10, 130]<br/>class = good>, fillcolor="#48a5e7"] ;
372 -> 373 ;
374 [label=<knows &le; 0.5<br/>gini = 0.071<br/>samples = 55<br/>value = [3, 78]<br/>class = good>, fillcolor="#41a1e6"] ;
373 -> 374 ;
375 [label=<lot &le; 0.5<br/>gini = 0.075<br/>samples = 52<br/>value = [3, 74]<br/>class = good>, fillcolor="#41a1e6"] ;
374 -> 375 ;
376 [label=<he &le; 0.5<br/>gini = 0.08<br/>samples = 50<br/>value = [3, 69]<br/>class = good>, fillcolor="#42a1e6"] ;
375 -> 376 ;
377 [label=<facemy &le; 0.5<br/>gini = 0.088<br/>samples = 46<br/>value = [3, 62]<br/>class = good>, fillcolor="#43a2e6"] ;
376 -> 377 ;
378 [label=<weekend &le; 0.5<br/>gini = 0.089<br/>samples = 45<br/>value = [3, 61]<br/>class = good>, fillcolor="#43a2e6"] ;
377 -> 378 ;
379 [label=<spike &le; 0.5<br/>gini = 0.091<br/>samples = 44<br/>value = [3, 60]<br/>class = good>, fillcolor="#43a2e6"] ;
378 -> 379 ;
380 [label=<plan &le; 0.5<br/>gini = 0.092<br/>samples = 43<br/>value = [3, 59]<br/>class = good>, fillcolor="#43a2e6"] ;
379 -> 380 ;
381 [label=<teach &le; 0.5<br/>gini = 0.095<br/>samples = 41<br/>value = [3, 57]<br/>class = good>, fillcolor="#43a2e6"] ;
380 -> 381 ;
382 [label=<golden &le; 1.0<br/>gini = 0.1<br/>samples = 40<br/>value = [3, 54]<br/>class = good>, fillcolor="#44a2e6"] ;
381 -> 382 ;
383 [label=<brick &le; 2.0<br/>gini = 0.103<br/>samples = 39<br/>value = [3, 52]<br/>class = good>, fillcolor="#44a3e6"] ;
382 -> 383 ;
384 [label=<shelter &le; 0.5<br/>gini = 0.105<br/>samples = 38<br/>value = [3, 51]<br/>class = good>, fillcolor="#45a3e7"] ;
383 -> 384 ;
385 [label=<calm &le; 0.5<br/>gini = 0.111<br/>samples = 37<br/>value = [3, 48]<br/>class = good>, fillcolor="#45a3e7"] ;
384 -> 385 ;
386 [label=<never &le; 1.5<br/>gini = 0.113<br/>samples = 36<br/>value = [3, 47]<br/>class = good>, fillcolor="#46a3e7"] ;
385 -> 386 ;
387 [label=<find &le; 1.0<br/>gini = 0.042<br/>samples = 34<br/>value = [1, 46]<br/>class = good>, fillcolor="#3d9fe6"] ;
386 -> 387 ;
388 [label=<cold &le; 0.5<br/>gini = 0.045<br/>samples = 31<br/>value = [1, 42]<br/>class = good>, fillcolor="#3e9fe6"] ;
387 -> 388 ;
389 [label=<incense &le; 1.5<br/>gini = 0.05<br/>samples = 29<br/>value = [1, 38]<br/>class = good>, fillcolor="#3ea0e6"] ;
388 -> 389 ;
390 [label=<mafiawhy &le; 0.5<br/>gini = 0.051<br/>samples = 28<br/>value = [1, 37]<br/>class = good>, fillcolor="#3ea0e6"] ;
389 -> 390 ;
391 [label=<happened &le; 0.5<br/>gini = 0.053<br/>samples = 27<br/>value = [1, 36]<br/>class = good>, fillcolor="#3ea0e6"] ;
390 -> 391 ;
392 [label=<beginning &le; 1.0<br/>gini = 0.054<br/>samples = 26<br/>value = [1, 35]<br/>class = good>, fillcolor="#3fa0e6"] ;
391 -> 392 ;
393 [label=<whoaoh &le; 5.0<br/>gini = 0.057<br/>samples = 25<br/>value = [1, 33]<br/>class = good>, fillcolor="#3fa0e6"] ;
392 -> 393 ;
394 [label=<awayyou &le; 0.5<br/>gini = 0.059<br/>samples = 24<br/>value = [1, 32]<br/>class = good>, fillcolor="#3fa0e6"] ;
393 -> 394 ;
395 [label=<what &le; 0.5<br/>gini = 0.061<br/>samples = 23<br/>value = [1, 31]<br/>class = good>, fillcolor="#3fa0e6"] ;
394 -> 395 ;
396 [label=<old &le; 0.5<br/>gini = 0.071<br/>samples = 19<br/>value = [1, 26]<br/>class = good>, fillcolor="#41a1e6"] ;
395 -> 396 ;
397 [label=<seem &le; 3.0<br/>gini = 0.074<br/>samples = 18<br/>value = [1, 25]<br/>class = good>, fillcolor="#41a1e6"] ;
396 -> 397 ;
398 [label=<them &le; 0.5<br/>gini = 0.083<br/>samples = 17<br/>value = [1, 22]<br/>class = good>, fillcolor="#42a1e6"] ;
397 -> 398 ;
399 [label=<am &le; 0.5<br/>gini = 0.091<br/>samples = 15<br/>value = [1, 20]<br/>class = good>, fillcolor="#43a2e6"] ;
398 -> 399 ;
400 [label=<to &le; 1.0<br/>gini = 0.111<br/>samples = 13<br/>value = [1, 16]<br/>class = good>, fillcolor="#45a3e7"] ;
399 -> 400 ;
401 [label=<real &le; 0.5<br/>gini = 0.245<br/>samples = 6<br/>value = [1, 6]<br/>class = good>, fillcolor="#5aade9"] ;
400 -> 401 ;
402 [label=<well &le; 3.0<br/>gini = 0.278<br/>samples = 5<br/>value = [1, 5]<br/>class = good>, fillcolor="#61b1ea"] ;
401 -> 402 ;
403 [label=<bigass &le; 0.5<br/>gini = 0.32<br/>samples = 4<br/>value = [1, 4]<br/>class = good>, fillcolor="#6ab6ec"] ;
402 -> 403 ;
404 [label=<streets &le; 0.5<br/>gini = 0.444<br/>samples = 3<br/>value = [1, 2]<br/>class = good>, fillcolor="#9ccef2"] ;
403 -> 404 ;
405 [label=<club &le; 0.5<br/>gini = 0.5<br/>samples = 2<br/>value = [1, 1]<br/>class = bad>, fillcolor="#ffffff"] ;
404 -> 405 ;
406 [label=<gini = 0.0<br/>samples = 1<br/>value = [0, 1]<br/>class = good>, fillcolor="#399de5"] ;
405 -> 406 ;
407 [label=<gini = 0.0<br/>samples = 1<br/>value = [1, 0]<br/>class = bad>, fillcolor="#e58139"] ;
405 -> 407 ;
408 [label=<gini = 0.0<br/>samples = 1<br/>value = [0, 1]<br/>class = good>, fillcolor="#399de5"] ;
404 -> 408 ;
409 [label=<gini = 0.0<br/>samples = 1<br/>value = [0, 2]<br/>class = good>, fillcolor="#399de5"] ;
403 -> 409 ;
410 [label=<gini = 0.0<br/>samples = 1<br/>value = [0, 1]<br/>class = good>, fillcolor="#399de5"] ;
402 -> 410 ;
411 [label=<gini = 0.0<br/>samples = 1<br/>value = [0, 1]<br/>class = good>, fillcolor="#399de5"] ;
401 -> 411 ;
412 [label=<gini = 0.0<br/>samples = 7<br/>value = [0, 10]<br/>class = good>, fillcolor="#399de5"] ;
400 -> 412 ;
413 [label=<gini = 0.0<br/>samples = 2<br/>value = [0, 4]<br/>class = good>, fillcolor="#399de5"] ;
399 -> 413 ;
414 [label=<gini = 0.0<br/>samples = 2<br/>value = [0, 2]<br/>class = good>, fillcolor="#399de5"] ;
398 -> 414 ;
415 [label=<gini = 0.0<br/>samples = 1<br/>value = [0, 3]<br/>class = good>, fillcolor="#399de5"] ;
397 -> 415 ;
416 [label=<gini = 0.0<br/>samples = 1<br/>value = [0, 1]<br/>class = good>, fillcolor="#399de5"] ;
396 -> 416 ;
417 [label=<gini = 0.0<br/>samples = 4<br/>value = [0, 5]<br/>class = good>, fillcolor="#399de5"] ;
395 -> 417 ;
418 [label=<gini = 0.0<br/>samples = 1<br/>value = [0, 1]<br/>class = good>, fillcolor="#399de5"] ;
394 -> 418 ;
419 [label=<gini = 0.0<br/>samples = 1<br/>value = [0, 1]<br/>class = good>, fillcolor="#399de5"] ;
393 -> 419 ;
420 [label=<gini = 0.0<br/>samples = 1<br/>value = [0, 2]<br/>class = good>, fillcolor="#399de5"] ;
392 -> 420 ;
421 [label=<gini = 0.0<br/>samples = 1<br/>value = [0, 1]<br/>class = good>, fillcolor="#399de5"] ;
391 -> 421 ;
422 [label=<gini = 0.0<br/>samples = 1<br/>value = [0, 1]<br/>class = good>, fillcolor="#399de5"] ;
390 -> 422 ;
423 [label=<gini = 0.0<br/>samples = 1<br/>value = [0, 1]<br/>class = good>, fillcolor="#399de5"] ;
389 -> 423 ;
424 [label=<gini = 0.0<br/>samples = 2<br/>value = [0, 4]<br/>class = good>, fillcolor="#399de5"] ;
388 -> 424 ;
425 [label=<gini = 0.0<br/>samples = 3<br/>value = [0, 4]<br/>class = good>, fillcolor="#399de5"] ;
387 -> 425 ;
426 [label=<wave &le; 1.0<br/>gini = 0.444<br/>samples = 2<br/>value = [2, 1]<br/>class = bad>, fillcolor="#f2c09c"] ;
386 -> 426 ;
427 [label=<gini = 0.0<br/>samples = 1<br/>value = [0, 1]<br/>class = good>, fillcolor="#399de5"] ;
426 -> 427 ;
428 [label=<gini = 0.0<br/>samples = 1<br/>value = [2, 0]<br/>class = bad>, fillcolor="#e58139"] ;
426 -> 428 ;
429 [label=<gini = 0.0<br/>samples = 1<br/>value = [0, 1]<br/>class = good>, fillcolor="#399de5"] ;
385 -> 429 ;
430 [label=<gini = 0.0<br/>samples = 1<br/>value = [0, 3]<br/>class = good>, fillcolor="#399de5"] ;
384 -> 430 ;
431 [label=<gini = 0.0<br/>samples = 1<br/>value = [0, 1]<br/>class = good>, fillcolor="#399de5"] ;
383 -> 431 ;
432 [label=<gini = 0.0<br/>samples = 1<br/>value = [0, 2]<br/>class = good>, fillcolor="#399de5"] ;
382 -> 432 ;
433 [label=<gini = 0.0<br/>samples = 1<br/>value = [0, 3]<br/>class = good>, fillcolor="#399de5"] ;
381 -> 433 ;
434 [label=<gini = 0.0<br/>samples = 2<br/>value = [0, 2]<br/>class = good>, fillcolor="#399de5"] ;
380 -> 434 ;
435 [label=<gini = 0.0<br/>samples = 1<br/>value = [0, 1]<br/>class = good>, fillcolor="#399de5"] ;
379 -> 435 ;
436 [label=<gini = 0.0<br/>samples = 1<br/>value = [0, 1]<br/>class = good>, fillcolor="#399de5"] ;
378 -> 436 ;
437 [label=<gini = 0.0<br/>samples = 1<br/>value = [0, 1]<br/>class = good>, fillcolor="#399de5"] ;
377 -> 437 ;
438 [label=<gini = 0.0<br/>samples = 4<br/>value = [0, 7]<br/>class = good>, fillcolor="#399de5"] ;
376 -> 438 ;
439 [label=<gini = 0.0<br/>samples = 2<br/>value = [0, 5]<br/>class = good>, fillcolor="#399de5"] ;
375 -> 439 ;
440 [label=<gini = 0.0<br/>samples = 3<br/>value = [0, 4]<br/>class = good>, fillcolor="#399de5"] ;
374 -> 440 ;
441 [label=<show &le; 0.5<br/>gini = 0.209<br/>samples = 43<br/>value = [7, 52]<br/>class = good>, fillcolor="#54aae8"] ;
373 -> 441 ;
442 [label=<flow &le; 0.5<br/>gini = 0.16<br/>samples = 42<br/>value = [5, 52]<br/>class = good>, fillcolor="#4ca6e8"] ;
441 -> 442 ;
443 [label=<eye &le; 0.5<br/>gini = 0.174<br/>samples = 39<br/>value = [5, 47]<br/>class = good>, fillcolor="#4ea7e8"] ;
442 -> 443 ;
444 [label=<sunshine &le; 0.5<br/>gini = 0.183<br/>samples = 37<br/>value = [5, 44]<br/>class = good>, fillcolor="#50a8e8"] ;
443 -> 444 ;
445 [label=<since &le; 0.5<br/>gini = 0.19<br/>samples = 35<br/>value = [5, 42]<br/>class = good>, fillcolor="#51a9e8"] ;
444 -> 445 ;
446 [label=<heartaches &le; 0.5<br/>gini = 0.201<br/>samples = 33<br/>value = [5, 39]<br/>class = good>, fillcolor="#52aae8"] ;
445 -> 446 ;
447 [label=<always &le; 0.5<br/>gini = 0.169<br/>samples = 32<br/>value = [4, 39]<br/>class = good>, fillcolor="#4da7e8"] ;
446 -> 447 ;
448 [label=<good &le; 1.0<br/>gini = 0.184<br/>samples = 28<br/>value = [4, 35]<br/>class = good>, fillcolor="#50a8e8"] ;
447 -> 448 ;
449 [label=<universeand &le; 0.5<br/>gini = 0.208<br/>samples = 25<br/>value = [4, 30]<br/>class = good>, fillcolor="#53aae8"] ;
448 -> 449 ;
450 [label=<blur &le; 0.5<br/>gini = 0.213<br/>samples = 24<br/>value = [4, 29]<br/>class = good>, fillcolor="#54abe9"] ;
449 -> 450 ;
451 [label=<pulling &le; 2.0<br/>gini = 0.219<br/>samples = 23<br/>value = [4, 28]<br/>class = good>, fillcolor="#55abe9"] ;
450 -> 451 ;
452 [label=<afterlife &le; 0.5<br/>gini = 0.238<br/>samples = 22<br/>value = [4, 25]<br/>class = good>, fillcolor="#59ade9"] ;
451 -> 452 ;
453 [label=<too &le; 1.0<br/>gini = 0.191<br/>samples = 21<br/>value = [3, 25]<br/>class = good>, fillcolor="#51a9e8"] ;
452 -> 453 ;
454 [label=<burn &le; 6.0<br/>gini = 0.204<br/>samples = 19<br/>value = [3, 23]<br/>class = good>, fillcolor="#53aae8"] ;
453 -> 454 ;
455 [label=<anybody &le; 0.5<br/>gini = 0.08<br/>samples = 18<br/>value = [1, 23]<br/>class = good>, fillcolor="#42a1e6"] ;
454 -> 455 ;
456 [label=<easy &le; 2.5<br/>gini = 0.083<br/>samples = 17<br/>value = [1, 22]<br/>class = good>, fillcolor="#42a1e6"] ;
455 -> 456 ;
457 [label=<gini = 0.0<br/>samples = 16<br/>value = [0, 22]<br/>class = good>, fillcolor="#399de5"] ;
456 -> 457 ;
458 [label=<gini = 0.0<br/>samples = 1<br/>value = [1, 0]<br/>class = bad>, fillcolor="#e58139"] ;
456 -> 458 ;
459 [label=<gini = 0.0<br/>samples = 1<br/>value = [0, 1]<br/>class = good>, fillcolor="#399de5"] ;
455 -> 459 ;
460 [label=<gini = 0.0<br/>samples = 1<br/>value = [2, 0]<br/>class = bad>, fillcolor="#e58139"] ;
454 -> 460 ;
461 [label=<gini = 0.0<br/>samples = 2<br/>value = [0, 2]<br/>class = good>, fillcolor="#399de5"] ;
453 -> 461 ;
462 [label=<gini = 0.0<br/>samples = 1<br/>value = [1, 0]<br/>class = bad>, fillcolor="#e58139"] ;
452 -> 462 ;
463 [label=<gini = 0.0<br/>samples = 1<br/>value = [0, 3]<br/>class = good>, fillcolor="#399de5"] ;
451 -> 463 ;
464 [label=<gini = 0.0<br/>samples = 1<br/>value = [0, 1]<br/>class = good>, fillcolor="#399de5"] ;
450 -> 464 ;
465 [label=<gini = 0.0<br/>samples = 1<br/>value = [0, 1]<br/>class = good>, fillcolor="#399de5"] ;
449 -> 465 ;
466 [label=<gini = 0.0<br/>samples = 3<br/>value = [0, 5]<br/>class = good>, fillcolor="#399de5"] ;
448 -> 466 ;
467 [label=<gini = 0.0<br/>samples = 4<br/>value = [0, 4]<br/>class = good>, fillcolor="#399de5"] ;
447 -> 467 ;
468 [label=<gini = 0.0<br/>samples = 1<br/>value = [1, 0]<br/>class = bad>, fillcolor="#e58139"] ;
446 -> 468 ;
469 [label=<gini = 0.0<br/>samples = 2<br/>value = [0, 3]<br/>class = good>, fillcolor="#399de5"] ;
445 -> 469 ;
470 [label=<gini = 0.0<br/>samples = 2<br/>value = [0, 2]<br/>class = good>, fillcolor="#399de5"] ;
444 -> 470 ;
471 [label=<gini = 0.0<br/>samples = 2<br/>value = [0, 3]<br/>class = good>, fillcolor="#399de5"] ;
443 -> 471 ;
472 [label=<gini = 0.0<br/>samples = 3<br/>value = [0, 5]<br/>class = good>, fillcolor="#399de5"] ;
442 -> 472 ;
473 [label=<gini = 0.0<br/>samples = 1<br/>value = [2, 0]<br/>class = bad>, fillcolor="#e58139"] ;
441 -> 473 ;
474 [label=<gini = 0.0<br/>samples = 1<br/>value = [0, 2]<br/>class = good>, fillcolor="#399de5"] ;
372 -> 474 ;
475 [label=<gini = 0.0<br/>samples = 1<br/>value = [0, 4]<br/>class = good>, fillcolor="#399de5"] ;
371 -> 475 ;
476 [label=<gini = 0.0<br/>samples = 3<br/>value = [0, 4]<br/>class = good>, fillcolor="#399de5"] ;
370 -> 476 ;
477 [label=<gini = 0.0<br/>samples = 1<br/>value = [0, 1]<br/>class = good>, fillcolor="#399de5"] ;
369 -> 477 ;
478 [label=<gini = 0.0<br/>samples = 1<br/>value = [1, 0]<br/>class = bad>, fillcolor="#e58139"] ;
368 -> 478 ;
479 [label=<gini = 0.0<br/>samples = 7<br/>value = [0, 10]<br/>class = good>, fillcolor="#399de5"] ;
367 -> 479 ;
480 [label=<gini = 0.0<br/>samples = 2<br/>value = [0, 3]<br/>class = good>, fillcolor="#399de5"] ;
366 -> 480 ;
481 [label=<lookin &le; 0.5<br/>gini = 0.444<br/>samples = 3<br/>value = [1, 2]<br/>class = good>, fillcolor="#9ccef2"] ;
365 -> 481 ;
482 [label=<groìùes &le; 0.5<br/>gini = 0.5<br/>samples = 2<br/>value = [1, 1]<br/>class = bad>, fillcolor="#ffffff"] ;
481 -> 482 ;
483 [label=<gini = 0.0<br/>samples = 1<br/>value = [1, 0]<br/>class = bad>, fillcolor="#e58139"] ;
482 -> 483 ;
484 [label=<gini = 0.0<br/>samples = 1<br/>value = [0, 1]<br/>class = good>, fillcolor="#399de5"] ;
482 -> 484 ;
485 [label=<gini = 0.0<br/>samples = 1<br/>value = [0, 1]<br/>class = good>, fillcolor="#399de5"] ;
481 -> 485 ;
486 [label=<hopes &le; 1.0<br/>gini = 0.219<br/>samples = 6<br/>value = [7, 1]<br/>class = bad>, fillcolor="#e99355"] ;
364 -> 486 ;
487 [label=<tyranny &le; 0.5<br/>gini = 0.245<br/>samples = 5<br/>value = [6, 1]<br/>class = bad>, fillcolor="#e9965a"] ;
486 -> 487 ;
488 [label=<we &le; 2.0<br/>gini = 0.278<br/>samples = 4<br/>value = [5, 1]<br/>class = bad>, fillcolor="#ea9a61"] ;
487 -> 488 ;
489 [label=<re &le; 8.0<br/>gini = 0.444<br/>samples = 2<br/>value = [2, 1]<br/>class = bad>, fillcolor="#f2c09c"] ;
488 -> 489 ;
490 [label=<gini = 0.0<br/>samples = 1<br/>value = [2, 0]<br/>class = bad>, fillcolor="#e58139"] ;
489 -> 490 ;
491 [label=<gini = 0.0<br/>samples = 1<br/>value = [0, 1]<br/>class = good>, fillcolor="#399de5"] ;
489 -> 491 ;
492 [label=<gini = 0.0<br/>samples = 2<br/>value = [3, 0]<br/>class = bad>, fillcolor="#e58139"] ;
488 -> 492 ;
493 [label=<gini = 0.0<br/>samples = 1<br/>value = [1, 0]<br/>class = bad>, fillcolor="#e58139"] ;
487 -> 493 ;
494 [label=<gini = 0.0<br/>samples = 1<br/>value = [1, 0]<br/>class = bad>, fillcolor="#e58139"] ;
486 -> 494 ;
495 [label=<hiding &le; 1.0<br/>gini = 0.391<br/>samples = 13<br/>value = [4, 11]<br/>class = good>, fillcolor="#81c1ee"] ;
363 -> 495 ;
496 [label=<way &le; 0.5<br/>gini = 0.426<br/>samples = 11<br/>value = [4, 9]<br/>class = good>, fillcolor="#91c9f1"] ;
495 -> 496 ;
497 [label=<rhyme &le; 0.5<br/>gini = 0.32<br/>samples = 8<br/>value = [2, 8]<br/>class = good>, fillcolor="#6ab6ec"] ;
496 -> 497 ;
498 [label=<searching &le; 0.5<br/>gini = 0.198<br/>samples = 7<br/>value = [1, 8]<br/>class = good>, fillcolor="#52a9e8"] ;
497 -> 498 ;
499 [label=<forever &le; 1.0<br/>gini = 0.245<br/>samples = 6<br/>value = [1, 6]<br/>class = good>, fillcolor="#5aade9"] ;
498 -> 499 ;
500 [label=<gini = 0.0<br/>samples = 4<br/>value = [0, 5]<br/>class = good>, fillcolor="#399de5"] ;
499 -> 500 ;
501 [label=<redeemer &le; 1.0<br/>gini = 0.5<br/>samples = 2<br/>value = [1, 1]<br/>class = bad>, fillcolor="#ffffff"] ;
499 -> 501 ;
502 [label=<gini = 0.0<br/>samples = 1<br/>value = [0, 1]<br/>class = good>, fillcolor="#399de5"] ;
501 -> 502 ;
503 [label=<gini = 0.0<br/>samples = 1<br/>value = [1, 0]<br/>class = bad>, fillcolor="#e58139"] ;
501 -> 503 ;
504 [label=<gini = 0.0<br/>samples = 1<br/>value = [0, 2]<br/>class = good>, fillcolor="#399de5"] ;
498 -> 504 ;
505 [label=<gini = 0.0<br/>samples = 1<br/>value = [1, 0]<br/>class = bad>, fillcolor="#e58139"] ;
497 -> 505 ;
506 [label=<leaves &le; 1.0<br/>gini = 0.444<br/>samples = 3<br/>value = [2, 1]<br/>class = bad>, fillcolor="#f2c09c"] ;
496 -> 506 ;
507 [label=<cry &le; 0.5<br/>gini = 0.5<br/>samples = 2<br/>value = [1, 1]<br/>class = bad>, fillcolor="#ffffff"] ;
506 -> 507 ;
508 [label=<gini = 0.0<br/>samples = 1<br/>value = [1, 0]<br/>class = bad>, fillcolor="#e58139"] ;
507 -> 508 ;
509 [label=<gini = 0.0<br/>samples = 1<br/>value = [0, 1]<br/>class = good>, fillcolor="#399de5"] ;
507 -> 509 ;
510 [label=<gini = 0.0<br/>samples = 1<br/>value = [1, 0]<br/>class = bad>, fillcolor="#e58139"] ;
506 -> 510 ;
511 [label=<gini = 0.0<br/>samples = 2<br/>value = [0, 2]<br/>class = good>, fillcolor="#399de5"] ;
495 -> 511 ;
512 [label=<even &le; 0.5<br/>gini = 0.5<br/>samples = 2<br/>value = [2, 2]<br/>class = bad>, fillcolor="#ffffff"] ;
362 -> 512 ;
513 [label=<gini = 0.0<br/>samples = 1<br/>value = [2, 0]<br/>class = bad>, fillcolor="#e58139"] ;
512 -> 513 ;
514 [label=<gini = 0.0<br/>samples = 1<br/>value = [0, 2]<br/>class = good>, fillcolor="#399de5"] ;
512 -> 514 ;
515 [label=<gini = 0.0<br/>samples = 1<br/>value = [1, 0]<br/>class = bad>, fillcolor="#e58139"] ;
361 -> 515 ;
516 [label=<as &le; 0.5<br/>gini = 0.434<br/>samples = 14<br/>value = [7, 15]<br/>class = good>, fillcolor="#95cbf1"] ;
360 -> 516 ;
517 [label=<hey &le; 1.5<br/>gini = 0.48<br/>samples = 9<br/>value = [6, 9]<br/>class = good>, fillcolor="#bddef6"] ;
516 -> 517 ;
518 [label=<get &le; 1.5<br/>gini = 0.459<br/>samples = 8<br/>value = [5, 9]<br/>class = good>, fillcolor="#a7d3f3"] ;
517 -> 518 ;
519 [label=<grand &le; 1.0<br/>gini = 0.473<br/>samples = 7<br/>value = [5, 8]<br/>class = good>, fillcolor="#b5daf5"] ;
518 -> 519 ;
520 [label=<bright &le; 0.5<br/>gini = 0.5<br/>samples = 6<br/>value = [5, 5]<br/>class = bad>, fillcolor="#ffffff"] ;
519 -> 520 ;
521 [label=<today &le; 1.0<br/>gini = 0.469<br/>samples = 5<br/>value = [3, 5]<br/>class = good>, fillcolor="#b0d8f5"] ;
520 -> 521 ;
522 [label=<can &le; 8.0<br/>gini = 0.49<br/>samples = 4<br/>value = [3, 4]<br/>class = good>, fillcolor="#cee6f8"] ;
521 -> 522 ;
523 [label=<realize &le; 3.0<br/>gini = 0.444<br/>samples = 3<br/>value = [2, 4]<br/>class = good>, fillcolor="#9ccef2"] ;
522 -> 523 ;
524 [label=<gini = 0.0<br/>samples = 2<br/>value = [0, 4]<br/>class = good>, fillcolor="#399de5"] ;
523 -> 524 ;
525 [label=<gini = 0.0<br/>samples = 1<br/>value = [2, 0]<br/>class = bad>, fillcolor="#e58139"] ;
523 -> 525 ;
526 [label=<gini = 0.0<br/>samples = 1<br/>value = [1, 0]<br/>class = bad>, fillcolor="#e58139"] ;
522 -> 526 ;
527 [label=<gini = 0.0<br/>samples = 1<br/>value = [0, 1]<br/>class = good>, fillcolor="#399de5"] ;
521 -> 527 ;
528 [label=<gini = 0.0<br/>samples = 1<br/>value = [2, 0]<br/>class = bad>, fillcolor="#e58139"] ;
520 -> 528 ;
529 [label=<gini = 0.0<br/>samples = 1<br/>value = [0, 3]<br/>class = good>, fillcolor="#399de5"] ;
519 -> 529 ;
530 [label=<gini = 0.0<br/>samples = 1<br/>value = [0, 1]<br/>class = good>, fillcolor="#399de5"] ;
518 -> 530 ;
531 [label=<gini = 0.0<br/>samples = 1<br/>value = [1, 0]<br/>class = bad>, fillcolor="#e58139"] ;
517 -> 531 ;
532 [label=<land &le; 1.0<br/>gini = 0.245<br/>samples = 5<br/>value = [1, 6]<br/>class = good>, fillcolor="#5aade9"] ;
516 -> 532 ;
533 [label=<man &le; 0.5<br/>gini = 0.32<br/>samples = 4<br/>value = [1, 4]<br/>class = good>, fillcolor="#6ab6ec"] ;
532 -> 533 ;
534 [label=<crash &le; 1.0<br/>gini = 0.5<br/>samples = 2<br/>value = [1, 1]<br/>class = bad>, fillcolor="#ffffff"] ;
533 -> 534 ;
535 [label=<gini = 0.0<br/>samples = 1<br/>value = [0, 1]<br/>class = good>, fillcolor="#399de5"] ;
534 -> 535 ;
536 [label=<gini = 0.0<br/>samples = 1<br/>value = [1, 0]<br/>class = bad>, fillcolor="#e58139"] ;
534 -> 536 ;
537 [label=<gini = 0.0<br/>samples = 2<br/>value = [0, 3]<br/>class = good>, fillcolor="#399de5"] ;
533 -> 537 ;
538 [label=<gini = 0.0<br/>samples = 1<br/>value = [0, 2]<br/>class = good>, fillcolor="#399de5"] ;
532 -> 538 ;
539 [label=<through &le; 0.5<br/>gini = 0.5<br/>samples = 2<br/>value = [1, 1]<br/>class = bad>, fillcolor="#ffffff"] ;
359 -> 539 ;
540 [label=<gini = 0.0<br/>samples = 1<br/>value = [1, 0]<br/>class = bad>, fillcolor="#e58139"] ;
539 -> 540 ;
541 [label=<gini = 0.0<br/>samples = 1<br/>value = [0, 1]<br/>class = good>, fillcolor="#399de5"] ;
539 -> 541 ;
542 [label=<gini = 0.0<br/>samples = 1<br/>value = [1, 0]<br/>class = bad>, fillcolor="#e58139"] ;
358 -> 542 ;
543 [label=<gini = 0.0<br/>samples = 1<br/>value = [2, 0]<br/>class = bad>, fillcolor="#e58139"] ;
357 -> 543 ;
544 [label=<gini = 0.0<br/>samples = 1<br/>value = [1, 0]<br/>class = bad>, fillcolor="#e58139"] ;
356 -> 544 ;
545 [label=<gini = 0.0<br/>samples = 1<br/>value = [1, 0]<br/>class = bad>, fillcolor="#e58139"] ;
355 -> 545 ;
546 [label=<control &le; 0.5<br/>gini = 0.375<br/>samples = 4<br/>value = [6, 2]<br/>class = bad>, fillcolor="#eeab7b"] ;
354 -> 546 ;
547 [label=<tiny &le; 0.5<br/>gini = 0.5<br/>samples = 3<br/>value = [2, 2]<br/>class = bad>, fillcolor="#ffffff"] ;
546 -> 547 ;
548 [label=<same &le; 2.0<br/>gini = 0.444<br/>samples = 2<br/>value = [2, 1]<br/>class = bad>, fillcolor="#f2c09c"] ;
547 -> 548 ;
549 [label=<gini = 0.0<br/>samples = 1<br/>value = [0, 1]<br/>class = good>, fillcolor="#399de5"] ;
548 -> 549 ;
550 [label=<gini = 0.0<br/>samples = 1<br/>value = [2, 0]<br/>class = bad>, fillcolor="#e58139"] ;
548 -> 550 ;
551 [label=<gini = 0.0<br/>samples = 1<br/>value = [0, 1]<br/>class = good>, fillcolor="#399de5"] ;
547 -> 551 ;
552 [label=<gini = 0.0<br/>samples = 1<br/>value = [4, 0]<br/>class = bad>, fillcolor="#e58139"] ;
546 -> 552 ;
553 [label=<gini = 0.0<br/>samples = 1<br/>value = [1, 0]<br/>class = bad>, fillcolor="#e58139"] ;
353 -> 553 ;
554 [label=<gini = 0.0<br/>samples = 1<br/>value = [1, 0]<br/>class = bad>, fillcolor="#e58139"] ;
352 -> 554 ;
555 [label=<gini = 0.0<br/>samples = 1<br/>value = [1, 0]<br/>class = bad>, fillcolor="#e58139"] ;
351 -> 555 ;
556 [label=<my &le; 8.5<br/>gini = 0.434<br/>samples = 70<br/>value = [29, 62]<br/>class = good>, fillcolor="#96cbf1"] ;
350 -> 556 ;
557 [label=<sky &le; 0.5<br/>gini = 0.465<br/>samples = 62<br/>value = [29, 50]<br/>class = good>, fillcolor="#acd6f4"] ;
556 -> 557 ;
558 [label=<skywoman &le; 0.5<br/>gini = 0.483<br/>samples = 56<br/>value = [29, 42]<br/>class = good>, fillcolor="#c2e1f7"] ;
557 -> 558 ;
559 [label=<40 &le; 0.5<br/>gini = 0.487<br/>samples = 55<br/>value = [29, 40]<br/>class = good>, fillcolor="#c9e4f8"] ;
558 -> 559 ;
560 [label=<independent &le; 0.5<br/>gini = 0.484<br/>samples = 54<br/>value = [28, 40]<br/>class = good>, fillcolor="#c4e2f7"] ;
559 -> 560 ;
561 [label=<horse &le; 2.5<br/>gini = 0.481<br/>samples = 53<br/>value = [27, 40]<br/>class = good>, fillcolor="#bfdff7"] ;
560 -> 561 ;
562 [label=<lies &le; 0.5<br/>gini = 0.486<br/>samples = 52<br/>value = [27, 38]<br/>class = good>, fillcolor="#c6e3f7"] ;
561 -> 562 ;
563 [label=<lasa &le; 0.5<br/>gini = 0.465<br/>samples = 47<br/>value = [21, 36]<br/>class = good>, fillcolor="#acd6f4"] ;
562 -> 563 ;
564 [label=<waterline &le; 0.5<br/>gini = 0.459<br/>samples = 46<br/>value = [20, 36]<br/>class = good>, fillcolor="#a7d3f3"] ;
563 -> 564 ;
565 [label=<oates &le; 0.5<br/>gini = 0.452<br/>samples = 45<br/>value = [19, 36]<br/>class = good>, fillcolor="#a2d1f3"] ;
564 -> 565 ;
566 [label=<trip &le; 0.5<br/>gini = 0.444<br/>samples = 44<br/>value = [18, 36]<br/>class = good>, fillcolor="#9ccef2"] ;
565 -> 566 ;
567 [label=<please &le; 1.5<br/>gini = 0.444<br/>samples = 42<br/>value = [17, 34]<br/>class = good>, fillcolor="#9ccef2"] ;
566 -> 567 ;
568 [label=<nasty &le; 0.5<br/>gini = 0.462<br/>samples = 39<br/>value = [17, 30]<br/>class = good>, fillcolor="#a9d5f4"] ;
567 -> 568 ;
569 [label=<soul &le; 0.5<br/>gini = 0.454<br/>samples = 38<br/>value = [16, 30]<br/>class = good>, fillcolor="#a3d1f3"] ;
568 -> 569 ;
570 [label=<face &le; 1.5<br/>gini = 0.463<br/>samples = 36<br/>value = [16, 28]<br/>class = good>, fillcolor="#aad5f4"] ;
569 -> 570 ;
571 [label=<there &le; 0.5<br/>gini = 0.444<br/>samples = 35<br/>value = [14, 28]<br/>class = good>, fillcolor="#9ccef2"] ;
570 -> 571 ;
572 [label=<honey &le; 0.5<br/>gini = 0.422<br/>samples = 28<br/>value = [10, 23]<br/>class = good>, fillcolor="#8fc8f0"] ;
571 -> 572 ;
573 [label=<likewell &le; 0.5<br/>gini = 0.444<br/>samples = 26<br/>value = [10, 20]<br/>class = good>, fillcolor="#9ccef2"] ;
572 -> 573 ;
574 [label=<fell &le; 0.5<br/>gini = 0.428<br/>samples = 25<br/>value = [9, 20]<br/>class = good>, fillcolor="#92c9f1"] ;
573 -> 574 ;
575 [label=<high &le; 0.5<br/>gini = 0.408<br/>samples = 24<br/>value = [8, 20]<br/>class = good>, fillcolor="#88c4ef"] ;
574 -> 575 ;
576 [label=<everchanging &le; 1.0<br/>gini = 0.435<br/>samples = 21<br/>value = [8, 17]<br/>class = good>, fillcolor="#96cbf1"] ;
575 -> 576 ;
577 [label=<autonoma &le; 0.5<br/>gini = 0.444<br/>samples = 20<br/>value = [8, 16]<br/>class = good>, fillcolor="#9ccef2"] ;
576 -> 577 ;
578 [label=<song &le; 1.0<br/>gini = 0.454<br/>samples = 19<br/>value = [8, 15]<br/>class = good>, fillcolor="#a3d1f3"] ;
577 -> 578 ;
579 [label=<until &le; 0.5<br/>gini = 0.463<br/>samples = 18<br/>value = [8, 14]<br/>class = good>, fillcolor="#aad5f4"] ;
578 -> 579 ;
580 [label=<dancer &le; 12.0<br/>gini = 0.48<br/>samples = 17<br/>value = [8, 12]<br/>class = good>, fillcolor="#bddef6"] ;
579 -> 580 ;
581 [label=<spoiling &le; 0.5<br/>gini = 0.488<br/>samples = 16<br/>value = [8, 11]<br/>class = good>, fillcolor="#c9e4f8"] ;
580 -> 581 ;
582 [label=<give &le; 0.5<br/>gini = 0.494<br/>samples = 15<br/>value = [8, 10]<br/>class = good>, fillcolor="#d7ebfa"] ;
581 -> 582 ;
583 [label=<find &le; 0.5<br/>gini = 0.498<br/>samples = 12<br/>value = [8, 7]<br/>class = bad>, fillcolor="#fcefe6"] ;
582 -> 583 ;
584 [label=<she &le; 0.5<br/>gini = 0.49<br/>samples = 11<br/>value = [8, 6]<br/>class = bad>, fillcolor="#f8e0ce"] ;
583 -> 584 ;
585 [label=<generation &le; 0.5<br/>gini = 0.5<br/>samples = 10<br/>value = [6, 6]<br/>class = bad>, fillcolor="#ffffff"] ;
584 -> 585 ;
586 [label=<hold &le; 0.5<br/>gini = 0.496<br/>samples = 9<br/>value = [5, 6]<br/>class = good>, fillcolor="#deeffb"] ;
585 -> 586 ;
587 [label=<crush &le; 5.0<br/>gini = 0.494<br/>samples = 7<br/>value = [5, 4]<br/>class = bad>, fillcolor="#fae6d7"] ;
586 -> 587 ;
588 [label=<time &le; 1.0<br/>gini = 0.408<br/>samples = 6<br/>value = [5, 2]<br/>class = bad>, fillcolor="#efb388"] ;
587 -> 588 ;
589 [label=<show &le; 1.5<br/>gini = 0.32<br/>samples = 4<br/>value = [4, 1]<br/>class = bad>, fillcolor="#eca06a"] ;
588 -> 589 ;
590 [label=<gini = 0.0<br/>samples = 3<br/>value = [4, 0]<br/>class = bad>, fillcolor="#e58139"] ;
589 -> 590 ;
591 [label=<gini = 0.0<br/>samples = 1<br/>value = [0, 1]<br/>class = good>, fillcolor="#399de5"] ;
589 -> 591 ;
592 [label=<how &le; 1.0<br/>gini = 0.5<br/>samples = 2<br/>value = [1, 1]<br/>class = bad>, fillcolor="#ffffff"] ;
588 -> 592 ;
593 [label=<gini = 0.0<br/>samples = 1<br/>value = [1, 0]<br/>class = bad>, fillcolor="#e58139"] ;
592 -> 593 ;
594 [label=<gini = 0.0<br/>samples = 1<br/>value = [0, 1]<br/>class = good>, fillcolor="#399de5"] ;
592 -> 594 ;
595 [label=<gini = 0.0<br/>samples = 1<br/>value = [0, 2]<br/>class = good>, fillcolor="#399de5"] ;
587 -> 595 ;
596 [label=<gini = 0.0<br/>samples = 2<br/>value = [0, 2]<br/>class = good>, fillcolor="#399de5"] ;
586 -> 596 ;
597 [label=<gini = 0.0<br/>samples = 1<br/>value = [1, 0]<br/>class = bad>, fillcolor="#e58139"] ;
585 -> 597 ;
598 [label=<gini = 0.0<br/>samples = 1<br/>value = [2, 0]<br/>class = bad>, fillcolor="#e58139"] ;
584 -> 598 ;
599 [label=<gini = 0.0<br/>samples = 1<br/>value = [0, 1]<br/>class = good>, fillcolor="#399de5"] ;
583 -> 599 ;
600 [label=<gini = 0.0<br/>samples = 3<br/>value = [0, 3]<br/>class = good>, fillcolor="#399de5"] ;
582 -> 600 ;
601 [label=<gini = 0.0<br/>samples = 1<br/>value = [0, 1]<br/>class = good>, fillcolor="#399de5"] ;
581 -> 601 ;
602 [label=<gini = 0.0<br/>samples = 1<br/>value = [0, 1]<br/>class = good>, fillcolor="#399de5"] ;
580 -> 602 ;
603 [label=<gini = 0.0<br/>samples = 1<br/>value = [0, 2]<br/>class = good>, fillcolor="#399de5"] ;
579 -> 603 ;
604 [label=<gini = 0.0<br/>samples = 1<br/>value = [0, 1]<br/>class = good>, fillcolor="#399de5"] ;
578 -> 604 ;
605 [label=<gini = 0.0<br/>samples = 1<br/>value = [0, 1]<br/>class = good>, fillcolor="#399de5"] ;
577 -> 605 ;
606 [label=<gini = 0.0<br/>samples = 1<br/>value = [0, 1]<br/>class = good>, fillcolor="#399de5"] ;
576 -> 606 ;
607 [label=<gini = 0.0<br/>samples = 3<br/>value = [0, 3]<br/>class = good>, fillcolor="#399de5"] ;
575 -> 607 ;
608 [label=<gini = 0.0<br/>samples = 1<br/>value = [1, 0]<br/>class = bad>, fillcolor="#e58139"] ;
574 -> 608 ;
609 [label=<gini = 0.0<br/>samples = 1<br/>value = [1, 0]<br/>class = bad>, fillcolor="#e58139"] ;
573 -> 609 ;
610 [label=<gini = 0.0<br/>samples = 2<br/>value = [0, 3]<br/>class = good>, fillcolor="#399de5"] ;
572 -> 610 ;
611 [label=<true &le; 0.5<br/>gini = 0.494<br/>samples = 7<br/>value = [4, 5]<br/>class = good>, fillcolor="#d7ebfa"] ;
571 -> 611 ;
612 [label=<side &le; 0.5<br/>gini = 0.469<br/>samples = 6<br/>value = [3, 5]<br/>class = good>, fillcolor="#b0d8f5"] ;
611 -> 612 ;
613 [label=<like3embed &le; 0.5<br/>gini = 0.49<br/>samples = 5<br/>value = [3, 4]<br/>class = good>, fillcolor="#cee6f8"] ;
612 -> 613 ;
614 [label=<blackness &le; 0.5<br/>gini = 0.444<br/>samples = 4<br/>value = [2, 4]<br/>class = good>, fillcolor="#9ccef2"] ;
613 -> 614 ;
615 [label=<was &le; 3.5<br/>gini = 0.32<br/>samples = 3<br/>value = [1, 4]<br/>class = good>, fillcolor="#6ab6ec"] ;
614 -> 615 ;
616 [label=<town &le; 0.5<br/>gini = 0.5<br/>samples = 2<br/>value = [1, 1]<br/>class = bad>, fillcolor="#ffffff"] ;
615 -> 616 ;
617 [label=<gini = 0.0<br/>samples = 1<br/>value = [1, 0]<br/>class = bad>, fillcolor="#e58139"] ;
616 -> 617 ;
618 [label=<gini = 0.0<br/>samples = 1<br/>value = [0, 1]<br/>class = good>, fillcolor="#399de5"] ;
616 -> 618 ;
619 [label=<gini = 0.0<br/>samples = 1<br/>value = [0, 3]<br/>class = good>, fillcolor="#399de5"] ;
615 -> 619 ;
620 [label=<gini = 0.0<br/>samples = 1<br/>value = [1, 0]<br/>class = bad>, fillcolor="#e58139"] ;
614 -> 620 ;
621 [label=<gini = 0.0<br/>samples = 1<br/>value = [1, 0]<br/>class = bad>, fillcolor="#e58139"] ;
613 -> 621 ;
622 [label=<gini = 0.0<br/>samples = 1<br/>value = [0, 1]<br/>class = good>, fillcolor="#399de5"] ;
612 -> 622 ;
623 [label=<gini = 0.0<br/>samples = 1<br/>value = [1, 0]<br/>class = bad>, fillcolor="#e58139"] ;
611 -> 623 ;
624 [label=<gini = 0.0<br/>samples = 1<br/>value = [2, 0]<br/>class = bad>, fillcolor="#e58139"] ;
570 -> 624 ;
625 [label=<gini = 0.0<br/>samples = 2<br/>value = [0, 2]<br/>class = good>, fillcolor="#399de5"] ;
569 -> 625 ;
626 [label=<gini = 0.0<br/>samples = 1<br/>value = [1, 0]<br/>class = bad>, fillcolor="#e58139"] ;
568 -> 626 ;
627 [label=<gini = 0.0<br/>samples = 3<br/>value = [0, 4]<br/>class = good>, fillcolor="#399de5"] ;
567 -> 627 ;
628 [label=<don &le; 1.0<br/>gini = 0.444<br/>samples = 2<br/>value = [1, 2]<br/>class = good>, fillcolor="#9ccef2"] ;
566 -> 628 ;
629 [label=<gini = 0.0<br/>samples = 1<br/>value = [0, 2]<br/>class = good>, fillcolor="#399de5"] ;
628 -> 629 ;
630 [label=<gini = 0.0<br/>samples = 1<br/>value = [1, 0]<br/>class = bad>, fillcolor="#e58139"] ;
628 -> 630 ;
631 [label=<gini = 0.0<br/>samples = 1<br/>value = [1, 0]<br/>class = bad>, fillcolor="#e58139"] ;
565 -> 631 ;
632 [label=<gini = 0.0<br/>samples = 1<br/>value = [1, 0]<br/>class = bad>, fillcolor="#e58139"] ;
564 -> 632 ;
633 [label=<gini = 0.0<br/>samples = 1<br/>value = [1, 0]<br/>class = bad>, fillcolor="#e58139"] ;
563 -> 633 ;
634 [label=<could &le; 3.0<br/>gini = 0.375<br/>samples = 5<br/>value = [6, 2]<br/>class = bad>, fillcolor="#eeab7b"] ;
562 -> 634 ;
635 [label=<changing &le; 0.5<br/>gini = 0.245<br/>samples = 4<br/>value = [6, 1]<br/>class = bad>, fillcolor="#e9965a"] ;
634 -> 635 ;
636 [label=<empty &le; 1.0<br/>gini = 0.32<br/>samples = 3<br/>value = [4, 1]<br/>class = bad>, fillcolor="#eca06a"] ;
635 -> 636 ;
637 [label=<cross &le; 1.5<br/>gini = 0.5<br/>samples = 2<br/>value = [1, 1]<br/>class = bad>, fillcolor="#ffffff"] ;
636 -> 637 ;
638 [label=<gini = 0.0<br/>samples = 1<br/>value = [1, 0]<br/>class = bad>, fillcolor="#e58139"] ;
637 -> 638 ;
639 [label=<gini = 0.0<br/>samples = 1<br/>value = [0, 1]<br/>class = good>, fillcolor="#399de5"] ;
637 -> 639 ;
640 [label=<gini = 0.0<br/>samples = 1<br/>value = [3, 0]<br/>class = bad>, fillcolor="#e58139"] ;
636 -> 640 ;
641 [label=<gini = 0.0<br/>samples = 1<br/>value = [2, 0]<br/>class = bad>, fillcolor="#e58139"] ;
635 -> 641 ;
642 [label=<gini = 0.0<br/>samples = 1<br/>value = [0, 1]<br/>class = good>, fillcolor="#399de5"] ;
634 -> 642 ;
643 [label=<gini = 0.0<br/>samples = 1<br/>value = [0, 2]<br/>class = good>, fillcolor="#399de5"] ;
561 -> 643 ;
644 [label=<gini = 0.0<br/>samples = 1<br/>value = [1, 0]<br/>class = bad>, fillcolor="#e58139"] ;
560 -> 644 ;
645 [label=<gini = 0.0<br/>samples = 1<br/>value = [1, 0]<br/>class = bad>, fillcolor="#e58139"] ;
559 -> 645 ;
646 [label=<gini = 0.0<br/>samples = 1<br/>value = [0, 2]<br/>class = good>, fillcolor="#399de5"] ;
558 -> 646 ;
647 [label=<gini = 0.0<br/>samples = 6<br/>value = [0, 8]<br/>class = good>, fillcolor="#399de5"] ;
557 -> 647 ;
648 [label=<gini = 0.0<br/>samples = 8<br/>value = [0, 12]<br/>class = good>, fillcolor="#399de5"] ;
556 -> 648 ;
649 [label=<gini = 0.0<br/>samples = 1<br/>value = [1, 0]<br/>class = bad>, fillcolor="#e58139"] ;
349 -> 649 ;
650 [label=<gini = 0.0<br/>samples = 1<br/>value = [2, 0]<br/>class = bad>, fillcolor="#e58139"] ;
348 -> 650 ;
651 [label=<gini = 0.0<br/>samples = 1<br/>value = [1, 0]<br/>class = bad>, fillcolor="#e58139"] ;
347 -> 651 ;
652 [label=<realized &le; 0.5<br/>gini = 0.483<br/>samples = 16<br/>value = [11, 16]<br/>class = good>, fillcolor="#c1e0f7"] ;
346 -> 652 ;
653 [label=<within &le; 0.5<br/>gini = 0.473<br/>samples = 15<br/>value = [10, 16]<br/>class = good>, fillcolor="#b5daf5"] ;
652 -> 653 ;
654 [label=<haventstand &le; 0.5<br/>gini = 0.463<br/>samples = 13<br/>value = [8, 14]<br/>class = good>, fillcolor="#aad5f4"] ;
653 -> 654 ;
655 [label=<heaven &le; 0.5<br/>gini = 0.48<br/>samples = 12<br/>value = [8, 12]<br/>class = good>, fillcolor="#bddef6"] ;
654 -> 655 ;
656 [label=<everywhere &le; 0.5<br/>gini = 0.457<br/>samples = 10<br/>value = [6, 11]<br/>class = good>, fillcolor="#a5d2f3"] ;
655 -> 656 ;
657 [label=<like &le; 0.5<br/>gini = 0.497<br/>samples = 8<br/>value = [6, 7]<br/>class = good>, fillcolor="#e3f1fb"] ;
656 -> 657 ;
658 [label=<now &le; 6.0<br/>gini = 0.444<br/>samples = 5<br/>value = [3, 6]<br/>class = good>, fillcolor="#9ccef2"] ;
657 -> 658 ;
659 [label=<kerosene &le; 16.0<br/>gini = 0.5<br/>samples = 4<br/>value = [3, 3]<br/>class = bad>, fillcolor="#ffffff"] ;
658 -> 659 ;
660 [label=<flyin &le; 0.5<br/>gini = 0.375<br/>samples = 3<br/>value = [1, 3]<br/>class = good>, fillcolor="#7bbeee"] ;
659 -> 660 ;
661 [label=<borne &le; 1.0<br/>gini = 0.5<br/>samples = 2<br/>value = [1, 1]<br/>class = bad>, fillcolor="#ffffff"] ;
660 -> 661 ;
662 [label=<gini = 0.0<br/>samples = 1<br/>value = [0, 1]<br/>class = good>, fillcolor="#399de5"] ;
661 -> 662 ;
663 [label=<gini = 0.0<br/>samples = 1<br/>value = [1, 0]<br/>class = bad>, fillcolor="#e58139"] ;
661 -> 663 ;
664 [label=<gini = 0.0<br/>samples = 1<br/>value = [0, 2]<br/>class = good>, fillcolor="#399de5"] ;
660 -> 664 ;
665 [label=<gini = 0.0<br/>samples = 1<br/>value = [2, 0]<br/>class = bad>, fillcolor="#e58139"] ;
659 -> 665 ;
666 [label=<gini = 0.0<br/>samples = 1<br/>value = [0, 3]<br/>class = good>, fillcolor="#399de5"] ;
658 -> 666 ;
667 [label=<ago &le; 1.0<br/>gini = 0.375<br/>samples = 3<br/>value = [3, 1]<br/>class = bad>, fillcolor="#eeab7b"] ;
657 -> 667 ;
668 [label=<is &le; 0.5<br/>gini = 0.444<br/>samples = 2<br/>value = [2, 1]<br/>class = bad>, fillcolor="#f2c09c"] ;
667 -> 668 ;
669 [label=<gini = 0.0<br/>samples = 1<br/>value = [2, 0]<br/>class = bad>, fillcolor="#e58139"] ;
668 -> 669 ;
670 [label=<gini = 0.0<br/>samples = 1<br/>value = [0, 1]<br/>class = good>, fillcolor="#399de5"] ;
668 -> 670 ;
671 [label=<gini = 0.0<br/>samples = 1<br/>value = [1, 0]<br/>class = bad>, fillcolor="#e58139"] ;
667 -> 671 ;
672 [label=<gini = 0.0<br/>samples = 2<br/>value = [0, 4]<br/>class = good>, fillcolor="#399de5"] ;
656 -> 672 ;
673 [label=<you &le; 20.0<br/>gini = 0.444<br/>samples = 2<br/>value = [2, 1]<br/>class = bad>, fillcolor="#f2c09c"] ;
655 -> 673 ;
674 [label=<gini = 0.0<br/>samples = 1<br/>value = [2, 0]<br/>class = bad>, fillcolor="#e58139"] ;
673 -> 674 ;
675 [label=<gini = 0.0<br/>samples = 1<br/>value = [0, 1]<br/>class = good>, fillcolor="#399de5"] ;
673 -> 675 ;
676 [label=<gini = 0.0<br/>samples = 1<br/>value = [0, 2]<br/>class = good>, fillcolor="#399de5"] ;
654 -> 676 ;
677 [label=<many &le; 1.0<br/>gini = 0.5<br/>samples = 2<br/>value = [2, 2]<br/>class = bad>, fillcolor="#ffffff"] ;
653 -> 677 ;
678 [label=<gini = 0.0<br/>samples = 1<br/>value = [0, 2]<br/>class = good>, fillcolor="#399de5"] ;
677 -> 678 ;
679 [label=<gini = 0.0<br/>samples = 1<br/>value = [2, 0]<br/>class = bad>, fillcolor="#e58139"] ;
677 -> 679 ;
680 [label=<gini = 0.0<br/>samples = 1<br/>value = [1, 0]<br/>class = bad>, fillcolor="#e58139"] ;
652 -> 680 ;
681 [label=<gini = 0.0<br/>samples = 1<br/>value = [3, 0]<br/>class = bad>, fillcolor="#e58139"] ;
345 -> 681 ;
682 [label=<gini = 0.0<br/>samples = 1<br/>value = [1, 0]<br/>class = bad>, fillcolor="#e58139"] ;
344 -> 682 ;
683 [label=<grenade &le; 1.5<br/>gini = 0.077<br/>samples = 12<br/>value = [1, 24]<br/>class = good>, fillcolor="#41a1e6"] ;
343 -> 683 ;
684 [label=<road &le; 0.5<br/>gini = 0.083<br/>samples = 11<br/>value = [1, 22]<br/>class = good>, fillcolor="#42a1e6"] ;
683 -> 684 ;
685 [label=<hard &le; 1.0<br/>gini = 0.091<br/>samples = 10<br/>value = [1, 20]<br/>class = good>, fillcolor="#43a2e6"] ;
684 -> 685 ;
686 [label=<wet &le; 0.5<br/>gini = 0.1<br/>samples = 9<br/>value = [1, 18]<br/>class = good>, fillcolor="#44a2e6"] ;
685 -> 686 ;
687 [label=<dormir &le; 0.5<br/>gini = 0.111<br/>samples = 8<br/>value = [1, 16]<br/>class = good>, fillcolor="#45a3e7"] ;
686 -> 687 ;
688 [label=<making &le; 2.0<br/>gini = 0.142<br/>samples = 7<br/>value = [1, 12]<br/>class = good>, fillcolor="#49a5e7"] ;
687 -> 688 ;
689 [label=<or &le; 0.5<br/>gini = 0.165<br/>samples = 6<br/>value = [1, 10]<br/>class = good>, fillcolor="#4da7e8"] ;
688 -> 689 ;
690 [label=<oh &le; 2.5<br/>gini = 0.219<br/>samples = 5<br/>value = [1, 7]<br/>class = good>, fillcolor="#55abe9"] ;
689 -> 690 ;
691 [label=<up &le; 0.5<br/>gini = 0.278<br/>samples = 4<br/>value = [1, 5]<br/>class = good>, fillcolor="#61b1ea"] ;
690 -> 691 ;
692 [label=<high &le; 0.5<br/>gini = 0.32<br/>samples = 3<br/>value = [1, 4]<br/>class = good>, fillcolor="#6ab6ec"] ;
691 -> 692 ;
693 [label=<gini = 0.0<br/>samples = 2<br/>value = [0, 4]<br/>class = good>, fillcolor="#399de5"] ;
692 -> 693 ;
694 [label=<gini = 0.0<br/>samples = 1<br/>value = [1, 0]<br/>class = bad>, fillcolor="#e58139"] ;
692 -> 694 ;
695 [label=<gini = 0.0<br/>samples = 1<br/>value = [0, 1]<br/>class = good>, fillcolor="#399de5"] ;
691 -> 695 ;
696 [label=<gini = 0.0<br/>samples = 1<br/>value = [0, 2]<br/>class = good>, fillcolor="#399de5"] ;
690 -> 696 ;
697 [label=<gini = 0.0<br/>samples = 1<br/>value = [0, 3]<br/>class = good>, fillcolor="#399de5"] ;
689 -> 697 ;
698 [label=<gini = 0.0<br/>samples = 1<br/>value = [0, 2]<br/>class = good>, fillcolor="#399de5"] ;
688 -> 698 ;
699 [label=<gini = 0.0<br/>samples = 1<br/>value = [0, 4]<br/>class = good>, fillcolor="#399de5"] ;
687 -> 699 ;
700 [label=<gini = 0.0<br/>samples = 1<br/>value = [0, 2]<br/>class = good>, fillcolor="#399de5"] ;
686 -> 700 ;
701 [label=<gini = 0.0<br/>samples = 1<br/>value = [0, 2]<br/>class = good>, fillcolor="#399de5"] ;
685 -> 701 ;
702 [label=<gini = 0.0<br/>samples = 1<br/>value = [0, 2]<br/>class = good>, fillcolor="#399de5"] ;
684 -> 702 ;
703 [label=<gini = 0.0<br/>samples = 1<br/>value = [0, 2]<br/>class = good>, fillcolor="#399de5"] ;
683 -> 703 ;
704 [label=<gini = 0.0<br/>samples = 1<br/>value = [2, 0]<br/>class = bad>, fillcolor="#e58139"] ;
342 -> 704 ;
705 [label=<gini = 0.0<br/>samples = 1<br/>value = [1, 0]<br/>class = bad>, fillcolor="#e58139"] ;
341 -> 705 ;
706 [label=<gini = 0.0<br/>samples = 1<br/>value = [3, 0]<br/>class = bad>, fillcolor="#e58139"] ;
340 -> 706 ;
707 [label=<gini = 0.0<br/>samples = 1<br/>value = [1, 0]<br/>class = bad>, fillcolor="#e58139"] ;
339 -> 707 ;
708 [label=<gini = 0.0<br/>samples = 1<br/>value = [1, 0]<br/>class = bad>, fillcolor="#e58139"] ;
338 -> 708 ;
709 [label=<gini = 0.0<br/>samples = 1<br/>value = [1, 0]<br/>class = bad>, fillcolor="#e58139"] ;
337 -> 709 ;
710 [label=<have &le; 1.5<br/>gini = 0.278<br/>samples = 3<br/>value = [5, 1]<br/>class = bad>, fillcolor="#ea9a61"] ;
336 -> 710 ;
711 [label=<need &le; 0.5<br/>gini = 0.444<br/>samples = 2<br/>value = [2, 1]<br/>class = bad>, fillcolor="#f2c09c"] ;
710 -> 711 ;
712 [label=<gini = 0.0<br/>samples = 1<br/>value = [0, 1]<br/>class = good>, fillcolor="#399de5"] ;
711 -> 712 ;
713 [label=<gini = 0.0<br/>samples = 1<br/>value = [2, 0]<br/>class = bad>, fillcolor="#e58139"] ;
711 -> 713 ;
714 [label=<gini = 0.0<br/>samples = 1<br/>value = [3, 0]<br/>class = bad>, fillcolor="#e58139"] ;
710 -> 714 ;
715 [label=<gini = 0.0<br/>samples = 1<br/>value = [1, 0]<br/>class = bad>, fillcolor="#e58139"] ;
335 -> 715 ;
716 [label=<gini = 0.0<br/>samples = 1<br/>value = [3, 0]<br/>class = bad>, fillcolor="#e58139"] ;
334 -> 716 ;
717 [label=<gini = 0.0<br/>samples = 4<br/>value = [4, 0]<br/>class = bad>, fillcolor="#e58139"] ;
333 -> 717 ;
718 [label=<gini = 0.0<br/>samples = 1<br/>value = [1, 0]<br/>class = bad>, fillcolor="#e58139"] ;
332 -> 718 ;
719 [label=<standing &le; 0.5<br/>gini = 0.278<br/>samples = 4<br/>value = [5, 1]<br/>class = bad>, fillcolor="#ea9a61"] ;
331 -> 719 ;
720 [label=<gini = 0.0<br/>samples = 3<br/>value = [5, 0]<br/>class = bad>, fillcolor="#e58139"] ;
719 -> 720 ;
721 [label=<gini = 0.0<br/>samples = 1<br/>value = [0, 1]<br/>class = good>, fillcolor="#399de5"] ;
719 -> 721 ;
722 [label=<gini = 0.0<br/>samples = 1<br/>value = [2, 0]<br/>class = bad>, fillcolor="#e58139"] ;
330 -> 722 ;
723 [label=<gini = 0.0<br/>samples = 1<br/>value = [1, 0]<br/>class = bad>, fillcolor="#e58139"] ;
329 -> 723 ;
724 [label=<mind &le; 0.5<br/>gini = 0.213<br/>samples = 25<br/>value = [4, 29]<br/>class = good>, fillcolor="#54abe9"] ;
328 -> 724 ;
725 [label=<now &le; 0.5<br/>gini = 0.298<br/>samples = 17<br/>value = [4, 18]<br/>class = good>, fillcolor="#65b3eb"] ;
724 -> 725 ;
726 [label=<weil &le; 1.5<br/>gini = 0.36<br/>samples = 13<br/>value = [4, 13]<br/>class = good>, fillcolor="#76bbed"] ;
725 -> 726 ;
727 [label=<hold &le; 0.5<br/>gini = 0.231<br/>samples = 12<br/>value = [2, 13]<br/>class = good>, fillcolor="#57ace9"] ;
726 -> 727 ;
728 [label=<did &le; 3.0<br/>gini = 0.26<br/>samples = 10<br/>value = [2, 11]<br/>class = good>, fillcolor="#5dafea"] ;
727 -> 728 ;
729 [label=<you &le; 25.5<br/>gini = 0.298<br/>samples = 9<br/>value = [2, 9]<br/>class = good>, fillcolor="#65b3eb"] ;
728 -> 729 ;
730 [label=<word &le; 0.5<br/>gini = 0.18<br/>samples = 8<br/>value = [1, 9]<br/>class = good>, fillcolor="#4fa8e8"] ;
729 -> 730 ;
731 [label=<where &le; 0.5<br/>gini = 0.198<br/>samples = 7<br/>value = [1, 8]<br/>class = good>, fillcolor="#52a9e8"] ;
730 -> 731 ;
732 [label=<wife &le; 0.5<br/>gini = 0.245<br/>samples = 5<br/>value = [1, 6]<br/>class = good>, fillcolor="#5aade9"] ;
731 -> 732 ;
733 [label=<gini = 0.0<br/>samples = 4<br/>value = [0, 6]<br/>class = good>, fillcolor="#399de5"] ;
732 -> 733 ;
734 [label=<gini = 0.0<br/>samples = 1<br/>value = [1, 0]<br/>class = bad>, fillcolor="#e58139"] ;
732 -> 734 ;
735 [label=<gini = 0.0<br/>samples = 2<br/>value = [0, 2]<br/>class = good>, fillcolor="#399de5"] ;
731 -> 735 ;
736 [label=<gini = 0.0<br/>samples = 1<br/>value = [0, 1]<br/>class = good>, fillcolor="#399de5"] ;
730 -> 736 ;
737 [label=<gini = 0.0<br/>samples = 1<br/>value = [1, 0]<br/>class = bad>, fillcolor="#e58139"] ;
729 -> 737 ;
738 [label=<gini = 0.0<br/>samples = 1<br/>value = [0, 2]<br/>class = good>, fillcolor="#399de5"] ;
728 -> 738 ;
739 [label=<gini = 0.0<br/>samples = 2<br/>value = [0, 2]<br/>class = good>, fillcolor="#399de5"] ;
727 -> 739 ;
740 [label=<gini = 0.0<br/>samples = 1<br/>value = [2, 0]<br/>class = bad>, fillcolor="#e58139"] ;
726 -> 740 ;
741 [label=<gini = 0.0<br/>samples = 4<br/>value = [0, 5]<br/>class = good>, fillcolor="#399de5"] ;
725 -> 741 ;
742 [label=<gini = 0.0<br/>samples = 8<br/>value = [0, 11]<br/>class = good>, fillcolor="#399de5"] ;
724 -> 742 ;
743 [label=<gini = 0.0<br/>samples = 1<br/>value = [2, 0]<br/>class = bad>, fillcolor="#e58139"] ;
327 -> 743 ;
744 [label=<gini = 0.0<br/>samples = 1<br/>value = [3, 0]<br/>class = bad>, fillcolor="#e58139"] ;
326 -> 744 ;
745 [label=<gini = 0.0<br/>samples = 1<br/>value = [3, 0]<br/>class = bad>, fillcolor="#e58139"] ;
325 -> 745 ;
746 [label=<gini = 0.0<br/>samples = 1<br/>value = [3, 0]<br/>class = bad>, fillcolor="#e58139"] ;
324 -> 746 ;
747 [label=<gini = 0.0<br/>samples = 1<br/>value = [2, 0]<br/>class = bad>, fillcolor="#e58139"] ;
323 -> 747 ;
748 [label=<gini = 0.0<br/>samples = 1<br/>value = [2, 0]<br/>class = bad>, fillcolor="#e58139"] ;
322 -> 748 ;
749 [label=<grace &le; 1.0<br/>gini = 0.498<br/>samples = 13<br/>value = [9, 8]<br/>class = bad>, fillcolor="#fcf1e9"] ;
321 -> 749 ;
750 [label=<guessin &le; 0.5<br/>gini = 0.498<br/>samples = 12<br/>value = [7, 8]<br/>class = good>, fillcolor="#e6f3fc"] ;
749 -> 750 ;
751 [label=<out &le; 0.5<br/>gini = 0.473<br/>samples = 11<br/>value = [5, 8]<br/>class = good>, fillcolor="#b5daf5"] ;
750 -> 751 ;
752 [label=<nobody &le; 1.0<br/>gini = 0.494<br/>samples = 7<br/>value = [5, 4]<br/>class = bad>, fillcolor="#fae6d7"] ;
751 -> 752 ;
753 [label=<look &le; 0.5<br/>gini = 0.49<br/>samples = 6<br/>value = [3, 4]<br/>class = good>, fillcolor="#cee6f8"] ;
752 -> 753 ;
754 [label=<remember &le; 0.5<br/>gini = 0.5<br/>samples = 5<br/>value = [3, 3]<br/>class = bad>, fillcolor="#ffffff"] ;
753 -> 754 ;
755 [label=<worth &le; 2.0<br/>gini = 0.48<br/>samples = 4<br/>value = [3, 2]<br/>class = bad>, fillcolor="#f6d5bd"] ;
754 -> 755 ;
756 [label=<radio &le; 0.5<br/>gini = 0.375<br/>samples = 3<br/>value = [3, 1]<br/>class = bad>, fillcolor="#eeab7b"] ;
755 -> 756 ;
757 [label=<gini = 0.0<br/>samples = 2<br/>value = [3, 0]<br/>class = bad>, fillcolor="#e58139"] ;
756 -> 757 ;
758 [label=<gini = 0.0<br/>samples = 1<br/>value = [0, 1]<br/>class = good>, fillcolor="#399de5"] ;
756 -> 758 ;
759 [label=<gini = 0.0<br/>samples = 1<br/>value = [0, 1]<br/>class = good>, fillcolor="#399de5"] ;
755 -> 759 ;
760 [label=<gini = 0.0<br/>samples = 1<br/>value = [0, 1]<br/>class = good>, fillcolor="#399de5"] ;
754 -> 760 ;
761 [label=<gini = 0.0<br/>samples = 1<br/>value = [0, 1]<br/>class = good>, fillcolor="#399de5"] ;
753 -> 761 ;
762 [label=<gini = 0.0<br/>samples = 1<br/>value = [2, 0]<br/>class = bad>, fillcolor="#e58139"] ;
752 -> 762 ;
763 [label=<gini = 0.0<br/>samples = 4<br/>value = [0, 4]<br/>class = good>, fillcolor="#399de5"] ;
751 -> 763 ;
764 [label=<gini = 0.0<br/>samples = 1<br/>value = [2, 0]<br/>class = bad>, fillcolor="#e58139"] ;
750 -> 764 ;
765 [label=<gini = 0.0<br/>samples = 1<br/>value = [2, 0]<br/>class = bad>, fillcolor="#e58139"] ;
749 -> 765 ;
766 [label=<gini = 0.0<br/>samples = 6<br/>value = [0, 8]<br/>class = good>, fillcolor="#399de5"] ;
320 -> 766 ;
767 [label=<gini = 0.0<br/>samples = 3<br/>value = [5, 0]<br/>class = bad>, fillcolor="#e58139"] ;
319 -> 767 ;
768 [label=<gini = 0.0<br/>samples = 6<br/>value = [7, 0]<br/>class = bad>, fillcolor="#e58139"] ;
318 -> 768 ;
769 [label=<gini = 0.0<br/>samples = 2<br/>value = [5, 0]<br/>class = bad>, fillcolor="#e58139"] ;
317 -> 769 ;
770 [label=<gini = 0.0<br/>samples = 3<br/>value = [6, 0]<br/>class = bad>, fillcolor="#e58139"] ;
316 -> 770 ;
771 [label=<gini = 0.0<br/>samples = 3<br/>value = [4, 0]<br/>class = bad>, fillcolor="#e58139"] ;
315 -> 771 ;
772 [label=<gini = 0.0<br/>samples = 2<br/>value = [3, 0]<br/>class = bad>, fillcolor="#e58139"] ;
314 -> 772 ;
773 [label=<save &le; 0.5<br/>gini = 0.193<br/>samples = 22<br/>value = [4, 33]<br/>class = good>, fillcolor="#51a9e8"] ;
313 -> 773 ;
774 [label=<pace &le; 0.5<br/>gini = 0.108<br/>samples = 21<br/>value = [2, 33]<br/>class = good>, fillcolor="#45a3e7"] ;
773 -> 774 ;
775 [label=<hes &le; 1.5<br/>gini = 0.121<br/>samples = 20<br/>value = [2, 29]<br/>class = good>, fillcolor="#47a4e7"] ;
774 -> 775 ;
776 [label=<every &le; 1.0<br/>gini = 0.124<br/>samples = 19<br/>value = [2, 28]<br/>class = good>, fillcolor="#47a4e7"] ;
775 -> 776 ;
777 [label=<still &le; 0.5<br/>gini = 0.142<br/>samples = 17<br/>value = [2, 24]<br/>class = good>, fillcolor="#49a5e7"] ;
776 -> 777 ;
778 [label=<need &le; 0.5<br/>gini = 0.087<br/>samples = 14<br/>value = [1, 21]<br/>class = good>, fillcolor="#42a2e6"] ;
777 -> 778 ;
779 [label=<from &le; 0.5<br/>gini = 0.133<br/>samples = 10<br/>value = [1, 13]<br/>class = good>, fillcolor="#48a5e7"] ;
778 -> 779 ;
780 [label=<gini = 0.0<br/>samples = 6<br/>value = [0, 9]<br/>class = good>, fillcolor="#399de5"] ;
779 -> 780 ;
781 [label=<violet &le; 0.5<br/>gini = 0.32<br/>samples = 4<br/>value = [1, 4]<br/>class = good>, fillcolor="#6ab6ec"] ;
779 -> 781 ;
782 [label=<gini = 0.0<br/>samples = 3<br/>value = [0, 4]<br/>class = good>, fillcolor="#399de5"] ;
781 -> 782 ;
783 [label=<gini = 0.0<br/>samples = 1<br/>value = [1, 0]<br/>class = bad>, fillcolor="#e58139"] ;
781 -> 783 ;
784 [label=<gini = 0.0<br/>samples = 4<br/>value = [0, 8]<br/>class = good>, fillcolor="#399de5"] ;
778 -> 784 ;
785 [label=<lips &le; 1.0<br/>gini = 0.375<br/>samples = 3<br/>value = [1, 3]<br/>class = good>, fillcolor="#7bbeee"] ;
777 -> 785 ;
786 [label=<cest &le; 7.5<br/>gini = 0.444<br/>samples = 2<br/>value = [1, 2]<br/>class = good>, fillcolor="#9ccef2"] ;
785 -> 786 ;
787 [label=<gini = 0.0<br/>samples = 1<br/>value = [1, 0]<br/>class = bad>, fillcolor="#e58139"] ;
786 -> 787 ;
788 [label=<gini = 0.0<br/>samples = 1<br/>value = [0, 2]<br/>class = good>, fillcolor="#399de5"] ;
786 -> 788 ;
789 [label=<gini = 0.0<br/>samples = 1<br/>value = [0, 1]<br/>class = good>, fillcolor="#399de5"] ;
785 -> 789 ;
790 [label=<gini = 0.0<br/>samples = 2<br/>value = [0, 4]<br/>class = good>, fillcolor="#399de5"] ;
776 -> 790 ;
791 [label=<gini = 0.0<br/>samples = 1<br/>value = [0, 1]<br/>class = good>, fillcolor="#399de5"] ;
775 -> 791 ;
792 [label=<gini = 0.0<br/>samples = 1<br/>value = [0, 4]<br/>class = good>, fillcolor="#399de5"] ;
774 -> 792 ;
793 [label=<gini = 0.0<br/>samples = 1<br/>value = [2, 0]<br/>class = bad>, fillcolor="#e58139"] ;
773 -> 793 ;
794 [label=<gini = 0.0<br/>samples = 2<br/>value = [3, 0]<br/>class = bad>, fillcolor="#e58139"] ;
312 -> 794 ;
795 [label=<broken &le; 0.5<br/>gini = 0.311<br/>samples = 88<br/>value = [27, 113]<br/>class = good>, fillcolor="#68b4eb"] ;
311 -> 795 ;
796 [label=<brian &le; 0.5<br/>gini = 0.278<br/>samples = 83<br/>value = [22, 110]<br/>class = good>, fillcolor="#61b1ea"] ;
795 -> 796 ;
797 [label=<im &le; 0.5<br/>gini = 0.269<br/>samples = 82<br/>value = [21, 110]<br/>class = good>, fillcolor="#5fb0ea"] ;
796 -> 797 ;
798 [label=<survival &le; 0.5<br/>gini = 0.417<br/>samples = 44<br/>value = [21, 50]<br/>class = good>, fillcolor="#8cc6f0"] ;
797 -> 798 ;
799 [label=<lost &le; 3.0<br/>gini = 0.408<br/>samples = 43<br/>value = [20, 50]<br/>class = good>, fillcolor="#88c4ef"] ;
798 -> 799 ;
800 [label=<in &le; 11.0<br/>gini = 0.389<br/>samples = 42<br/>value = [18, 50]<br/>class = good>, fillcolor="#80c0ee"] ;
