digraph Tree {
node [shape=box, style="filled, rounded", color="black", fontname="helvetica"] ;
edge [fontname="helvetica"] ;
0 [label=<last &le; 0.5<br/>gini = 0.499<br/>samples = 5109<br/>value = [4251, 3875]<br/>class = bad>, fillcolor="#fdf4ed"] ;
1 [label=<sola &le; 0.5<br/>gini = 0.488<br/>samples = 3828<br/>value = [2579, 3526]<br/>class = good>, fillcolor="#cae5f8"] ;
0 -> 1 [labeldistance=2.5, labelangle=45, headlabel="True"] ;
2 [label=<back &le; 0.5<br/>gini = 0.486<br/>samples = 3786<br/>value = [2521, 3526]<br/>class = good>, fillcolor="#c7e3f8"] ;
1 -> 2 ;
3 [label=<17 &le; 0.5<br/>gini = 0.468<br/>samples = 2559<br/>value = [1526, 2561]<br/>class = good>, fillcolor="#afd7f4"] ;
2 -> 3 ;
4 [label=<eres &le; 0.5<br/>gini = 0.463<br/>samples = 2526<br/>value = [1464, 2558]<br/>class = good>, fillcolor="#aad5f4"] ;
3 -> 4 ;
5 [label=<stress &le; 0.5<br/>gini = 0.459<br/>samples = 2499<br/>value = [1418, 2557]<br/>class = good>, fillcolor="#a7d3f3"] ;
4 -> 5 ;
6 [label=<rollie &le; 0.5<br/>gini = 0.456<br/>samples = 2470<br/>value = [1385, 2548]<br/>class = good>, fillcolor="#a5d2f3"] ;
5 -> 6 ;
7 [label=<voy &le; 0.5<br/>gini = 0.454<br/>samples = 2460<br/>value = [1366, 2548]<br/>class = good>, fillcolor="#a3d2f3"] ;
6 -> 7 ;
8 [label=<element &le; 0.5<br/>gini = 0.449<br/>samples = 2429<br/>value = [1317, 2548]<br/>class = good>, fillcolor="#9fd0f2"] ;
7 -> 8 ;
9 [label=<premier &le; 0.5<br/>gini = 0.448<br/>samples = 2422<br/>value = [1302, 2548]<br/>class = good>, fillcolor="#9ecff2"] ;
8 -> 9 ;
10 [label=<the &le; 0.5<br/>gini = 0.447<br/>samples = 2417<br/>value = [1294, 2548]<br/>class = good>, fillcolor="#9ecff2"] ;
9 -> 10 ;
11 [label=<nem &le; 0.5<br/>gini = 0.475<br/>samples = 310<br/>value = [304, 193]<br/>class = bad>, fillcolor="#f6d1b7"] ;
10 -> 11 ;
12 [label=<down &le; 0.5<br/>gini = 0.48<br/>samples = 303<br/>value = [291, 193]<br/>class = bad>, fillcolor="#f6d5bc"] ;
11 -> 12 ;
13 [label=<dj &le; 0.5<br/>gini = 0.452<br/>samples = 275<br/>value = [286, 151]<br/>class = bad>, fillcolor="#f3c4a2"] ;
12 -> 13 ;
14 [label=<time &le; 0.5<br/>gini = 0.458<br/>samples = 267<br/>value = [274, 151]<br/>class = bad>, fillcolor="#f3c6a6"] ;
13 -> 14 ;
15 [label=<ja &le; 0.5<br/>gini = 0.434<br/>samples = 244<br/>value = [264, 123]<br/>class = bad>, fillcolor="#f1bc95"] ;
14 -> 15 ;
16 [label=<sa &le; 0.5<br/>gini = 0.452<br/>samples = 224<br/>value = [233, 123]<br/>class = bad>, fillcolor="#f3c4a2"] ;
15 -> 16 ;
17 [label=<va &le; 0.5<br/>gini = 0.464<br/>samples = 211<br/>value = [214, 123]<br/>class = bad>, fillcolor="#f4c9ab"] ;
16 -> 17 ;
18 [label=<fin &le; 0.5<br/>gini = 0.48<br/>samples = 191<br/>value = [181, 121]<br/>class = bad>, fillcolor="#f6d5bd"] ;
17 -> 18 ;
19 [label=<fake &le; 2.0<br/>gini = 0.488<br/>samples = 184<br/>value = [165, 121]<br/>class = bad>, fillcolor="#f8ddca"] ;
18 -> 19 ;
20 [label=<madrugada &le; 0.5<br/>gini = 0.486<br/>samples = 183<br/>value = [165, 117]<br/>class = bad>, fillcolor="#f7dac5"] ;
19 -> 20 ;
21 [label=<little &le; 0.5<br/>gini = 0.487<br/>samples = 181<br/>value = [162, 117]<br/>class = bad>, fillcolor="#f8dcc8"] ;
20 -> 21 ;
22 [label=<je &le; 0.5<br/>gini = 0.48<br/>samples = 172<br/>value = [159, 106]<br/>class = bad>, fillcolor="#f6d5bd"] ;
21 -> 22 ;
23 [label=<liveplease &le; 0.5<br/>gini = 0.49<br/>samples = 162<br/>value = [141, 106]<br/>class = bad>, fillcolor="#f9e0ce"] ;
22 -> 23 ;
24 [label=<corte &le; 1.0<br/>gini = 0.486<br/>samples = 160<br/>value = [141, 101]<br/>class = bad>, fillcolor="#f8dbc7"] ;
23 -> 24 ;
25 [label=<donde &le; 0.5<br/>gini = 0.479<br/>samples = 157<br/>value = [141, 93]<br/>class = bad>, fillcolor="#f6d4bc"] ;
24 -> 25 ;
26 [label=<least &le; 1.0<br/>gini = 0.486<br/>samples = 150<br/>value = [130, 93]<br/>class = bad>, fillcolor="#f8dbc7"] ;
25 -> 26 ;
27 [label=<char &le; 0.5<br/>gini = 0.484<br/>samples = 149<br/>value = [130, 91]<br/>class = bad>, fillcolor="#f7d9c4"] ;
26 -> 27 ;
28 [label=<will &le; 6.5<br/>gini = 0.48<br/>samples = 148<br/>value = [130, 87]<br/>class = bad>, fillcolor="#f6d5be"] ;
27 -> 28 ;
29 [label=<touch &le; 0.5<br/>gini = 0.473<br/>samples = 146<br/>value = [130, 81]<br/>class = bad>, fillcolor="#f5d0b4"] ;
28 -> 29 ;
30 [label=<dzwonki &le; 1.5<br/>gini = 0.469<br/>samples = 144<br/>value = [130, 78]<br/>class = bad>, fillcolor="#f5cdb0"] ;
29 -> 30 ;
31 [label=<everything &le; 0.5<br/>gini = 0.471<br/>samples = 143<br/>value = [127, 78]<br/>class = bad>, fillcolor="#f5ceb3"] ;
30 -> 31 ;
32 [label=<cada &le; 0.5<br/>gini = 0.456<br/>samples = 137<br/>value = [127, 69]<br/>class = bad>, fillcolor="#f3c5a5"] ;
31 -> 32 ;
33 [label=<fool &le; 0.5<br/>gini = 0.459<br/>samples = 134<br/>value = [124, 69]<br/>class = bad>, fillcolor="#f3c7a7"] ;
32 -> 33 ;
34 [label=<ive &le; 0.5<br/>gini = 0.451<br/>samples = 132<br/>value = [124, 65]<br/>class = bad>, fillcolor="#f3c3a1"] ;
33 -> 34 ;
35 [label=<yeahand &le; 0.5<br/>gini = 0.437<br/>samples = 127<br/>value = [124, 59]<br/>class = bad>, fillcolor="#f1bd97"] ;
34 -> 35 ;
36 [label=<give &le; 0.5<br/>gini = 0.434<br/>samples = 126<br/>value = [124, 58]<br/>class = bad>, fillcolor="#f1bc96"] ;
35 -> 36 ;
37 [label=<schuss &le; 0.5<br/>gini = 0.418<br/>samples = 122<br/>value = [123, 52]<br/>class = bad>, fillcolor="#f0b68d"] ;
36 -> 37 ;
38 [label=<limpio &le; 1.0<br/>gini = 0.42<br/>samples = 121<br/>value = [121, 52]<br/>class = bad>, fillcolor="#f0b78e"] ;
37 -> 38 ;
39 [label=<ests &le; 0.5<br/>gini = 0.417<br/>samples = 120<br/>value = [121, 51]<br/>class = bad>, fillcolor="#f0b68c"] ;
38 -> 39 ;
40 [label=<perfecta &le; 0.5<br/>gini = 0.41<br/>samples = 119<br/>value = [121, 49]<br/>class = bad>, fillcolor="#f0b489"] ;
39 -> 40 ;
41 [label=<et &le; 0.5<br/>gini = 0.412<br/>samples = 118<br/>value = [120, 49]<br/>class = bad>, fillcolor="#f0b48a"] ;
40 -> 41 ;
42 [label=<fiveo &le; 3.0<br/>gini = 0.423<br/>samples = 112<br/>value = [112, 49]<br/>class = bad>, fillcolor="#f0b890"] ;
41 -> 42 ;
43 [label=<besar &le; 1.5<br/>gini = 0.42<br/>samples = 111<br/>value = [112, 48]<br/>class = bad>, fillcolor="#f0b78e"] ;
42 -> 43 ;
44 [label=<youll &le; 0.5<br/>gini = 0.428<br/>samples = 110<br/>value = [107, 48]<br/>class = bad>, fillcolor="#f1ba92"] ;
43 -> 44 ;
45 [label=<esa &le; 0.5<br/>gini = 0.413<br/>samples = 108<br/>value = [107, 44]<br/>class = bad>, fillcolor="#f0b58a"] ;
44 -> 45 ;
46 [label=<ihrem &le; 1.0<br/>gini = 0.418<br/>samples = 105<br/>value = [104, 44]<br/>class = bad>, fillcolor="#f0b68d"] ;
45 -> 46 ;
47 [label=<tha &le; 2.5<br/>gini = 0.41<br/>samples = 104<br/>value = [104, 42]<br/>class = bad>, fillcolor="#f0b489"] ;
46 -> 47 ;
48 [label=<way &le; 0.5<br/>gini = 0.42<br/>samples = 102<br/>value = [98, 42]<br/>class = bad>, fillcolor="#f0b78e"] ;
47 -> 48 ;
49 [label=<años &le; 0.5<br/>gini = 0.412<br/>samples = 101<br/>value = [98, 40]<br/>class = bad>, fillcolor="#f0b48a"] ;
48 -> 49 ;
50 [label=<behind &le; 1.0<br/>gini = 0.415<br/>samples = 99<br/>value = [96, 40]<br/>class = bad>, fillcolor="#f0b58b"] ;
49 -> 50 ;
51 [label=<otros &le; 0.5<br/>gini = 0.411<br/>samples = 98<br/>value = [96, 39]<br/>class = bad>, fillcolor="#f0b489"] ;
50 -> 51 ;
52 [label=<mejilla &le; 1.0<br/>gini = 0.42<br/>samples = 94<br/>value = [91, 39]<br/>class = bad>, fillcolor="#f0b78e"] ;
51 -> 52 ;
53 [label=<paso &le; 0.5<br/>gini = 0.426<br/>samples = 92<br/>value = [88, 39]<br/>class = bad>, fillcolor="#f1b991"] ;
52 -> 53 ;
54 [label=<starszym &le; 0.5<br/>gini = 0.431<br/>samples = 89<br/>value = [85, 39]<br/>class = bad>, fillcolor="#f1bb94"] ;
53 -> 54 ;
55 [label=<lage &le; 0.5<br/>gini = 0.433<br/>samples = 88<br/>value = [84, 39]<br/>class = bad>, fillcolor="#f1bc95"] ;
54 -> 55 ;
56 [label=<handstill &le; 0.5<br/>gini = 0.435<br/>samples = 87<br/>value = [83, 39]<br/>class = bad>, fillcolor="#f1bc96"] ;
55 -> 56 ;
57 [label=<asleep &le; 2.0<br/>gini = 0.427<br/>samples = 86<br/>value = [83, 37]<br/>class = bad>, fillcolor="#f1b991"] ;
56 -> 57 ;
58 [label=<var &le; 0.5<br/>gini = 0.422<br/>samples = 85<br/>value = [83, 36]<br/>class = bad>, fillcolor="#f0b88f"] ;
57 -> 58 ;
59 [label=<they &le; 0.5<br/>gini = 0.426<br/>samples = 84<br/>value = [81, 36]<br/>class = bad>, fillcolor="#f1b991"] ;
58 -> 59 ;
60 [label=<van &le; 1.5<br/>gini = 0.421<br/>samples = 81<br/>value = [79, 34]<br/>class = bad>, fillcolor="#f0b78e"] ;
59 -> 60 ;
61 [label=<rejoice &le; 1.5<br/>gini = 0.423<br/>samples = 80<br/>value = [78, 34]<br/>class = bad>, fillcolor="#f0b88f"] ;
60 -> 61 ;
62 [label=<quisiera &le; 0.5<br/>gini = 0.418<br/>samples = 79<br/>value = [78, 33]<br/>class = bad>, fillcolor="#f0b68d"] ;
61 -> 62 ;
63 [label=<say &le; 6.0<br/>gini = 0.422<br/>samples = 77<br/>value = [76, 33]<br/>class = bad>, fillcolor="#f0b88f"] ;
62 -> 63 ;
64 [label=<cuenta &le; 1.0<br/>gini = 0.417<br/>samples = 76<br/>value = [76, 32]<br/>class = bad>, fillcolor="#f0b68c"] ;
63 -> 64 ;
65 [label=<dealing &le; 0.5<br/>gini = 0.422<br/>samples = 75<br/>value = [74, 32]<br/>class = bad>, fillcolor="#f0b78f"] ;
64 -> 65 ;
66 [label=<hier &le; 0.5<br/>gini = 0.426<br/>samples = 74<br/>value = [72, 32]<br/>class = bad>, fillcolor="#f1b991"] ;
65 -> 66 ;
67 [label=<do &le; 0.5<br/>gini = 0.428<br/>samples = 73<br/>value = [71, 32]<br/>class = bad>, fillcolor="#f1ba92"] ;
66 -> 67 ;
68 [label=<latitanti &le; 0.5<br/>gini = 0.44<br/>samples = 65<br/>value = [62, 30]<br/>class = bad>, fillcolor="#f2be99"] ;
67 -> 68 ;
69 [label=<shooto &le; 0.5<br/>gini = 0.442<br/>samples = 64<br/>value = [61, 30]<br/>class = bad>, fillcolor="#f2bf9a"] ;
68 -> 69 ;
70 [label=<सम &le; 1.5<br/>gini = 0.444<br/>samples = 63<br/>value = [60, 30]<br/>class = bad>, fillcolor="#f2c09c"] ;
69 -> 70 ;
71 [label=<있어 &le; 2.0<br/>gini = 0.447<br/>samples = 62<br/>value = [59, 30]<br/>class = bad>, fillcolor="#f2c19e"] ;
70 -> 71 ;
72 [label=<like2embed &le; 0.5<br/>gini = 0.449<br/>samples = 61<br/>value = [58, 30]<br/>class = bad>, fillcolor="#f2c29f"] ;
71 -> 72 ;
73 [label=<feliz &le; 2.0<br/>gini = 0.454<br/>samples = 60<br/>value = [56, 30]<br/>class = bad>, fillcolor="#f3c4a3"] ;
72 -> 73 ;
74 [label=<recuerdo &le; 0.5<br/>gini = 0.459<br/>samples = 59<br/>value = [54, 30]<br/>class = bad>, fillcolor="#f3c7a7"] ;
73 -> 74 ;
75 [label=<angel &le; 0.5<br/>gini = 0.464<br/>samples = 58<br/>value = [52, 30]<br/>class = bad>, fillcolor="#f4caab"] ;
74 -> 75 ;
76 [label=<more &le; 1.5<br/>gini = 0.46<br/>samples = 57<br/>value = [52, 29]<br/>class = bad>, fillcolor="#f4c7a7"] ;
75 -> 76 ;
77 [label=<cambios &le; 0.5<br/>gini = 0.455<br/>samples = 56<br/>value = [52, 28]<br/>class = bad>, fillcolor="#f3c5a4"] ;
76 -> 77 ;
78 [label=<aaaah &le; 2.0<br/>gini = 0.458<br/>samples = 55<br/>value = [51, 28]<br/>class = bad>, fillcolor="#f3c6a6"] ;
77 -> 78 ;
79 [label=<move &le; 2.0<br/>gini = 0.453<br/>samples = 54<br/>value = [51, 27]<br/>class = bad>, fillcolor="#f3c4a2"] ;
78 -> 79 ;
80 [label=<cantarte &le; 0.5<br/>gini = 0.463<br/>samples = 53<br/>value = [47, 27]<br/>class = bad>, fillcolor="#f4c9ab"] ;
79 -> 80 ;
81 [label=<bùyào &le; 0.5<br/>gini = 0.469<br/>samples = 52<br/>value = [45, 27]<br/>class = bad>, fillcolor="#f5cdb0"] ;
80 -> 81 ;
82 [label=<likegenocide &le; 0.5<br/>gini = 0.471<br/>samples = 51<br/>value = [44, 27]<br/>class = bad>, fillcolor="#f5ceb2"] ;
81 -> 82 ;
83 [label=<viviendo &le; 1.0<br/>gini = 0.474<br/>samples = 50<br/>value = [43, 27]<br/>class = bad>, fillcolor="#f5d0b5"] ;
82 -> 83 ;
84 [label=<dynasty &le; 1.0<br/>gini = 0.476<br/>samples = 49<br/>value = [42, 27]<br/>class = bad>, fillcolor="#f6d2b8"] ;
83 -> 84 ;
85 [label=<senza &le; 3.0<br/>gini = 0.479<br/>samples = 48<br/>value = [41, 27]<br/>class = bad>, fillcolor="#f6d4bb"] ;
84 -> 85 ;
86 [label=<pegno &le; 0.5<br/>gini = 0.481<br/>samples = 47<br/>value = [40, 27]<br/>class = bad>, fillcolor="#f7d6bf"] ;
85 -> 86 ;
87 [label=<cierto &le; 0.5<br/>gini = 0.488<br/>samples = 46<br/>value = [37, 27]<br/>class = bad>, fillcolor="#f8ddc9"] ;
86 -> 87 ;
88 [label=<didn &le; 1.0<br/>gini = 0.49<br/>samples = 45<br/>value = [36, 27]<br/>class = bad>, fillcolor="#f8e0ce"] ;
87 -> 88 ;
89 [label=<mücevherli &le; 2.0<br/>gini = 0.492<br/>samples = 44<br/>value = [35, 27]<br/>class = bad>, fillcolor="#f9e2d2"] ;
88 -> 89 ;
90 [label=<no &le; 11.5<br/>gini = 0.493<br/>samples = 43<br/>value = [34, 27]<br/>class = bad>, fillcolor="#fae5d6"] ;
89 -> 90 ;
91 [label=<long &le; 0.5<br/>gini = 0.491<br/>samples = 42<br/>value = [34, 26]<br/>class = bad>, fillcolor="#f9e1d0"] ;
90 -> 91 ;
92 [label=<good &le; 2.0<br/>gini = 0.493<br/>samples = 41<br/>value = [33, 26]<br/>class = bad>, fillcolor="#f9e4d5"] ;
91 -> 92 ;
93 [label=<meembed &le; 0.5<br/>gini = 0.496<br/>samples = 40<br/>value = [31, 26]<br/>class = bad>, fillcolor="#fbebdf"] ;
92 -> 93 ;
94 [label=<apresentar &le; 1.5<br/>gini = 0.497<br/>samples = 39<br/>value = [30, 26]<br/>class = bad>, fillcolor="#fceee5"] ;
93 -> 94 ;
95 [label=<умереть &le; 0.5<br/>gini = 0.499<br/>samples = 38<br/>value = [29, 26]<br/>class = bad>, fillcolor="#fcf2eb"] ;
94 -> 95 ;
96 [label=<got &le; 1.0<br/>gini = 0.5<br/>samples = 37<br/>value = [27, 26]<br/>class = bad>, fillcolor="#fefaf8"] ;
95 -> 96 ;
97 [label=<meyou &le; 0.5<br/>gini = 0.5<br/>samples = 36<br/>value = [26, 26]<br/>class = bad>, fillcolor="#ffffff"] ;
96 -> 97 ;
98 [label=<would &le; 2.0<br/>gini = 0.499<br/>samples = 35<br/>value = [24, 26]<br/>class = good>, fillcolor="#f0f7fd"] ;
97 -> 98 ;
99 [label=<like4embed &le; 0.5<br/>gini = 0.498<br/>samples = 34<br/>value = [23, 26]<br/>class = good>, fillcolor="#e8f4fc"] ;
98 -> 99 ;
100 [label=<slowly &le; 0.5<br/>gini = 0.497<br/>samples = 33<br/>value = [22, 26]<br/>class = good>, fillcolor="#e1f0fb"] ;
99 -> 100 ;
101 [label=<ups &le; 1.5<br/>gini = 0.494<br/>samples = 32<br/>value = [21, 26]<br/>class = good>, fillcolor="#d9ecfa"] ;
100 -> 101 ;
102 [label=<step &le; 0.5<br/>gini = 0.488<br/>samples = 31<br/>value = [19, 26]<br/>class = good>, fillcolor="#cae5f8"] ;
101 -> 102 ;
103 [label=<na &le; 0.5<br/>gini = 0.483<br/>samples = 30<br/>value = [18, 26]<br/>class = good>, fillcolor="#c2e1f7"] ;
102 -> 103 ;
104 [label=<get &le; 11.0<br/>gini = 0.492<br/>samples = 22<br/>value = [18, 14]<br/>class = bad>, fillcolor="#f9e3d3"] ;
103 -> 104 ;
105 [label=<instrumental &le; 0.5<br/>gini = 0.48<br/>samples = 21<br/>value = [18, 12]<br/>class = bad>, fillcolor="#f6d5bd"] ;
104 -> 105 ;
106 [label=<gini = 0.0<br/>samples = 11<br/>value = [18, 0]<br/>class = bad>, fillcolor="#e58139"] ;
105 -> 106 ;
107 [label=<gini = 0.0<br/>samples = 10<br/>value = [0, 12]<br/>class = good>, fillcolor="#399de5"] ;
105 -> 107 ;
108 [label=<gini = 0.0<br/>samples = 1<br/>value = [0, 2]<br/>class = good>, fillcolor="#399de5"] ;
104 -> 108 ;
109 [label=<gini = 0.0<br/>samples = 8<br/>value = [0, 12]<br/>class = good>, fillcolor="#399de5"] ;
103 -> 109 ;
110 [label=<gini = 0.0<br/>samples = 1<br/>value = [1, 0]<br/>class = bad>, fillcolor="#e58139"] ;
102 -> 110 ;
111 [label=<gini = 0.0<br/>samples = 1<br/>value = [2, 0]<br/>class = bad>, fillcolor="#e58139"] ;
101 -> 111 ;
112 [label=<gini = 0.0<br/>samples = 1<br/>value = [1, 0]<br/>class = bad>, fillcolor="#e58139"] ;
100 -> 112 ;
113 [label=<gini = 0.0<br/>samples = 1<br/>value = [1, 0]<br/>class = bad>, fillcolor="#e58139"] ;
99 -> 113 ;
114 [label=<gini = 0.0<br/>samples = 1<br/>value = [1, 0]<br/>class = bad>, fillcolor="#e58139"] ;
98 -> 114 ;
115 [label=<gini = 0.0<br/>samples = 1<br/>value = [2, 0]<br/>class = bad>, fillcolor="#e58139"] ;
97 -> 115 ;
116 [label=<gini = 0.0<br/>samples = 1<br/>value = [1, 0]<br/>class = bad>, fillcolor="#e58139"] ;
96 -> 116 ;
117 [label=<gini = 0.0<br/>samples = 1<br/>value = [2, 0]<br/>class = bad>, fillcolor="#e58139"] ;
95 -> 117 ;
118 [label=<gini = 0.0<br/>samples = 1<br/>value = [1, 0]<br/>class = bad>, fillcolor="#e58139"] ;
94 -> 118 ;
119 [label=<gini = 0.0<br/>samples = 1<br/>value = [1, 0]<br/>class = bad>, fillcolor="#e58139"] ;
93 -> 119 ;
120 [label=<gini = 0.0<br/>samples = 1<br/>value = [2, 0]<br/>class = bad>, fillcolor="#e58139"] ;
92 -> 120 ;
121 [label=<gini = 0.0<br/>samples = 1<br/>value = [1, 0]<br/>class = bad>, fillcolor="#e58139"] ;
91 -> 121 ;
122 [label=<gini = 0.0<br/>samples = 1<br/>value = [0, 1]<br/>class = good>, fillcolor="#399de5"] ;
90 -> 122 ;
123 [label=<gini = 0.0<br/>samples = 1<br/>value = [1, 0]<br/>class = bad>, fillcolor="#e58139"] ;
89 -> 123 ;
124 [label=<gini = 0.0<br/>samples = 1<br/>value = [1, 0]<br/>class = bad>, fillcolor="#e58139"] ;
88 -> 124 ;
125 [label=<gini = 0.0<br/>samples = 1<br/>value = [1, 0]<br/>class = bad>, fillcolor="#e58139"] ;
87 -> 125 ;
126 [label=<gini = 0.0<br/>samples = 1<br/>value = [3, 0]<br/>class = bad>, fillcolor="#e58139"] ;
86 -> 126 ;
127 [label=<gini = 0.0<br/>samples = 1<br/>value = [1, 0]<br/>class = bad>, fillcolor="#e58139"] ;
85 -> 127 ;
128 [label=<gini = 0.0<br/>samples = 1<br/>value = [1, 0]<br/>class = bad>, fillcolor="#e58139"] ;
84 -> 128 ;
129 [label=<gini = 0.0<br/>samples = 1<br/>value = [1, 0]<br/>class = bad>, fillcolor="#e58139"] ;
83 -> 129 ;
130 [label=<gini = 0.0<br/>samples = 1<br/>value = [1, 0]<br/>class = bad>, fillcolor="#e58139"] ;
82 -> 130 ;
131 [label=<gini = 0.0<br/>samples = 1<br/>value = [1, 0]<br/>class = bad>, fillcolor="#e58139"] ;
81 -> 131 ;
132 [label=<gini = 0.0<br/>samples = 1<br/>value = [2, 0]<br/>class = bad>, fillcolor="#e58139"] ;
80 -> 132 ;
133 [label=<gini = 0.0<br/>samples = 1<br/>value = [4, 0]<br/>class = bad>, fillcolor="#e58139"] ;
79 -> 133 ;
134 [label=<gini = 0.0<br/>samples = 1<br/>value = [0, 1]<br/>class = good>, fillcolor="#399de5"] ;
78 -> 134 ;
135 [label=<gini = 0.0<br/>samples = 1<br/>value = [1, 0]<br/>class = bad>, fillcolor="#e58139"] ;
77 -> 135 ;
136 [label=<gini = 0.0<br/>samples = 1<br/>value = [0, 1]<br/>class = good>, fillcolor="#399de5"] ;
76 -> 136 ;
137 [label=<gini = 0.0<br/>samples = 1<br/>value = [0, 1]<br/>class = good>, fillcolor="#399de5"] ;
75 -> 137 ;
138 [label=<gini = 0.0<br/>samples = 1<br/>value = [2, 0]<br/>class = bad>, fillcolor="#e58139"] ;
74 -> 138 ;
139 [label=<gini = 0.0<br/>samples = 1<br/>value = [2, 0]<br/>class = bad>, fillcolor="#e58139"] ;
73 -> 139 ;
140 [label=<gini = 0.0<br/>samples = 1<br/>value = [2, 0]<br/>class = bad>, fillcolor="#e58139"] ;
72 -> 140 ;
141 [label=<gini = 0.0<br/>samples = 1<br/>value = [1, 0]<br/>class = bad>, fillcolor="#e58139"] ;
71 -> 141 ;
142 [label=<gini = 0.0<br/>samples = 1<br/>value = [1, 0]<br/>class = bad>, fillcolor="#e58139"] ;
70 -> 142 ;
143 [label=<gini = 0.0<br/>samples = 1<br/>value = [1, 0]<br/>class = bad>, fillcolor="#e58139"] ;
69 -> 143 ;
144 [label=<gini = 0.0<br/>samples = 1<br/>value = [1, 0]<br/>class = bad>, fillcolor="#e58139"] ;
68 -> 144 ;
145 [label=<hanging &le; 0.5<br/>gini = 0.298<br/>samples = 8<br/>value = [9, 2]<br/>class = bad>, fillcolor="#eb9d65"] ;
67 -> 145 ;
146 [label=<futum &le; 0.5<br/>gini = 0.32<br/>samples = 7<br/>value = [8, 2]<br/>class = bad>, fillcolor="#eca06a"] ;
145 -> 146 ;
147 [label=<or &le; 1.0<br/>gini = 0.346<br/>samples = 6<br/>value = [7, 2]<br/>class = bad>, fillcolor="#eca572"] ;
146 -> 147 ;
148 [label=<damu &le; 0.5<br/>gini = 0.444<br/>samples = 5<br/>value = [4, 2]<br/>class = bad>, fillcolor="#f2c09c"] ;
147 -> 148 ;
149 [label=<aguento &le; 1.0<br/>gini = 0.48<br/>samples = 4<br/>value = [3, 2]<br/>class = bad>, fillcolor="#f6d5bd"] ;
148 -> 149 ;
150 [label=<to &le; 2.5<br/>gini = 0.5<br/>samples = 3<br/>value = [2, 2]<br/>class = bad>, fillcolor="#ffffff"] ;
149 -> 150 ;
151 [label=<gini = 0.0<br/>samples = 2<br/>value = [2, 0]<br/>class = bad>, fillcolor="#e58139"] ;
150 -> 151 ;
152 [label=<gini = 0.0<br/>samples = 1<br/>value = [0, 2]<br/>class = good>, fillcolor="#399de5"] ;
150 -> 152 ;
153 [label=<gini = 0.0<br/>samples = 1<br/>value = [1, 0]<br/>class = bad>, fillcolor="#e58139"] ;
149 -> 153 ;
154 [label=<gini = 0.0<br/>samples = 1<br/>value = [1, 0]<br/>class = bad>, fillcolor="#e58139"] ;
148 -> 154 ;
155 [label=<gini = 0.0<br/>samples = 1<br/>value = [3, 0]<br/>class = bad>, fillcolor="#e58139"] ;
147 -> 155 ;
156 [label=<gini = 0.0<br/>samples = 1<br/>value = [1, 0]<br/>class = bad>, fillcolor="#e58139"] ;
146 -> 156 ;
157 [label=<gini = 0.0<br/>samples = 1<br/>value = [1, 0]<br/>class = bad>, fillcolor="#e58139"] ;
145 -> 157 ;
158 [label=<gini = 0.0<br/>samples = 1<br/>value = [1, 0]<br/>class = bad>, fillcolor="#e58139"] ;
66 -> 158 ;
159 [label=<gini = 0.0<br/>samples = 1<br/>value = [2, 0]<br/>class = bad>, fillcolor="#e58139"] ;
65 -> 159 ;
160 [label=<gini = 0.0<br/>samples = 1<br/>value = [2, 0]<br/>class = bad>, fillcolor="#e58139"] ;
64 -> 160 ;
161 [label=<gini = 0.0<br/>samples = 1<br/>value = [0, 1]<br/>class = good>, fillcolor="#399de5"] ;
63 -> 161 ;
162 [label=<gini = 0.0<br/>samples = 2<br/>value = [2, 0]<br/>class = bad>, fillcolor="#e58139"] ;
62 -> 162 ;
163 [label=<gini = 0.0<br/>samples = 1<br/>value = [0, 1]<br/>class = good>, fillcolor="#399de5"] ;
61 -> 163 ;
164 [label=<gini = 0.0<br/>samples = 1<br/>value = [1, 0]<br/>class = bad>, fillcolor="#e58139"] ;
60 -> 164 ;
165 [label=<words &le; 0.5<br/>gini = 0.5<br/>samples = 3<br/>value = [2, 2]<br/>class = bad>, fillcolor="#ffffff"] ;
59 -> 165 ;
166 [label=<gini = 0.0<br/>samples = 2<br/>value = [2, 0]<br/>class = bad>, fillcolor="#e58139"] ;
165 -> 166 ;
167 [label=<gini = 0.0<br/>samples = 1<br/>value = [0, 2]<br/>class = good>, fillcolor="#399de5"] ;
165 -> 167 ;
168 [label=<gini = 0.0<br/>samples = 1<br/>value = [2, 0]<br/>class = bad>, fillcolor="#e58139"] ;
58 -> 168 ;
169 [label=<gini = 0.0<br/>samples = 1<br/>value = [0, 1]<br/>class = good>, fillcolor="#399de5"] ;
57 -> 169 ;
170 [label=<gini = 0.0<br/>samples = 1<br/>value = [0, 2]<br/>class = good>, fillcolor="#399de5"] ;
56 -> 170 ;
171 [label=<gini = 0.0<br/>samples = 1<br/>value = [1, 0]<br/>class = bad>, fillcolor="#e58139"] ;
55 -> 171 ;
172 [label=<gini = 0.0<br/>samples = 1<br/>value = [1, 0]<br/>class = bad>, fillcolor="#e58139"] ;
54 -> 172 ;
173 [label=<gini = 0.0<br/>samples = 3<br/>value = [3, 0]<br/>class = bad>, fillcolor="#e58139"] ;
53 -> 173 ;
174 [label=<gini = 0.0<br/>samples = 2<br/>value = [3, 0]<br/>class = bad>, fillcolor="#e58139"] ;
52 -> 174 ;
175 [label=<gini = 0.0<br/>samples = 4<br/>value = [5, 0]<br/>class = bad>, fillcolor="#e58139"] ;
51 -> 175 ;
176 [label=<gini = 0.0<br/>samples = 1<br/>value = [0, 1]<br/>class = good>, fillcolor="#399de5"] ;
50 -> 176 ;
177 [label=<gini = 0.0<br/>samples = 2<br/>value = [2, 0]<br/>class = bad>, fillcolor="#e58139"] ;
49 -> 177 ;
178 [label=<gini = 0.0<br/>samples = 1<br/>value = [0, 2]<br/>class = good>, fillcolor="#399de5"] ;
48 -> 178 ;
179 [label=<gini = 0.0<br/>samples = 2<br/>value = [6, 0]<br/>class = bad>, fillcolor="#e58139"] ;
47 -> 179 ;
180 [label=<gini = 0.0<br/>samples = 1<br/>value = [0, 2]<br/>class = good>, fillcolor="#399de5"] ;
46 -> 180 ;
181 [label=<gini = 0.0<br/>samples = 3<br/>value = [3, 0]<br/>class = bad>, fillcolor="#e58139"] ;
45 -> 181 ;
182 [label=<gini = 0.0<br/>samples = 2<br/>value = [0, 4]<br/>class = good>, fillcolor="#399de5"] ;
44 -> 182 ;
183 [label=<gini = 0.0<br/>samples = 1<br/>value = [5, 0]<br/>class = bad>, fillcolor="#e58139"] ;
43 -> 183 ;
184 [label=<gini = 0.0<br/>samples = 1<br/>value = [0, 1]<br/>class = good>, fillcolor="#399de5"] ;
42 -> 184 ;
185 [label=<gini = 0.0<br/>samples = 6<br/>value = [8, 0]<br/>class = bad>, fillcolor="#e58139"] ;
41 -> 185 ;
186 [label=<gini = 0.0<br/>samples = 1<br/>value = [1, 0]<br/>class = bad>, fillcolor="#e58139"] ;
40 -> 186 ;
187 [label=<gini = 0.0<br/>samples = 1<br/>value = [0, 2]<br/>class = good>, fillcolor="#399de5"] ;
39 -> 187 ;
188 [label=<gini = 0.0<br/>samples = 1<br/>value = [0, 1]<br/>class = good>, fillcolor="#399de5"] ;
38 -> 188 ;
189 [label=<gini = 0.0<br/>samples = 1<br/>value = [2, 0]<br/>class = bad>, fillcolor="#e58139"] ;
37 -> 189 ;
190 [label=<free &le; 1.0<br/>gini = 0.245<br/>samples = 4<br/>value = [1, 6]<br/>class = good>, fillcolor="#5aade9"] ;
36 -> 190 ;
191 [label=<gini = 0.0<br/>samples = 3<br/>value = [0, 6]<br/>class = good>, fillcolor="#399de5"] ;
190 -> 191 ;
192 [label=<gini = 0.0<br/>samples = 1<br/>value = [1, 0]<br/>class = bad>, fillcolor="#e58139"] ;
190 -> 192 ;
193 [label=<gini = 0.0<br/>samples = 1<br/>value = [0, 1]<br/>class = good>, fillcolor="#399de5"] ;
35 -> 193 ;
194 [label=<gini = 0.0<br/>samples = 5<br/>value = [0, 6]<br/>class = good>, fillcolor="#399de5"] ;
34 -> 194 ;
195 [label=<gini = 0.0<br/>samples = 2<br/>value = [0, 4]<br/>class = good>, fillcolor="#399de5"] ;
33 -> 195 ;
196 [label=<gini = 0.0<br/>samples = 3<br/>value = [3, 0]<br/>class = bad>, fillcolor="#e58139"] ;
32 -> 196 ;
197 [label=<gini = 0.0<br/>samples = 6<br/>value = [0, 9]<br/>class = good>, fillcolor="#399de5"] ;
31 -> 197 ;
198 [label=<gini = 0.0<br/>samples = 1<br/>value = [3, 0]<br/>class = bad>, fillcolor="#e58139"] ;
30 -> 198 ;
199 [label=<gini = 0.0<br/>samples = 2<br/>value = [0, 3]<br/>class = good>, fillcolor="#399de5"] ;
29 -> 199 ;
200 [label=<gini = 0.0<br/>samples = 2<br/>value = [0, 6]<br/>class = good>, fillcolor="#399de5"] ;
28 -> 200 ;
201 [label=<gini = 0.0<br/>samples = 1<br/>value = [0, 4]<br/>class = good>, fillcolor="#399de5"] ;
27 -> 201 ;
202 [label=<gini = 0.0<br/>samples = 1<br/>value = [0, 2]<br/>class = good>, fillcolor="#399de5"] ;
26 -> 202 ;
203 [label=<gini = 0.0<br/>samples = 7<br/>value = [11, 0]<br/>class = bad>, fillcolor="#e58139"] ;
25 -> 203 ;
204 [label=<gini = 0.0<br/>samples = 3<br/>value = [0, 8]<br/>class = good>, fillcolor="#399de5"] ;
24 -> 204 ;
205 [label=<gini = 0.0<br/>samples = 2<br/>value = [0, 5]<br/>class = good>, fillcolor="#399de5"] ;
23 -> 205 ;
206 [label=<gini = 0.0<br/>samples = 10<br/>value = [18, 0]<br/>class = bad>, fillcolor="#e58139"] ;
22 -> 206 ;
207 [label=<home &le; 4.5<br/>gini = 0.337<br/>samples = 9<br/>value = [3, 11]<br/>class = good>, fillcolor="#6fb8ec"] ;
21 -> 207 ;
208 [label=<everybodys &le; 1.0<br/>gini = 0.375<br/>samples = 8<br/>value = [3, 9]<br/>class = good>, fillcolor="#7bbeee"] ;
207 -> 208 ;
209 [label=<all &le; 0.5<br/>gini = 0.397<br/>samples = 7<br/>value = [3, 8]<br/>class = good>, fillcolor="#83c2ef"] ;
208 -> 209 ;
210 [label=<under &le; 2.0<br/>gini = 0.469<br/>samples = 4<br/>value = [3, 5]<br/>class = good>, fillcolor="#b0d8f5"] ;
209 -> 210 ;
211 [label=<gini = 0.0<br/>samples = 3<br/>value = [0, 5]<br/>class = good>, fillcolor="#399de5"] ;
210 -> 211 ;
212 [label=<gini = 0.0<br/>samples = 1<br/>value = [3, 0]<br/>class = bad>, fillcolor="#e58139"] ;
210 -> 212 ;
213 [label=<gini = 0.0<br/>samples = 3<br/>value = [0, 3]<br/>class = good>, fillcolor="#399de5"] ;
209 -> 213 ;
214 [label=<gini = 0.0<br/>samples = 1<br/>value = [0, 1]<br/>class = good>, fillcolor="#399de5"] ;
208 -> 214 ;
215 [label=<gini = 0.0<br/>samples = 1<br/>value = [0, 2]<br/>class = good>, fillcolor="#399de5"] ;
207 -> 215 ;
216 [label=<gini = 0.0<br/>samples = 2<br/>value = [3, 0]<br/>class = bad>, fillcolor="#e58139"] ;
20 -> 216 ;
217 [label=<gini = 0.0<br/>samples = 1<br/>value = [0, 4]<br/>class = good>, fillcolor="#399de5"] ;
19 -> 217 ;
218 [label=<gini = 0.0<br/>samples = 7<br/>value = [16, 0]<br/>class = bad>, fillcolor="#e58139"] ;
18 -> 218 ;
219 [label=<nos &le; 0.5<br/>gini = 0.108<br/>samples = 20<br/>value = [33, 2]<br/>class = bad>, fillcolor="#e78945"] ;
17 -> 219 ;
220 [label=<hay &le; 0.5<br/>gini = 0.153<br/>samples = 14<br/>value = [22, 2]<br/>class = bad>, fillcolor="#e78c4b"] ;
219 -> 220 ;
221 [label=<fatto &le; 0.5<br/>gini = 0.188<br/>samples = 10<br/>value = [17, 2]<br/>class = bad>, fillcolor="#e89050"] ;
220 -> 221 ;
222 [label=<acompañar &le; 0.5<br/>gini = 0.198<br/>samples = 9<br/>value = [16, 2]<br/>class = bad>, fillcolor="#e89152"] ;
221 -> 222 ;
223 [label=<hooo &le; 0.5<br/>gini = 0.208<br/>samples = 8<br/>value = [15, 2]<br/>class = bad>, fillcolor="#e89253"] ;
222 -> 223 ;
224 [label=<tocarte &le; 0.5<br/>gini = 0.231<br/>samples = 7<br/>value = [13, 2]<br/>class = bad>, fillcolor="#e99457"] ;
223 -> 224 ;
225 [label=<gini = 0.0<br/>samples = 6<br/>value = [13, 0]<br/>class = bad>, fillcolor="#e58139"] ;
224 -> 225 ;
226 [label=<gini = 0.0<br/>samples = 1<br/>value = [0, 2]<br/>class = good>, fillcolor="#399de5"] ;
224 -> 226 ;
227 [label=<gini = 0.0<br/>samples = 1<br/>value = [2, 0]<br/>class = bad>, fillcolor="#e58139"] ;
223 -> 227 ;
228 [label=<gini = 0.0<br/>samples = 1<br/>value = [1, 0]<br/>class = bad>, fillcolor="#e58139"] ;
222 -> 228 ;
229 [label=<gini = 0.0<br/>samples = 1<br/>value = [1, 0]<br/>class = bad>, fillcolor="#e58139"] ;
221 -> 229 ;
230 [label=<gini = 0.0<br/>samples = 4<br/>value = [5, 0]<br/>class = bad>, fillcolor="#e58139"] ;
220 -> 230 ;
231 [label=<gini = 0.0<br/>samples = 6<br/>value = [11, 0]<br/>class = bad>, fillcolor="#e58139"] ;
219 -> 231 ;
232 [label=<gini = 0.0<br/>samples = 13<br/>value = [19, 0]<br/>class = bad>, fillcolor="#e58139"] ;
16 -> 232 ;
233 [label=<gini = 0.0<br/>samples = 20<br/>value = [31, 0]<br/>class = bad>, fillcolor="#e58139"] ;
15 -> 233 ;
234 [label=<her &le; 0.5<br/>gini = 0.388<br/>samples = 23<br/>value = [10, 28]<br/>class = good>, fillcolor="#80c0ee"] ;
14 -> 234 ;
235 [label=<more &le; 0.5<br/>gini = 0.415<br/>samples = 21<br/>value = [10, 24]<br/>class = good>, fillcolor="#8bc6f0"] ;
234 -> 235 ;
236 [label=<gets &le; 0.5<br/>gini = 0.463<br/>samples = 14<br/>value = [8, 14]<br/>class = good>, fillcolor="#aad5f4"] ;
235 -> 236 ;
237 [label=<di &le; 3.0<br/>gini = 0.48<br/>samples = 13<br/>value = [8, 12]<br/>class = good>, fillcolor="#bddef6"] ;
236 -> 237 ;
238 [label=<and &le; 0.5<br/>gini = 0.415<br/>samples = 11<br/>value = [5, 12]<br/>class = good>, fillcolor="#8bc6f0"] ;
237 -> 238 ;
239 [label=<that &le; 1.0<br/>gini = 0.375<br/>samples = 2<br/>value = [3, 1]<br/>class = bad>, fillcolor="#eeab7b"] ;
238 -> 239 ;
240 [label=<gini = 0.0<br/>samples = 1<br/>value = [3, 0]<br/>class = bad>, fillcolor="#e58139"] ;
239 -> 240 ;
241 [label=<gini = 0.0<br/>samples = 1<br/>value = [0, 1]<br/>class = good>, fillcolor="#399de5"] ;
239 -> 241 ;
242 [label=<getting &le; 0.5<br/>gini = 0.26<br/>samples = 9<br/>value = [2, 11]<br/>class = good>, fillcolor="#5dafea"] ;
238 -> 242 ;
243 [label=<ya &le; 0.5<br/>gini = 0.298<br/>samples = 8<br/>value = [2, 9]<br/>class = good>, fillcolor="#65b3eb"] ;
242 -> 243 ;
244 [label=<separated &le; 2.5<br/>gini = 0.32<br/>samples = 7<br/>value = [2, 8]<br/>class = good>, fillcolor="#6ab6ec"] ;
243 -> 244 ;
245 [label=<and &le; 5.5<br/>gini = 0.346<br/>samples = 6<br/>value = [2, 7]<br/>class = good>, fillcolor="#72b9ec"] ;
244 -> 245 ;
246 [label=<gini = 0.0<br/>samples = 4<br/>value = [0, 5]<br/>class = good>, fillcolor="#399de5"] ;
245 -> 246 ;
247 [label=<good &le; 0.5<br/>gini = 0.5<br/>samples = 2<br/>value = [2, 2]<br/>class = bad>, fillcolor="#ffffff"] ;
245 -> 247 ;
248 [label=<gini = 0.0<br/>samples = 1<br/>value = [2, 0]<br/>class = bad>, fillcolor="#e58139"] ;
247 -> 248 ;
249 [label=<gini = 0.0<br/>samples = 1<br/>value = [0, 2]<br/>class = good>, fillcolor="#399de5"] ;
247 -> 249 ;
250 [label=<gini = 0.0<br/>samples = 1<br/>value = [0, 1]<br/>class = good>, fillcolor="#399de5"] ;
244 -> 250 ;
251 [label=<gini = 0.0<br/>samples = 1<br/>value = [0, 1]<br/>class = good>, fillcolor="#399de5"] ;
243 -> 251 ;
252 [label=<gini = 0.0<br/>samples = 1<br/>value = [0, 2]<br/>class = good>, fillcolor="#399de5"] ;
242 -> 252 ;
253 [label=<gini = 0.0<br/>samples = 2<br/>value = [3, 0]<br/>class = bad>, fillcolor="#e58139"] ;
237 -> 253 ;
254 [label=<gini = 0.0<br/>samples = 1<br/>value = [0, 2]<br/>class = good>, fillcolor="#399de5"] ;
236 -> 254 ;
255 [label=<spoken &le; 0.5<br/>gini = 0.278<br/>samples = 7<br/>value = [2, 10]<br/>class = good>, fillcolor="#61b1ea"] ;
235 -> 255 ;
256 [label=<see &le; 0.5<br/>gini = 0.32<br/>samples = 6<br/>value = [2, 8]<br/>class = good>, fillcolor="#6ab6ec"] ;
255 -> 256 ;
257 [label=<gini = 0.0<br/>samples = 4<br/>value = [0, 6]<br/>class = good>, fillcolor="#399de5"] ;
256 -> 257 ;
258 [label=<give &le; 0.5<br/>gini = 0.5<br/>samples = 2<br/>value = [2, 2]<br/>class = bad>, fillcolor="#ffffff"] ;
256 -> 258 ;
259 [label=<gini = 0.0<br/>samples = 1<br/>value = [0, 2]<br/>class = good>, fillcolor="#399de5"] ;
258 -> 259 ;
260 [label=<gini = 0.0<br/>samples = 1<br/>value = [2, 0]<br/>class = bad>, fillcolor="#e58139"] ;
258 -> 260 ;
261 [label=<gini = 0.0<br/>samples = 1<br/>value = [0, 2]<br/>class = good>, fillcolor="#399de5"] ;
255 -> 261 ;
262 [label=<gini = 0.0<br/>samples = 2<br/>value = [0, 4]<br/>class = good>, fillcolor="#399de5"] ;
234 -> 262 ;
263 [label=<gini = 0.0<br/>samples = 8<br/>value = [12, 0]<br/>class = bad>, fillcolor="#e58139"] ;
13 -> 263 ;
264 [label=<cant &le; 0.5<br/>gini = 0.19<br/>samples = 28<br/>value = [5, 42]<br/>class = good>, fillcolor="#51a9e8"] ;
12 -> 264 ;
265 [label=<until &le; 0.5<br/>gini = 0.278<br/>samples = 18<br/>value = [5, 25]<br/>class = good>, fillcolor="#61b1ea"] ;
264 -> 265 ;
266 [label=<name &le; 0.5<br/>gini = 0.285<br/>samples = 17<br/>value = [5, 24]<br/>class = good>, fillcolor="#62b1ea"] ;
265 -> 266 ;
267 [label=<lifejust &le; 0.5<br/>gini = 0.26<br/>samples = 15<br/>value = [4, 22]<br/>class = good>, fillcolor="#5dafea"] ;
266 -> 267 ;
268 [label=<deep &le; 0.5<br/>gini = 0.269<br/>samples = 14<br/>value = [4, 21]<br/>class = good>, fillcolor="#5fb0ea"] ;
267 -> 268 ;
269 [label=<sensei &le; 3.0<br/>gini = 0.308<br/>samples = 12<br/>value = [4, 17]<br/>class = good>, fillcolor="#68b4eb"] ;
268 -> 269 ;
270 [label=<right &le; 0.5<br/>gini = 0.255<br/>samples = 11<br/>value = [3, 17]<br/>class = good>, fillcolor="#5caeea"] ;
269 -> 270 ;
271 [label=<up &le; 0.5<br/>gini = 0.397<br/>samples = 8<br/>value = [3, 8]<br/>class = good>, fillcolor="#83c2ef"] ;
270 -> 271 ;
272 [label=<lied &le; 0.5<br/>gini = 0.49<br/>samples = 5<br/>value = [3, 4]<br/>class = good>, fillcolor="#cee6f8"] ;
271 -> 272 ;
273 [label=<incomprehensible &le; 0.5<br/>gini = 0.5<br/>samples = 4<br/>value = [3, 3]<br/>class = bad>, fillcolor="#ffffff"] ;
272 -> 273 ;
274 [label=<pushing &le; 1.0<br/>gini = 0.48<br/>samples = 3<br/>value = [3, 2]<br/>class = bad>, fillcolor="#f6d5bd"] ;
273 -> 274 ;
275 [label=<gini = 0.0<br/>samples = 2<br/>value = [0, 2]<br/>class = good>, fillcolor="#399de5"] ;
274 -> 275 ;
276 [label=<gini = 0.0<br/>samples = 1<br/>value = [3, 0]<br/>class = bad>, fillcolor="#e58139"] ;
274 -> 276 ;
277 [label=<gini = 0.0<br/>samples = 1<br/>value = [0, 1]<br/>class = good>, fillcolor="#399de5"] ;
273 -> 277 ;
278 [label=<gini = 0.0<br/>samples = 1<br/>value = [0, 1]<br/>class = good>, fillcolor="#399de5"] ;
272 -> 278 ;
279 [label=<gini = 0.0<br/>samples = 3<br/>value = [0, 4]<br/>class = good>, fillcolor="#399de5"] ;
271 -> 279 ;
280 [label=<gini = 0.0<br/>samples = 3<br/>value = [0, 9]<br/>class = good>, fillcolor="#399de5"] ;
270 -> 280 ;
281 [label=<gini = 0.0<br/>samples = 1<br/>value = [1, 0]<br/>class = bad>, fillcolor="#e58139"] ;
269 -> 281 ;
282 [label=<gini = 0.0<br/>samples = 2<br/>value = [0, 4]<br/>class = good>, fillcolor="#399de5"] ;
268 -> 282 ;
283 [label=<gini = 0.0<br/>samples = 1<br/>value = [0, 1]<br/>class = good>, fillcolor="#399de5"] ;
267 -> 283 ;
284 [label=<butter &le; 0.5<br/>gini = 0.444<br/>samples = 2<br/>value = [1, 2]<br/>class = good>, fillcolor="#9ccef2"] ;
266 -> 284 ;
285 [label=<gini = 0.0<br/>samples = 1<br/>value = [0, 2]<br/>class = good>, fillcolor="#399de5"] ;
284 -> 285 ;
286 [label=<gini = 0.0<br/>samples = 1<br/>value = [1, 0]<br/>class = bad>, fillcolor="#e58139"] ;
284 -> 286 ;
287 [label=<gini = 0.0<br/>samples = 1<br/>value = [0, 1]<br/>class = good>, fillcolor="#399de5"] ;
265 -> 287 ;
288 [label=<gini = 0.0<br/>samples = 10<br/>value = [0, 17]<br/>class = good>, fillcolor="#399de5"] ;
264 -> 288 ;
289 [label=<gini = 0.0<br/>samples = 7<br/>value = [13, 0]<br/>class = bad>, fillcolor="#e58139"] ;
11 -> 289 ;
290 [label=<normal &le; 0.5<br/>gini = 0.417<br/>samples = 2107<br/>value = [990, 2355]<br/>class = good>, fillcolor="#8cc6f0"] ;
10 -> 290 ;
291 [label=<path &le; 0.5<br/>gini = 0.415<br/>samples = 2102<br/>value = [981, 2353]<br/>class = good>, fillcolor="#8cc6f0"] ;
290 -> 291 ;
292 [label=<measure &le; 0.5<br/>gini = 0.412<br/>samples = 2079<br/>value = [955, 2341]<br/>class = good>, fillcolor="#8ac5f0"] ;
291 -> 292 ;
293 [label=<skully &le; 0.5<br/>gini = 0.41<br/>samples = 2074<br/>value = [944, 2340]<br/>class = good>, fillcolor="#89c5ef"] ;
292 -> 293 ;
294 [label=<country &le; 1.5<br/>gini = 0.408<br/>samples = 2070<br/>value = [937, 2340]<br/>class = good>, fillcolor="#88c4ef"] ;
293 -> 294 ;
295 [label=<take &le; 2.5<br/>gini = 0.407<br/>samples = 2061<br/>value = [927, 2338]<br/>class = good>, fillcolor="#88c4ef"] ;
294 -> 295 ;
296 [label=<don &le; 0.5<br/>gini = 0.414<br/>samples = 1879<br/>value = [872, 2103]<br/>class = good>, fillcolor="#8bc6f0"] ;
295 -> 296 ;
297 [label=<charly &le; 0.5<br/>gini = 0.261<br/>samples = 1565<br/>value = [382, 2095]<br/>class = good>, fillcolor="#5dafea"] ;
296 -> 297 ;
298 [label=<do &le; 1.5<br/>gini = 0.259<br/>samples = 1564<br/>value = [378, 2095]<br/>class = good>, fillcolor="#5dafea"] ;
297 -> 298 ;
299 [label=<viene &le; 0.5<br/>gini = 0.285<br/>samples = 1158<br/>value = [313, 1507]<br/>class = good>, fillcolor="#62b1ea"] ;
298 -> 299 ;
300 [label=<rime &le; 0.5<br/>gini = 0.282<br/>samples = 1156<br/>value = [308, 1507]<br/>class = good>, fillcolor="#61b1ea"] ;
299 -> 300 ;
301 [label=<likeand &le; 0.5<br/>gini = 0.28<br/>samples = 1154<br/>value = [305, 1507]<br/>class = good>, fillcolor="#61b1ea"] ;
300 -> 301 ;
302 [label=<meine &le; 0.5<br/>gini = 0.276<br/>samples = 1150<br/>value = [298, 1507]<br/>class = good>, fillcolor="#60b0ea"] ;
301 -> 302 ;
303 [label=<tu &le; 0.5<br/>gini = 0.271<br/>samples = 1146<br/>value = [291, 1507]<br/>class = good>, fillcolor="#5fb0ea"] ;
302 -> 303 ;
304 [label=<remix &le; 1.0<br/>gini = 0.266<br/>samples = 1137<br/>value = [282, 1504]<br/>class = good>, fillcolor="#5eafea"] ;
303 -> 304 ;
305 [label=<issues &le; 0.5<br/>gini = 0.263<br/>samples = 1135<br/>value = [278, 1504]<br/>class = good>, fillcolor="#5eafea"] ;
304 -> 305 ;
306 [label=<shit &le; 0.5<br/>gini = 0.261<br/>samples = 1133<br/>value = [274, 1504]<br/>class = good>, fillcolor="#5dafea"] ;
305 -> 306 ;
307 [label=<roebuck &le; 0.5<br/>gini = 0.244<br/>samples = 1096<br/>value = [245, 1476]<br/>class = good>, fillcolor="#5aade9"] ;
306 -> 307 ;
308 [label=<depended &le; 0.5<br/>gini = 0.243<br/>samples = 1095<br/>value = [244, 1476]<br/>class = good>, fillcolor="#5aade9"] ;
307 -> 308 ;
309 [label=<freeze &le; 1.5<br/>gini = 0.24<br/>samples = 1093<br/>value = [239, 1475]<br/>class = good>, fillcolor="#59ade9"] ;
308 -> 309 ;
310 [label=<thread &le; 0.5<br/>gini = 0.239<br/>samples = 1092<br/>value = [237, 1475]<br/>class = good>, fillcolor="#59ade9"] ;
309 -> 310 ;
311 [label=<graduate &le; 0.5<br/>gini = 0.236<br/>samples = 1089<br/>value = [234, 1474]<br/>class = good>, fillcolor="#58ade9"] ;
310 -> 311 ;
312 [label=<daniel &le; 0.5<br/>gini = 0.234<br/>samples = 1087<br/>value = [230, 1474]<br/>class = good>, fillcolor="#58ace9"] ;
311 -> 312 ;
313 [label=<emperor &le; 1.0<br/>gini = 0.231<br/>samples = 1086<br/>value = [227, 1474]<br/>class = good>, fillcolor="#57ace9"] ;
312 -> 313 ;
314 [label=<lotus &le; 0.5<br/>gini = 0.229<br/>samples = 1085<br/>value = [224, 1474]<br/>class = good>, fillcolor="#57ace9"] ;
313 -> 314 ;
315 [label=<won &le; 0.5<br/>gini = 0.228<br/>samples = 1084<br/>value = [222, 1474]<br/>class = good>, fillcolor="#57ace9"] ;
314 -> 315 ;
316 [label=<lend &le; 0.5<br/>gini = 0.212<br/>samples = 1063<br/>value = [200, 1463]<br/>class = good>, fillcolor="#54aae9"] ;
315 -> 316 ;
317 [label=<prayer &le; 0.5<br/>gini = 0.209<br/>samples = 1061<br/>value = [197, 1462]<br/>class = good>, fillcolor="#54aae9"] ;
316 -> 317 ;
318 [label=<bachelorette &le; 0.5<br/>gini = 0.204<br/>samples = 1052<br/>value = [190, 1455]<br/>class = good>, fillcolor="#53aae8"] ;
317 -> 318 ;
319 [label=<sovereign &le; 0.5<br/>gini = 0.203<br/>samples = 1051<br/>value = [189, 1455]<br/>class = good>, fillcolor="#53aae8"] ;
318 -> 319 ;
320 [label=<eric &le; 0.5<br/>gini = 0.202<br/>samples = 1050<br/>value = [187, 1455]<br/>class = good>, fillcolor="#52aae8"] ;
319 -> 320 ;
321 [label=<tired &le; 3.5<br/>gini = 0.2<br/>samples = 1049<br/>value = [185, 1455]<br/>class = good>, fillcolor="#52a9e8"] ;
320 -> 321 ;
322 [label=<ll &le; 0.5<br/>gini = 0.198<br/>samples = 1048<br/>value = [183, 1455]<br/>class = good>, fillcolor="#52a9e8"] ;
321 -> 322 ;
323 [label=<yeahh &le; 0.5<br/>gini = 0.168<br/>samples = 1026<br/>value = [148, 1455]<br/>class = good>, fillcolor="#4da7e8"] ;
322 -> 323 ;
324 [label=<france &le; 0.5<br/>gini = 0.165<br/>samples = 1025<br/>value = [145, 1455]<br/>class = good>, fillcolor="#4da7e8"] ;
323 -> 324 ;
325 [label=<re &le; 0.5<br/>gini = 0.164<br/>samples = 1024<br/>value = [144, 1455]<br/>class = good>, fillcolor="#4da7e8"] ;
324 -> 325 ;
326 [label=<gauge &le; 0.5<br/>gini = 0.117<br/>samples = 992<br/>value = [97, 1455]<br/>class = good>, fillcolor="#46a4e7"] ;
325 -> 326 ;
327 [label=<flashing &le; 2.5<br/>gini = 0.113<br/>samples = 990<br/>value = [93, 1454]<br/>class = good>, fillcolor="#46a3e7"] ;
326 -> 327 ;
328 [label=<julius &le; 0.5<br/>gini = 0.109<br/>samples = 988<br/>value = [89, 1453]<br/>class = good>, fillcolor="#45a3e7"] ;
327 -> 328 ;
329 [label=<vermin &le; 0.5<br/>gini = 0.107<br/>samples = 987<br/>value = [87, 1453]<br/>class = good>, fillcolor="#45a3e7"] ;
328 -> 329 ;
330 [label=<spiny &le; 0.5<br/>gini = 0.103<br/>samples = 986<br/>value = [84, 1453]<br/>class = good>, fillcolor="#44a3e7"] ;
329 -> 330 ;
331 [label=<jehovah &le; 3.0<br/>gini = 0.101<br/>samples = 985<br/>value = [82, 1453]<br/>class = good>, fillcolor="#44a3e6"] ;
330 -> 331 ;
332 [label=<peek &le; 0.5<br/>gini = 0.099<br/>samples = 984<br/>value = [80, 1453]<br/>class = good>, fillcolor="#44a2e6"] ;
331 -> 332 ;
333 [label=<mouth &le; 1.5<br/>gini = 0.097<br/>samples = 983<br/>value = [78, 1453]<br/>class = good>, fillcolor="#44a2e6"] ;
332 -> 333 ;
334 [label=<vrouwen &le; 0.5<br/>gini = 0.094<br/>samples = 977<br/>value = [75, 1445]<br/>class = good>, fillcolor="#43a2e6"] ;
333 -> 334 ;
335 [label=<revolution &le; 0.5<br/>gini = 0.093<br/>samples = 976<br/>value = [74, 1445]<br/>class = good>, fillcolor="#43a2e6"] ;
334 -> 335 ;
336 [label=<white &le; 1.5<br/>gini = 0.09<br/>samples = 973<br/>value = [72, 1444]<br/>class = good>, fillcolor="#43a2e6"] ;
335 -> 336 ;
337 [label=<dawn &le; 0.5<br/>gini = 0.084<br/>samples = 965<br/>value = [66, 1435]<br/>class = good>, fillcolor="#42a2e6"] ;
336 -> 337 ;
338 [label=<up1embed &le; 0.5<br/>gini = 0.085<br/>samples = 955<br/>value = [66, 1418]<br/>class = good>, fillcolor="#42a2e6"] ;
337 -> 338 ;
339 [label=<pa &le; 0.5<br/>gini = 0.083<br/>samples = 954<br/>value = [64, 1418]<br/>class = good>, fillcolor="#42a1e6"] ;
338 -> 339 ;
340 [label=<flatter &le; 1.0<br/>gini = 0.079<br/>samples = 950<br/>value = [61, 1417]<br/>class = good>, fillcolor="#42a1e6"] ;
339 -> 340 ;
341 [label=<drip &le; 0.5<br/>gini = 0.078<br/>samples = 949<br/>value = [60, 1417]<br/>class = good>, fillcolor="#41a1e6"] ;
340 -> 341 ;
342 [label=<without &le; 0.5<br/>gini = 0.076<br/>samples = 946<br/>value = [58, 1413]<br/>class = good>, fillcolor="#41a1e6"] ;
341 -> 342 ;
343 [label=<purity &le; 0.5<br/>gini = 0.083<br/>samples = 856<br/>value = [58, 1280]<br/>class = good>, fillcolor="#42a1e6"] ;
342 -> 343 ;
344 [label=<friend &le; 5.5<br/>gini = 0.08<br/>samples = 855<br/>value = [56, 1280]<br/>class = good>, fillcolor="#42a1e6"] ;
343 -> 344 ;
345 [label=<mastermind &le; 0.5<br/>gini = 0.075<br/>samples = 851<br/>value = [52, 1276]<br/>class = good>, fillcolor="#41a1e6"] ;
344 -> 345 ;
346 [label=<late &le; 0.5<br/>gini = 0.073<br/>samples = 850<br/>value = [50, 1276]<br/>class = good>, fillcolor="#41a1e6"] ;
345 -> 346 ;
347 [label=<wrong &le; 0.5<br/>gini = 0.074<br/>samples = 814<br/>value = [49, 1219]<br/>class = good>, fillcolor="#41a1e6"] ;
346 -> 347 ;
348 [label=<earned &le; 0.5<br/>gini = 0.08<br/>samples = 744<br/>value = [48, 1104]<br/>class = good>, fillcolor="#42a1e6"] ;
347 -> 348 ;
349 [label=<talks &le; 2.5<br/>gini = 0.079<br/>samples = 739<br/>value = [47, 1099]<br/>class = good>, fillcolor="#41a1e6"] ;
348 -> 349 ;
350 [label=<sable &le; 0.5<br/>gini = 0.077<br/>samples = 738<br/>value = [46, 1099]<br/>class = good>, fillcolor="#41a1e6"] ;
349 -> 350 ;
351 [label=<ground &le; 2.5<br/>gini = 0.074<br/>samples = 737<br/>value = [44, 1099]<br/>class = good>, fillcolor="#41a1e6"] ;
350 -> 351 ;
352 [label=<links &le; 1.0<br/>gini = 0.071<br/>samples = 734<br/>value = [42, 1096]<br/>class = good>, fillcolor="#41a1e6"] ;
351 -> 352 ;
353 [label=<dishes &le; 0.5<br/>gini = 0.07<br/>samples = 733<br/>value = [41, 1096]<br/>class = good>, fillcolor="#40a1e6"] ;
352 -> 353 ;
354 [label=<episode &le; 0.5<br/>gini = 0.068<br/>samples = 732<br/>value = [40, 1096]<br/>class = good>, fillcolor="#40a1e6"] ;
353 -> 354 ;
355 [label=<stud &le; 0.5<br/>gini = 0.066<br/>samples = 731<br/>value = [39, 1096]<br/>class = good>, fillcolor="#40a0e6"] ;
354 -> 355 ;
356 [label=<gho &le; 0.5<br/>gini = 0.065<br/>samples = 730<br/>value = [38, 1096]<br/>class = good>, fillcolor="#40a0e6"] ;
355 -> 356 ;
357 [label=<knock &le; 1.5<br/>gini = 0.063<br/>samples = 729<br/>value = [37, 1096]<br/>class = good>, fillcolor="#40a0e6"] ;
356 -> 357 ;
358 [label=<slips &le; 0.5<br/>gini = 0.06<br/>samples = 725<br/>value = [35, 1088]<br/>class = good>, fillcolor="#3fa0e6"] ;
357 -> 358 ;
359 [label=<bitches &le; 0.5<br/>gini = 0.061<br/>samples = 722<br/>value = [35, 1084]<br/>class = good>, fillcolor="#3fa0e6"] ;
358 -> 359 ;
360 [label=<turnin &le; 1.5<br/>gini = 0.059<br/>samples = 720<br/>value = [34, 1083]<br/>class = good>, fillcolor="#3fa0e6"] ;
359 -> 360 ;
361 [label=<heads &le; 0.5<br/>gini = 0.059<br/>samples = 716<br/>value = [34, 1077]<br/>class = good>, fillcolor="#3fa0e6"] ;
360 -> 361 ;
362 [label=<loved &le; 0.5<br/>gini = 0.06<br/>samples = 709<br/>value = [34, 1067]<br/>class = good>, fillcolor="#3fa0e6"] ;
361 -> 362 ;
363 [label=<yesterday &le; 2.5<br/>gini = 0.062<br/>samples = 689<br/>value = [34, 1034]<br/>class = good>, fillcolor="#40a0e6"] ;
362 -> 363 ;
364 [label=<depth &le; 0.5<br/>gini = 0.06<br/>samples = 687<br/>value = [33, 1033]<br/>class = good>, fillcolor="#3fa0e6"] ;
363 -> 364 ;
365 [label=<guess &le; 2.5<br/>gini = 0.058<br/>samples = 685<br/>value = [32, 1032]<br/>class = good>, fillcolor="#3fa0e6"] ;
364 -> 365 ;
366 [label=<lose &le; 0.5<br/>gini = 0.057<br/>samples = 679<br/>value = [31, 1026]<br/>class = good>, fillcolor="#3fa0e6"] ;
365 -> 366 ;
367 [label=<might &le; 0.5<br/>gini = 0.061<br/>samples = 636<br/>value = [31, 959]<br/>class = good>, fillcolor="#3fa0e6"] ;
366 -> 367 ;
368 [label=<gini = 0.0<br/>samples = 580<br/>value = [0, 910]<br/>class = good>, fillcolor="#399de5"] ;
367 -> 368 ;
369 [label=<didn &le; 2.5<br/>gini = 0.475<br/>samples = 56<br/>value = [31, 49]<br/>class = good>, fillcolor="#b6dbf5"] ;
367 -> 369 ;
370 [label=<seems &le; 0.5<br/>gini = 0.471<br/>samples = 55<br/>value = [30, 49]<br/>class = good>, fillcolor="#b2d9f5"] ;
369 -> 370 ;
371 [label=<missed &le; 1.0<br/>gini = 0.478<br/>samples = 52<br/>value = [30, 46]<br/>class = good>, fillcolor="#baddf6"] ;
370 -> 371 ;
372 [label=<games &le; 0.5<br/>gini = 0.48<br/>samples = 51<br/>value = [30, 45]<br/>class = good>, fillcolor="#bddef6"] ;
371 -> 372 ;
373 [label=<for &le; 6.0<br/>gini = 0.487<br/>samples = 49<br/>value = [29, 40]<br/>class = good>, fillcolor="#c9e4f8"] ;
372 -> 373 ;
374 [label=<every &le; 1.5<br/>gini = 0.481<br/>samples = 47<br/>value = [27, 40]<br/>class = good>, fillcolor="#bfdff7"] ;
373 -> 374 ;
375 [label=<out &le; 0.5<br/>gini = 0.469<br/>samples = 44<br/>value = [24, 40]<br/>class = good>, fillcolor="#b0d8f5"] ;
374 -> 375 ;
376 [label=<miserable &le; 0.5<br/>gini = 0.5<br/>samples = 35<br/>value = [24, 25]<br/>class = good>, fillcolor="#f7fbfe"] ;
375 -> 376 ;
377 [label=<bite &le; 2.5<br/>gini = 0.5<br/>samples = 34<br/>value = [24, 23]<br/>class = bad>, fillcolor="#fefaf7"] ;
376 -> 377 ;
378 [label=<innocent &le; 0.5<br/>gini = 0.499<br/>samples = 33<br/>value = [24, 22]<br/>class = bad>, fillcolor="#fdf5ef"] ;
377 -> 378 ;
379 [label=<motion &le; 0.5<br/>gini = 0.5<br/>samples = 32<br/>value = [23, 22]<br/>class = bad>, fillcolor="#fefaf6"] ;
378 -> 379 ;
380 [label=<true &le; 0.5<br/>gini = 0.498<br/>samples = 31<br/>value = [23, 20]<br/>class = bad>, fillcolor="#fcefe5"] ;
379 -> 380 ;
381 [label=<rain &le; 1.5<br/>gini = 0.492<br/>samples = 28<br/>value = [22, 17]<br/>class = bad>, fillcolor="#f9e2d2"] ;
380 -> 381 ;
382 [label=<heal &le; 0.5<br/>gini = 0.497<br/>samples = 27<br/>value = [20, 17]<br/>class = bad>, fillcolor="#fbece1"] ;
381 -> 382 ;
383 [label=<touched &le; 0.5<br/>gini = 0.498<br/>samples = 26<br/>value = [19, 17]<br/>class = bad>, fillcolor="#fcf2ea"] ;
382 -> 383 ;
384 [label=<something &le; 0.5<br/>gini = 0.496<br/>samples = 25<br/>value = [19, 16]<br/>class = bad>, fillcolor="#fbebe0"] ;
383 -> 384 ;
385 [label=<downs &le; 1.0<br/>gini = 0.475<br/>samples = 22<br/>value = [19, 12]<br/>class = bad>, fillcolor="#f5d1b6"] ;
384 -> 385 ;
386 [label=<old &le; 2.5<br/>gini = 0.464<br/>samples = 21<br/>value = [19, 11]<br/>class = bad>, fillcolor="#f4caac"] ;
385 -> 386 ;
387 [label=<exchange &le; 0.5<br/>gini = 0.477<br/>samples = 19<br/>value = [17, 11]<br/>class = bad>, fillcolor="#f6d3b9"] ;
386 -> 387 ;
388 [label=<better &le; 2.0<br/>gini = 0.483<br/>samples = 18<br/>value = [16, 11]<br/>class = bad>, fillcolor="#f7d8c1"] ;
387 -> 388 ;
389 [label=<with &le; 2.5<br/>gini = 0.473<br/>samples = 17<br/>value = [16, 10]<br/>class = bad>, fillcolor="#f5d0b5"] ;
388 -> 389 ;
390 [label=<glory &le; 0.5<br/>gini = 0.375<br/>samples = 12<br/>value = [15, 5]<br/>class = bad>, fillcolor="#eeab7b"] ;
389 -> 390 ;
391 [label=<remember &le; 1.0<br/>gini = 0.401<br/>samples = 11<br/>value = [13, 5]<br/>class = bad>, fillcolor="#efb185"] ;
390 -> 391 ;
392 [label=<start &le; 0.5<br/>gini = 0.305<br/>samples = 10<br/>value = [13, 3]<br/>class = bad>, fillcolor="#eb9e67"] ;
391 -> 392 ;
393 [label=<niggayou &le; 0.5<br/>gini = 0.133<br/>samples = 9<br/>value = [13, 1]<br/>class = bad>, fillcolor="#e78b48"] ;
392 -> 393 ;
394 [label=<on &le; 2.5<br/>gini = 0.142<br/>samples = 8<br/>value = [12, 1]<br/>class = bad>, fillcolor="#e78c49"] ;
393 -> 394 ;
395 [label=<gini = 0.0<br/>samples = 7<br/>value = [12, 0]<br/>class = bad>, fillcolor="#e58139"] ;
394 -> 395 ;
396 [label=<gini = 0.0<br/>samples = 1<br/>value = [0, 1]<br/>class = good>, fillcolor="#399de5"] ;
394 -> 396 ;
397 [label=<gini = 0.0<br/>samples = 1<br/>value = [1, 0]<br/>class = bad>, fillcolor="#e58139"] ;
393 -> 397 ;
398 [label=<gini = 0.0<br/>samples = 1<br/>value = [0, 2]<br/>class = good>, fillcolor="#399de5"] ;
392 -> 398 ;
399 [label=<gini = 0.0<br/>samples = 1<br/>value = [0, 2]<br/>class = good>, fillcolor="#399de5"] ;
391 -> 399 ;
400 [label=<gini = 0.0<br/>samples = 1<br/>value = [2, 0]<br/>class = bad>, fillcolor="#e58139"] ;
390 -> 400 ;
401 [label=<oh &le; 2.5<br/>gini = 0.278<br/>samples = 5<br/>value = [1, 5]<br/>class = good>, fillcolor="#61b1ea"] ;
389 -> 401 ;
402 [label=<gini = 0.0<br/>samples = 4<br/>value = [0, 5]<br/>class = good>, fillcolor="#399de5"] ;
401 -> 402 ;
403 [label=<gini = 0.0<br/>samples = 1<br/>value = [1, 0]<br/>class = bad>, fillcolor="#e58139"] ;
401 -> 403 ;
404 [label=<gini = 0.0<br/>samples = 1<br/>value = [0, 1]<br/>class = good>, fillcolor="#399de5"] ;
388 -> 404 ;
405 [label=<gini = 0.0<br/>samples = 1<br/>value = [1, 0]<br/>class = bad>, fillcolor="#e58139"] ;
387 -> 405 ;
406 [label=<gini = 0.0<br/>samples = 2<br/>value = [2, 0]<br/>class = bad>, fillcolor="#e58139"] ;
386 -> 406 ;
407 [label=<gini = 0.0<br/>samples = 1<br/>value = [0, 1]<br/>class = good>, fillcolor="#399de5"] ;
385 -> 407 ;
408 [label=<gini = 0.0<br/>samples = 3<br/>value = [0, 4]<br/>class = good>, fillcolor="#399de5"] ;
384 -> 408 ;
409 [label=<gini = 0.0<br/>samples = 1<br/>value = [0, 1]<br/>class = good>, fillcolor="#399de5"] ;
383 -> 409 ;
410 [label=<gini = 0.0<br/>samples = 1<br/>value = [1, 0]<br/>class = bad>, fillcolor="#e58139"] ;
382 -> 410 ;
411 [label=<gini = 0.0<br/>samples = 1<br/>value = [2, 0]<br/>class = bad>, fillcolor="#e58139"] ;
381 -> 411 ;
412 [label=<walk &le; 0.5<br/>gini = 0.375<br/>samples = 3<br/>value = [1, 3]<br/>class = good>, fillcolor="#7bbeee"] ;
380 -> 412 ;
413 [label=<gini = 0.0<br/>samples = 1<br/>value = [0, 2]<br/>class = good>, fillcolor="#399de5"] ;
412 -> 413 ;
414 [label=<will &le; 6.5<br/>gini = 0.5<br/>samples = 2<br/>value = [1, 1]<br/>class = bad>, fillcolor="#ffffff"] ;
412 -> 414 ;
415 [label=<gini = 0.0<br/>samples = 1<br/>value = [0, 1]<br/>class = good>, fillcolor="#399de5"] ;
414 -> 415 ;
416 [label=<gini = 0.0<br/>samples = 1<br/>value = [1, 0]<br/>class = bad>, fillcolor="#e58139"] ;
414 -> 416 ;
417 [label=<gini = 0.0<br/>samples = 1<br/>value = [0, 2]<br/>class = good>, fillcolor="#399de5"] ;
379 -> 417 ;
418 [label=<gini = 0.0<br/>samples = 1<br/>value = [1, 0]<br/>class = bad>, fillcolor="#e58139"] ;
378 -> 418 ;
419 [label=<gini = 0.0<br/>samples = 1<br/>value = [0, 1]<br/>class = good>, fillcolor="#399de5"] ;
377 -> 419 ;
420 [label=<gini = 0.0<br/>samples = 1<br/>value = [0, 2]<br/>class = good>, fillcolor="#399de5"] ;
376 -> 420 ;
421 [label=<gini = 0.0<br/>samples = 9<br/>value = [0, 15]<br/>class = good>, fillcolor="#399de5"] ;
375 -> 421 ;
422 [label=<gini = 0.0<br/>samples = 3<br/>value = [3, 0]<br/>class = bad>, fillcolor="#e58139"] ;
374 -> 422 ;
423 [label=<gini = 0.0<br/>samples = 2<br/>value = [2, 0]<br/>class = bad>, fillcolor="#e58139"] ;
373 -> 423 ;
424 [label=<aqui &le; 1.0<br/>gini = 0.278<br/>samples = 2<br/>value = [1, 5]<br/>class = good>, fillcolor="#61b1ea"] ;
372 -> 424 ;
425 [label=<gini = 0.0<br/>samples = 1<br/>value = [1, 0]<br/>class = bad>, fillcolor="#e58139"] ;
424 -> 425 ;
426 [label=<gini = 0.0<br/>samples = 1<br/>value = [0, 5]<br/>class = good>, fillcolor="#399de5"] ;
424 -> 426 ;
427 [label=<gini = 0.0<br/>samples = 1<br/>value = [0, 1]<br/>class = good>, fillcolor="#399de5"] ;
371 -> 427 ;
428 [label=<gini = 0.0<br/>samples = 3<br/>value = [0, 3]<br/>class = good>, fillcolor="#399de5"] ;
370 -> 428 ;
429 [label=<gini = 0.0<br/>samples = 1<br/>value = [1, 0]<br/>class = bad>, fillcolor="#e58139"] ;
369 -> 429 ;
430 [label=<gini = 0.0<br/>samples = 43<br/>value = [0, 67]<br/>class = good>, fillcolor="#399de5"] ;
366 -> 430 ;
431 [label=<way &le; 0.5<br/>gini = 0.245<br/>samples = 6<br/>value = [1, 6]<br/>class = good>, fillcolor="#5aade9"] ;
365 -> 431 ;
432 [label=<what &le; 2.0<br/>gini = 0.375<br/>samples = 4<br/>value = [1, 3]<br/>class = good>, fillcolor="#7bbeee"] ;
431 -> 432 ;
433 [label=<had &le; 2.0<br/>gini = 0.444<br/>samples = 3<br/>value = [1, 2]<br/>class = good>, fillcolor="#9ccef2"] ;
432 -> 433 ;
434 [label=<this &le; 5.5<br/>gini = 0.5<br/>samples = 2<br/>value = [1, 1]<br/>class = bad>, fillcolor="#ffffff"] ;
433 -> 434 ;
435 [label=<gini = 0.0<br/>samples = 1<br/>value = [1, 0]<br/>class = bad>, fillcolor="#e58139"] ;
434 -> 435 ;
436 [label=<gini = 0.0<br/>samples = 1<br/>value = [0, 1]<br/>class = good>, fillcolor="#399de5"] ;
434 -> 436 ;
437 [label=<gini = 0.0<br/>samples = 1<br/>value = [0, 1]<br/>class = good>, fillcolor="#399de5"] ;
433 -> 437 ;
438 [label=<gini = 0.0<br/>samples = 1<br/>value = [0, 1]<br/>class = good>, fillcolor="#399de5"] ;
432 -> 438 ;
439 [label=<gini = 0.0<br/>samples = 2<br/>value = [0, 3]<br/>class = good>, fillcolor="#399de5"] ;
431 -> 439 ;
440 [label=<was &le; 2.5<br/>gini = 0.5<br/>samples = 2<br/>value = [1, 1]<br/>class = bad>, fillcolor="#ffffff"] ;
364 -> 440 ;
441 [label=<gini = 0.0<br/>samples = 1<br/>value = [1, 0]<br/>class = bad>, fillcolor="#e58139"] ;
440 -> 441 ;
442 [label=<gini = 0.0<br/>samples = 1<br/>value = [0, 1]<br/>class = good>, fillcolor="#399de5"] ;
440 -> 442 ;
443 [label=<on &le; 1.5<br/>gini = 0.5<br/>samples = 2<br/>value = [1, 1]<br/>class = bad>, fillcolor="#ffffff"] ;
363 -> 443 ;
444 [label=<gini = 0.0<br/>samples = 1<br/>value = [1, 0]<br/>class = bad>, fillcolor="#e58139"] ;
443 -> 444 ;
445 [label=<gini = 0.0<br/>samples = 1<br/>value = [0, 1]<br/>class = good>, fillcolor="#399de5"] ;
443 -> 445 ;
446 [label=<gini = 0.0<br/>samples = 20<br/>value = [0, 33]<br/>class = good>, fillcolor="#399de5"] ;
362 -> 446 ;
447 [label=<gini = 0.0<br/>samples = 7<br/>value = [0, 10]<br/>class = good>, fillcolor="#399de5"] ;
361 -> 447 ;
448 [label=<gini = 0.0<br/>samples = 4<br/>value = [0, 6]<br/>class = good>, fillcolor="#399de5"] ;
360 -> 448 ;
449 [label=<song &le; 0.5<br/>gini = 0.5<br/>samples = 2<br/>value = [1, 1]<br/>class = bad>, fillcolor="#ffffff"] ;
359 -> 449 ;
450 [label=<gini = 0.0<br/>samples = 1<br/>value = [1, 0]<br/>class = bad>, fillcolor="#e58139"] ;
449 -> 450 ;
451 [label=<gini = 0.0<br/>samples = 1<br/>value = [0, 1]<br/>class = good>, fillcolor="#399de5"] ;
449 -> 451 ;
452 [label=<gini = 0.0<br/>samples = 3<br/>value = [0, 4]<br/>class = good>, fillcolor="#399de5"] ;
358 -> 452 ;
453 [label=<live &le; 0.5<br/>gini = 0.32<br/>samples = 4<br/>value = [2, 8]<br/>class = good>, fillcolor="#6ab6ec"] ;
357 -> 453 ;
454 [label=<girl &le; 5.0<br/>gini = 0.444<br/>samples = 2<br/>value = [2, 1]<br/>class = bad>, fillcolor="#f2c09c"] ;
453 -> 454 ;
455 [label=<gini = 0.0<br/>samples = 1<br/>value = [0, 1]<br/>class = good>, fillcolor="#399de5"] ;
454 -> 455 ;
456 [label=<gini = 0.0<br/>samples = 1<br/>value = [2, 0]<br/>class = bad>, fillcolor="#e58139"] ;
454 -> 456 ;
457 [label=<gini = 0.0<br/>samples = 2<br/>value = [0, 7]<br/>class = good>, fillcolor="#399de5"] ;
453 -> 457 ;
458 [label=<gini = 0.0<br/>samples = 1<br/>value = [1, 0]<br/>class = bad>, fillcolor="#e58139"] ;
356 -> 458 ;
459 [label=<gini = 0.0<br/>samples = 1<br/>value = [1, 0]<br/>class = bad>, fillcolor="#e58139"] ;
355 -> 459 ;
460 [label=<gini = 0.0<br/>samples = 1<br/>value = [1, 0]<br/>class = bad>, fillcolor="#e58139"] ;
354 -> 460 ;
461 [label=<gini = 0.0<br/>samples = 1<br/>value = [1, 0]<br/>class = bad>, fillcolor="#e58139"] ;
353 -> 461 ;
462 [label=<gini = 0.0<br/>samples = 1<br/>value = [1, 0]<br/>class = bad>, fillcolor="#e58139"] ;
352 -> 462 ;
463 [label=<checkin &le; 0.5<br/>gini = 0.48<br/>samples = 3<br/>value = [2, 3]<br/>class = good>, fillcolor="#bddef6"] ;
351 -> 463 ;
464 [label=<live &le; 4.5<br/>gini = 0.444<br/>samples = 2<br/>value = [2, 1]<br/>class = bad>, fillcolor="#f2c09c"] ;
463 -> 464 ;
465 [label=<gini = 0.0<br/>samples = 1<br/>value = [2, 0]<br/>class = bad>, fillcolor="#e58139"] ;
464 -> 465 ;
466 [label=<gini = 0.0<br/>samples = 1<br/>value = [0, 1]<br/>class = good>, fillcolor="#399de5"] ;
464 -> 466 ;
467 [label=<gini = 0.0<br/>samples = 1<br/>value = [0, 2]<br/>class = good>, fillcolor="#399de5"] ;
463 -> 467 ;
468 [label=<gini = 0.0<br/>samples = 1<br/>value = [2, 0]<br/>class = bad>, fillcolor="#e58139"] ;
350 -> 468 ;
469 [label=<gini = 0.0<br/>samples = 1<br/>value = [1, 0]<br/>class = bad>, fillcolor="#e58139"] ;
349 -> 469 ;
470 [label=<breath &le; 0.5<br/>gini = 0.278<br/>samples = 5<br/>value = [1, 5]<br/>class = good>, fillcolor="#61b1ea"] ;
348 -> 470 ;
471 [label=<got &le; 0.5<br/>gini = 0.32<br/>samples = 4<br/>value = [1, 4]<br/>class = good>, fillcolor="#6ab6ec"] ;
470 -> 471 ;
472 [label=<there &le; 0.5<br/>gini = 0.444<br/>samples = 2<br/>value = [1, 2]<br/>class = good>, fillcolor="#9ccef2"] ;
471 -> 472 ;
473 [label=<gini = 0.0<br/>samples = 1<br/>value = [1, 0]<br/>class = bad>, fillcolor="#e58139"] ;
472 -> 473 ;
474 [label=<gini = 0.0<br/>samples = 1<br/>value = [0, 2]<br/>class = good>, fillcolor="#399de5"] ;
472 -> 474 ;
475 [label=<gini = 0.0<br/>samples = 2<br/>value = [0, 2]<br/>class = good>, fillcolor="#399de5"] ;
471 -> 475 ;
476 [label=<gini = 0.0<br/>samples = 1<br/>value = [0, 1]<br/>class = good>, fillcolor="#399de5"] ;
470 -> 476 ;
477 [label=<rocking &le; 1.0<br/>gini = 0.017<br/>samples = 70<br/>value = [1, 115]<br/>class = good>, fillcolor="#3b9ee5"] ;
347 -> 477 ;
478 [label=<hi &le; 0.5<br/>gini = 0.017<br/>samples = 69<br/>value = [1, 114]<br/>class = good>, fillcolor="#3b9ee5"] ;
477 -> 478 ;
479 [label=<town &le; 0.5<br/>gini = 0.018<br/>samples = 68<br/>value = [1, 112]<br/>class = good>, fillcolor="#3b9ee5"] ;
478 -> 479 ;
480 [label=<began &le; 0.5<br/>gini = 0.018<br/>samples = 67<br/>value = [1, 111]<br/>class = good>, fillcolor="#3b9ee5"] ;
479 -> 480 ;
481 [label=<wheel &le; 0.5<br/>gini = 0.018<br/>samples = 66<br/>value = [1, 108]<br/>class = good>, fillcolor="#3b9ee5"] ;
480 -> 481 ;
482 [label=<gini = 0.0<br/>samples = 65<br/>value = [0, 108]<br/>class = good>, fillcolor="#399de5"] ;
481 -> 482 ;
483 [label=<gini = 0.0<br/>samples = 1<br/>value = [1, 0]<br/>class = bad>, fillcolor="#e58139"] ;
481 -> 483 ;
484 [label=<gini = 0.0<br/>samples = 1<br/>value = [0, 3]<br/>class = good>, fillcolor="#399de5"] ;
480 -> 484 ;
485 [label=<gini = 0.0<br/>samples = 1<br/>value = [0, 1]<br/>class = good>, fillcolor="#399de5"] ;
479 -> 485 ;
486 [label=<gini = 0.0<br/>samples = 1<br/>value = [0, 2]<br/>class = good>, fillcolor="#399de5"] ;
478 -> 486 ;
487 [label=<gini = 0.0<br/>samples = 1<br/>value = [0, 1]<br/>class = good>, fillcolor="#399de5"] ;
477 -> 487 ;
488 [label=<girl &le; 0.5<br/>gini = 0.034<br/>samples = 36<br/>value = [1, 57]<br/>class = good>, fillcolor="#3c9fe5"] ;
346 -> 488 ;
489 [label=<gini = 0.0<br/>samples = 30<br/>value = [0, 51]<br/>class = good>, fillcolor="#399de5"] ;
488 -> 489 ;
490 [label=<will &le; 0.5<br/>gini = 0.245<br/>samples = 6<br/>value = [1, 6]<br/>class = good>, fillcolor="#5aade9"] ;
488 -> 490 ;
491 [label=<late &le; 1.5<br/>gini = 0.375<br/>samples = 3<br/>value = [1, 3]<br/>class = good>, fillcolor="#7bbeee"] ;
490 -> 491 ;
492 [label=<gini = 0.0<br/>samples = 1<br/>value = [1, 0]<br/>class = bad>, fillcolor="#e58139"] ;
491 -> 492 ;
493 [label=<gini = 0.0<br/>samples = 2<br/>value = [0, 3]<br/>class = good>, fillcolor="#399de5"] ;
491 -> 493 ;
494 [label=<gini = 0.0<br/>samples = 3<br/>value = [0, 3]<br/>class = good>, fillcolor="#399de5"] ;
490 -> 494 ;
495 [label=<gini = 0.0<br/>samples = 1<br/>value = [2, 0]<br/>class = bad>, fillcolor="#e58139"] ;
345 -> 495 ;
496 [label=<lives &le; 0.5<br/>gini = 0.5<br/>samples = 4<br/>value = [4, 4]<br/>class = bad>, fillcolor="#ffffff"] ;
344 -> 496 ;
497 [label=<need &le; 2.5<br/>gini = 0.49<br/>samples = 3<br/>value = [4, 3]<br/>class = bad>, fillcolor="#f8e0ce"] ;
496 -> 497 ;
498 [label=<you &le; 13.0<br/>gini = 0.444<br/>samples = 2<br/>value = [4, 2]<br/>class = bad>, fillcolor="#f2c09c"] ;
497 -> 498 ;
499 [label=<gini = 0.0<br/>samples = 1<br/>value = [0, 2]<br/>class = good>, fillcolor="#399de5"] ;
498 -> 499 ;
500 [label=<gini = 0.0<br/>samples = 1<br/>value = [4, 0]<br/>class = bad>, fillcolor="#e58139"] ;
498 -> 500 ;
501 [label=<gini = 0.0<br/>samples = 1<br/>value = [0, 1]<br/>class = good>, fillcolor="#399de5"] ;
497 -> 501 ;
502 [label=<gini = 0.0<br/>samples = 1<br/>value = [0, 1]<br/>class = good>, fillcolor="#399de5"] ;
496 -> 502 ;
503 [label=<gini = 0.0<br/>samples = 1<br/>value = [2, 0]<br/>class = bad>, fillcolor="#e58139"] ;
343 -> 503 ;
504 [label=<gini = 0.0<br/>samples = 90<br/>value = [0, 133]<br/>class = good>, fillcolor="#399de5"] ;
342 -> 504 ;
505 [label=<with &le; 3.5<br/>gini = 0.444<br/>samples = 3<br/>value = [2, 4]<br/>class = good>, fillcolor="#9ccef2"] ;
341 -> 505 ;
506 [label=<off &le; 0.5<br/>gini = 0.32<br/>samples = 2<br/>value = [1, 4]<br/>class = good>, fillcolor="#6ab6ec"] ;
505 -> 506 ;
507 [label=<gini = 0.0<br/>samples = 1<br/>value = [1, 0]<br/>class = bad>, fillcolor="#e58139"] ;
506 -> 507 ;
508 [label=<gini = 0.0<br/>samples = 1<br/>value = [0, 4]<br/>class = good>, fillcolor="#399de5"] ;
506 -> 508 ;
509 [label=<gini = 0.0<br/>samples = 1<br/>value = [1, 0]<br/>class = bad>, fillcolor="#e58139"] ;
505 -> 509 ;
510 [label=<gini = 0.0<br/>samples = 1<br/>value = [1, 0]<br/>class = bad>, fillcolor="#e58139"] ;
340 -> 510 ;
511 [label=<likeembed &le; 0.5<br/>gini = 0.375<br/>samples = 4<br/>value = [3, 1]<br/>class = bad>, fillcolor="#eeab7b"] ;
339 -> 511 ;
512 [label=<cuento &le; 1.0<br/>gini = 0.444<br/>samples = 3<br/>value = [2, 1]<br/>class = bad>, fillcolor="#f2c09c"] ;
511 -> 512 ;
513 [label=<ver &le; 0.5<br/>gini = 0.5<br/>samples = 2<br/>value = [1, 1]<br/>class = bad>, fillcolor="#ffffff"] ;
512 -> 513 ;
514 [label=<gini = 0.0<br/>samples = 1<br/>value = [0, 1]<br/>class = good>, fillcolor="#399de5"] ;
513 -> 514 ;
515 [label=<gini = 0.0<br/>samples = 1<br/>value = [1, 0]<br/>class = bad>, fillcolor="#e58139"] ;
513 -> 515 ;
516 [label=<gini = 0.0<br/>samples = 1<br/>value = [1, 0]<br/>class = bad>, fillcolor="#e58139"] ;
512 -> 516 ;
517 [label=<gini = 0.0<br/>samples = 1<br/>value = [1, 0]<br/>class = bad>, fillcolor="#e58139"] ;
511 -> 517 ;
518 [label=<gini = 0.0<br/>samples = 1<br/>value = [2, 0]<br/>class = bad>, fillcolor="#e58139"] ;
338 -> 518 ;
519 [label=<gini = 0.0<br/>samples = 10<br/>value = [0, 17]<br/>class = good>, fillcolor="#399de5"] ;
337 -> 519 ;
520 [label=<airy &le; 0.5<br/>gini = 0.48<br/>samples = 8<br/>value = [6, 9]<br/>class = good>, fillcolor="#bddef6"] ;
336 -> 520 ;
521 [label=<sweetest &le; 0.5<br/>gini = 0.375<br/>samples = 7<br/>value = [3, 9]<br/>class = good>, fillcolor="#7bbeee"] ;
520 -> 521 ;
522 [label=<amore &le; 0.5<br/>gini = 0.18<br/>samples = 6<br/>value = [1, 9]<br/>class = good>, fillcolor="#4fa8e8"] ;
521 -> 522 ;
523 [label=<stuck &le; 0.5<br/>gini = 0.198<br/>samples = 5<br/>value = [1, 8]<br/>class = good>, fillcolor="#52a9e8"] ;
522 -> 523 ;
524 [label=<whitei &le; 1.5<br/>gini = 0.278<br/>samples = 3<br/>value = [1, 5]<br/>class = good>, fillcolor="#61b1ea"] ;
523 -> 524 ;
525 [label=<im &le; 0.5<br/>gini = 0.444<br/>samples = 2<br/>value = [1, 2]<br/>class = good>, fillcolor="#9ccef2"] ;
524 -> 525 ;
526 [label=<gini = 0.0<br/>samples = 1<br/>value = [1, 0]<br/>class = bad>, fillcolor="#e58139"] ;
525 -> 526 ;
527 [label=<gini = 0.0<br/>samples = 1<br/>value = [0, 2]<br/>class = good>, fillcolor="#399de5"] ;
525 -> 527 ;
528 [label=<gini = 0.0<br/>samples = 1<br/>value = [0, 3]<br/>class = good>, fillcolor="#399de5"] ;
524 -> 528 ;
529 [label=<gini = 0.0<br/>samples = 2<br/>value = [0, 3]<br/>class = good>, fillcolor="#399de5"] ;
523 -> 529 ;
530 [label=<gini = 0.0<br/>samples = 1<br/>value = [0, 1]<br/>class = good>, fillcolor="#399de5"] ;
522 -> 530 ;
531 [label=<gini = 0.0<br/>samples = 1<br/>value = [2, 0]<br/>class = bad>, fillcolor="#e58139"] ;
521 -> 531 ;
532 [label=<gini = 0.0<br/>samples = 1<br/>value = [3, 0]<br/>class = bad>, fillcolor="#e58139"] ;
520 -> 532 ;
533 [label=<learning &le; 0.5<br/>gini = 0.444<br/>samples = 3<br/>value = [2, 1]<br/>class = bad>, fillcolor="#f2c09c"] ;
335 -> 533 ;
534 [label=<gini = 0.0<br/>samples = 2<br/>value = [2, 0]<br/>class = bad>, fillcolor="#e58139"] ;
533 -> 534 ;
535 [label=<gini = 0.0<br/>samples = 1<br/>value = [0, 1]<br/>class = good>, fillcolor="#399de5"] ;
533 -> 535 ;
536 [label=<gini = 0.0<br/>samples = 1<br/>value = [1, 0]<br/>class = bad>, fillcolor="#e58139"] ;
334 -> 536 ;
537 [label=<got &le; 1.0<br/>gini = 0.397<br/>samples = 6<br/>value = [3, 8]<br/>class = good>, fillcolor="#83c2ef"] ;
333 -> 537 ;
538 [label=<gini = 0.0<br/>samples = 4<br/>value = [0, 7]<br/>class = good>, fillcolor="#399de5"] ;
537 -> 538 ;
539 [label=<puss &le; 0.5<br/>gini = 0.375<br/>samples = 2<br/>value = [3, 1]<br/>class = bad>, fillcolor="#eeab7b"] ;
537 -> 539 ;
540 [label=<gini = 0.0<br/>samples = 1<br/>value = [3, 0]<br/>class = bad>, fillcolor="#e58139"] ;
539 -> 540 ;
541 [label=<gini = 0.0<br/>samples = 1<br/>value = [0, 1]<br/>class = good>, fillcolor="#399de5"] ;
539 -> 541 ;
542 [label=<gini = 0.0<br/>samples = 1<br/>value = [2, 0]<br/>class = bad>, fillcolor="#e58139"] ;
332 -> 542 ;
543 [label=<gini = 0.0<br/>samples = 1<br/>value = [2, 0]<br/>class = bad>, fillcolor="#e58139"] ;
331 -> 543 ;
544 [label=<gini = 0.0<br/>samples = 1<br/>value = [2, 0]<br/>class = bad>, fillcolor="#e58139"] ;
330 -> 544 ;
545 [label=<gini = 0.0<br/>samples = 1<br/>value = [3, 0]<br/>class = bad>, fillcolor="#e58139"] ;
329 -> 545 ;
546 [label=<gini = 0.0<br/>samples = 1<br/>value = [2, 0]<br/>class = bad>, fillcolor="#e58139"] ;
328 -> 546 ;
547 [label=<fuss &le; 0.5<br/>gini = 0.32<br/>samples = 2<br/>value = [4, 1]<br/>class = bad>, fillcolor="#eca06a"] ;
327 -> 547 ;
548 [label=<gini = 0.0<br/>samples = 1<br/>value = [4, 0]<br/>class = bad>, fillcolor="#e58139"] ;
547 -> 548 ;
549 [label=<gini = 0.0<br/>samples = 1<br/>value = [0, 1]<br/>class = good>, fillcolor="#399de5"] ;
547 -> 549 ;
550 [label=<son &le; 0.5<br/>gini = 0.32<br/>samples = 2<br/>value = [4, 1]<br/>class = bad>, fillcolor="#eca06a"] ;
326 -> 550 ;
551 [label=<gini = 0.0<br/>samples = 1<br/>value = [0, 1]<br/>class = good>, fillcolor="#399de5"] ;
550 -> 551 ;
552 [label=<gini = 0.0<br/>samples = 1<br/>value = [4, 0]<br/>class = bad>, fillcolor="#e58139"] ;
550 -> 552 ;
553 [label=<gini = 0.0<br/>samples = 32<br/>value = [47, 0]<br/>class = bad>, fillcolor="#e58139"] ;
325 -> 553 ;
554 [label=<gini = 0.0<br/>samples = 1<br/>value = [1, 0]<br/>class = bad>, fillcolor="#e58139"] ;
324 -> 554 ;
555 [label=<gini = 0.0<br/>samples = 1<br/>value = [3, 0]<br/>class = bad>, fillcolor="#e58139"] ;
323 -> 555 ;
556 [label=<gini = 0.0<br/>samples = 22<br/>value = [35, 0]<br/>class = bad>, fillcolor="#e58139"] ;
322 -> 556 ;
557 [label=<gini = 0.0<br/>samples = 1<br/>value = [2, 0]<br/>class = bad>, fillcolor="#e58139"] ;
321 -> 557 ;
558 [label=<gini = 0.0<br/>samples = 1<br/>value = [2, 0]<br/>class = bad>, fillcolor="#e58139"] ;
320 -> 558 ;
559 [label=<gini = 0.0<br/>samples = 1<br/>value = [2, 0]<br/>class = bad>, fillcolor="#e58139"] ;
319 -> 559 ;
560 [label=<gini = 0.0<br/>samples = 1<br/>value = [1, 0]<br/>class = bad>, fillcolor="#e58139"] ;
318 -> 560 ;
561 [label=<too &le; 0.5<br/>gini = 0.5<br/>samples = 9<br/>value = [7, 7]<br/>class = bad>, fillcolor="#ffffff"] ;
317 -> 561 ;
562 [label=<sender &le; 0.5<br/>gini = 0.486<br/>samples = 7<br/>value = [7, 5]<br/>class = bad>, fillcolor="#f8dbc6"] ;
561 -> 562 ;
563 [label=<present &le; 0.5<br/>gini = 0.494<br/>samples = 6<br/>value = [4, 5]<br/>class = good>, fillcolor="#d7ebfa"] ;
562 -> 563 ;
564 [label=<or &le; 1.0<br/>gini = 0.408<br/>samples = 5<br/>value = [2, 5]<br/>class = good>, fillcolor="#88c4ef"] ;
563 -> 564 ;
565 [label=<gini = 0.0<br/>samples = 3<br/>value = [0, 4]<br/>class = good>, fillcolor="#399de5"] ;
564 -> 565 ;
566 [label=<my &le; 2.5<br/>gini = 0.444<br/>samples = 2<br/>value = [2, 1]<br/>class = bad>, fillcolor="#f2c09c"] ;
564 -> 566 ;
567 [label=<gini = 0.0<br/>samples = 1<br/>value = [0, 1]<br/>class = good>, fillcolor="#399de5"] ;
566 -> 567 ;
568 [label=<gini = 0.0<br/>samples = 1<br/>value = [2, 0]<br/>class = bad>, fillcolor="#e58139"] ;
566 -> 568 ;
569 [label=<gini = 0.0<br/>samples = 1<br/>value = [2, 0]<br/>class = bad>, fillcolor="#e58139"] ;
563 -> 569 ;
570 [label=<gini = 0.0<br/>samples = 1<br/>value = [3, 0]<br/>class = bad>, fillcolor="#e58139"] ;
562 -> 570 ;
571 [label=<gini = 0.0<br/>samples = 2<br/>value = [0, 2]<br/>class = good>, fillcolor="#399de5"] ;
561 -> 571 ;
572 [label=<come &le; 6.0<br/>gini = 0.375<br/>samples = 2<br/>value = [3, 1]<br/>class = bad>, fillcolor="#eeab7b"] ;
316 -> 572 ;
573 [label=<gini = 0.0<br/>samples = 1<br/>value = [0, 1]<br/>class = good>, fillcolor="#399de5"] ;
572 -> 573 ;
574 [label=<gini = 0.0<br/>samples = 1<br/>value = [3, 0]<br/>class = bad>, fillcolor="#e58139"] ;
572 -> 574 ;
575 [label=<if &le; 0.5<br/>gini = 0.444<br/>samples = 21<br/>value = [22, 11]<br/>class = bad>, fillcolor="#f2c09c"] ;
315 -> 575 ;
576 [label=<honeybugs &le; 0.5<br/>gini = 0.488<br/>samples = 15<br/>value = [15, 11]<br/>class = bad>, fillcolor="#f8ddca"] ;
575 -> 576 ;
577 [label=<rainyou &le; 0.5<br/>gini = 0.497<br/>samples = 14<br/>value = [13, 11]<br/>class = bad>, fillcolor="#fbece1"] ;
576 -> 577 ;
578 [label=<nassaus &le; 2.0<br/>gini = 0.499<br/>samples = 13<br/>value = [12, 11]<br/>class = bad>, fillcolor="#fdf5ef"] ;
577 -> 578 ;
579 [label=<up &le; 7.0<br/>gini = 0.48<br/>samples = 12<br/>value = [12, 8]<br/>class = bad>, fillcolor="#f6d5bd"] ;
578 -> 579 ;
580 [label=<well &le; 0.5<br/>gini = 0.415<br/>samples = 11<br/>value = [12, 5]<br/>class = bad>, fillcolor="#f0b58b"] ;
579 -> 580 ;
581 [label=<stop &le; 4.0<br/>gini = 0.245<br/>samples = 10<br/>value = [12, 2]<br/>class = bad>, fillcolor="#e9965a"] ;
580 -> 581 ;
582 [label=<rain &le; 0.5<br/>gini = 0.26<br/>samples = 9<br/>value = [11, 2]<br/>class = bad>, fillcolor="#ea985d"] ;
581 -> 582 ;
583 [label=<tide &le; 0.5<br/>gini = 0.278<br/>samples = 8<br/>value = [10, 2]<br/>class = bad>, fillcolor="#ea9a61"] ;
582 -> 583 ;
584 [label=<sky &le; 0.5<br/>gini = 0.298<br/>samples = 7<br/>value = [9, 2]<br/>class = bad>, fillcolor="#eb9d65"] ;
583 -> 584 ;
585 [label=<star &le; 0.5<br/>gini = 0.32<br/>samples = 6<br/>value = [8, 2]<br/>class = bad>, fillcolor="#eca06a"] ;
584 -> 585 ;
586 [label=<skirts &le; 2.0<br/>gini = 0.198<br/>samples = 5<br/>value = [8, 1]<br/>class = bad>, fillcolor="#e89152"] ;
585 -> 586 ;
587 [label=<as &le; 1.0<br/>gini = 0.245<br/>samples = 4<br/>value = [6, 1]<br/>class = bad>, fillcolor="#e9965a"] ;
586 -> 587 ;
588 [label=<of &le; 2.5<br/>gini = 0.32<br/>samples = 3<br/>value = [4, 1]<br/>class = bad>, fillcolor="#eca06a"] ;
587 -> 588 ;
589 [label=<follow &le; 6.0<br/>gini = 0.5<br/>samples = 2<br/>value = [1, 1]<br/>class = bad>, fillcolor="#ffffff"] ;
588 -> 589 ;
590 [label=<gini = 0.0<br/>samples = 1<br/>value = [0, 1]<br/>class = good>, fillcolor="#399de5"] ;
589 -> 590 ;
591 [label=<gini = 0.0<br/>samples = 1<br/>value = [1, 0]<br/>class = bad>, fillcolor="#e58139"] ;
589 -> 591 ;
592 [label=<gini = 0.0<br/>samples = 1<br/>value = [3, 0]<br/>class = bad>, fillcolor="#e58139"] ;
588 -> 592 ;
593 [label=<gini = 0.0<br/>samples = 1<br/>value = [2, 0]<br/>class = bad>, fillcolor="#e58139"] ;
587 -> 593 ;
594 [label=<gini = 0.0<br/>samples = 1<br/>value = [2, 0]<br/>class = bad>, fillcolor="#e58139"] ;
586 -> 594 ;
595 [label=<gini = 0.0<br/>samples = 1<br/>value = [0, 1]<br/>class = good>, fillcolor="#399de5"] ;
585 -> 595 ;
596 [label=<gini = 0.0<br/>samples = 1<br/>value = [1, 0]<br/>class = bad>, fillcolor="#e58139"] ;
584 -> 596 ;
597 [label=<gini = 0.0<br/>samples = 1<br/>value = [1, 0]<br/>class = bad>, fillcolor="#e58139"] ;
583 -> 597 ;
598 [label=<gini = 0.0<br/>samples = 1<br/>value = [1, 0]<br/>class = bad>, fillcolor="#e58139"] ;
582 -> 598 ;
599 [label=<gini = 0.0<br/>samples = 1<br/>value = [1, 0]<br/>class = bad>, fillcolor="#e58139"] ;
581 -> 599 ;
600 [label=<gini = 0.0<br/>samples = 1<br/>value = [0, 3]<br/>class = good>, fillcolor="#399de5"] ;
580 -> 600 ;
601 [label=<gini = 0.0<br/>samples = 1<br/>value = [0, 3]<br/>class = good>, fillcolor="#399de5"] ;
579 -> 601 ;
602 [label=<gini = 0.0<br/>samples = 1<br/>value = [0, 3]<br/>class = good>, fillcolor="#399de5"] ;
578 -> 602 ;
603 [label=<gini = 0.0<br/>samples = 1<br/>value = [1, 0]<br/>class = bad>, fillcolor="#e58139"] ;
577 -> 603 ;
604 [label=<gini = 0.0<br/>samples = 1<br/>value = [2, 0]<br/>class = bad>, fillcolor="#e58139"] ;
576 -> 604 ;
605 [label=<gini = 0.0<br/>samples = 6<br/>value = [7, 0]<br/>class = bad>, fillcolor="#e58139"] ;
575 -> 605 ;
606 [label=<gini = 0.0<br/>samples = 1<br/>value = [2, 0]<br/>class = bad>, fillcolor="#e58139"] ;
314 -> 606 ;
607 [label=<gini = 0.0<br/>samples = 1<br/>value = [3, 0]<br/>class = bad>, fillcolor="#e58139"] ;
313 -> 607 ;
608 [label=<gini = 0.0<br/>samples = 1<br/>value = [3, 0]<br/>class = bad>, fillcolor="#e58139"] ;
312 -> 608 ;
609 [label=<gini = 0.0<br/>samples = 2<br/>value = [4, 0]<br/>class = bad>, fillcolor="#e58139"] ;
311 -> 609 ;
610 [label=<above &le; 0.5<br/>gini = 0.375<br/>samples = 3<br/>value = [3, 1]<br/>class = bad>, fillcolor="#eeab7b"] ;
310 -> 610 ;
611 [label=<sand &le; 0.5<br/>gini = 0.5<br/>samples = 2<br/>value = [1, 1]<br/>class = bad>, fillcolor="#ffffff"] ;
610 -> 611 ;
612 [label=<gini = 0.0<br/>samples = 1<br/>value = [1, 0]<br/>class = bad>, fillcolor="#e58139"] ;
611 -> 612 ;
613 [label=<gini = 0.0<br/>samples = 1<br/>value = [0, 1]<br/>class = good>, fillcolor="#399de5"] ;
611 -> 613 ;
614 [label=<gini = 0.0<br/>samples = 1<br/>value = [2, 0]<br/>class = bad>, fillcolor="#e58139"] ;
610 -> 614 ;
615 [label=<gini = 0.0<br/>samples = 1<br/>value = [2, 0]<br/>class = bad>, fillcolor="#e58139"] ;
309 -> 615 ;
616 [label=<shiny &le; 0.5<br/>gini = 0.278<br/>samples = 2<br/>value = [5, 1]<br/>class = bad>, fillcolor="#ea9a61"] ;
308 -> 616 ;
617 [label=<gini = 0.0<br/>samples = 1<br/>value = [0, 1]<br/>class = good>, fillcolor="#399de5"] ;
616 -> 617 ;
618 [label=<gini = 0.0<br/>samples = 1<br/>value = [5, 0]<br/>class = bad>, fillcolor="#e58139"] ;
616 -> 618 ;
619 [label=<gini = 0.0<br/>samples = 1<br/>value = [1, 0]<br/>class = bad>, fillcolor="#e58139"] ;
307 -> 619 ;
620 [label=<xiii &le; 1.0<br/>gini = 0.5<br/>samples = 37<br/>value = [29, 28]<br/>class = bad>, fillcolor="#fefbf8"] ;
306 -> 620 ;
621 [label=<thoughts &le; 0.5<br/>gini = 0.499<br/>samples = 36<br/>value = [29, 26]<br/>class = bad>, fillcolor="#fcf2eb"] ;
620 -> 621 ;
622 [label=<donna &le; 0.5<br/>gini = 0.5<br/>samples = 34<br/>value = [27, 26]<br/>class = bad>, fillcolor="#fefaf8"] ;
621 -> 622 ;
623 [label=<zone &le; 0.5<br/>gini = 0.499<br/>samples = 33<br/>value = [27, 25]<br/>class = bad>, fillcolor="#fdf6f0"] ;
622 -> 623 ;
624 [label=<talk &le; 0.5<br/>gini = 0.485<br/>samples = 29<br/>value = [27, 19]<br/>class = bad>, fillcolor="#f7dac4"] ;
623 -> 624 ;
625 [label=<rollin &le; 1.5<br/>gini = 0.5<br/>samples = 24<br/>value = [18, 18]<br/>class = bad>, fillcolor="#ffffff"] ;
624 -> 625 ;
626 [label=<love &le; 5.0<br/>gini = 0.498<br/>samples = 23<br/>value = [16, 18]<br/>class = good>, fillcolor="#e9f4fc"] ;
625 -> 626 ;
627 [label=<ain &le; 0.5<br/>gini = 0.499<br/>samples = 21<br/>value = [16, 15]<br/>class = bad>, fillcolor="#fdf7f3"] ;
626 -> 627 ;
628 [label=<woo &le; 0.5<br/>gini = 0.488<br/>samples = 17<br/>value = [11, 15]<br/>class = good>, fillcolor="#cae5f8"] ;
627 -> 628 ;
629 [label=<thats &le; 0.5<br/>gini = 0.48<br/>samples = 16<br/>value = [10, 15]<br/>class = good>, fillcolor="#bddef6"] ;
628 -> 629 ;
630 [label=<thief &le; 1.0<br/>gini = 0.397<br/>samples = 9<br/>value = [8, 3]<br/>class = bad>, fillcolor="#efb083"] ;
629 -> 630 ;
631 [label=<sie &le; 0.5<br/>gini = 0.32<br/>samples = 8<br/>value = [8, 2]<br/>class = bad>, fillcolor="#eca06a"] ;
630 -> 631 ;
632 [label=<let &le; 0.5<br/>gini = 0.375<br/>samples = 7<br/>value = [6, 2]<br/>class = bad>, fillcolor="#eeab7b"] ;
631 -> 632 ;
633 [label=<up &le; 5.5<br/>gini = 0.245<br/>samples = 6<br/>value = [6, 1]<br/>class = bad>, fillcolor="#e9965a"] ;
632 -> 633 ;
634 [label=<gini = 0.0<br/>samples = 5<br/>value = [6, 0]<br/>class = bad>, fillcolor="#e58139"] ;
633 -> 634 ;
635 [label=<gini = 0.0<br/>samples = 1<br/>value = [0, 1]<br/>class = good>, fillcolor="#399de5"] ;
633 -> 635 ;
636 [label=<gini = 0.0<br/>samples = 1<br/>value = [0, 1]<br/>class = good>, fillcolor="#399de5"] ;
632 -> 636 ;
637 [label=<gini = 0.0<br/>samples = 1<br/>value = [2, 0]<br/>class = bad>, fillcolor="#e58139"] ;
631 -> 637 ;
638 [label=<gini = 0.0<br/>samples = 1<br/>value = [0, 1]<br/>class = good>, fillcolor="#399de5"] ;
630 -> 638 ;
639 [label=<jamie &le; 0.5<br/>gini = 0.245<br/>samples = 7<br/>value = [2, 12]<br/>class = good>, fillcolor="#5aade9"] ;
629 -> 639 ;
640 [label=<shame &le; 0.5<br/>gini = 0.278<br/>samples = 6<br/>value = [2, 10]<br/>class = good>, fillcolor="#61b1ea"] ;
639 -> 640 ;
641 [label=<target &le; 0.5<br/>gini = 0.32<br/>samples = 5<br/>value = [2, 8]<br/>class = good>, fillcolor="#6ab6ec"] ;
640 -> 641 ;
642 [label=<they &le; 4.5<br/>gini = 0.444<br/>samples = 4<br/>value = [2, 4]<br/>class = good>, fillcolor="#9ccef2"] ;
641 -> 642 ;
643 [label=<gini = 0.0<br/>samples = 3<br/>value = [0, 4]<br/>class = good>, fillcolor="#399de5"] ;
642 -> 643 ;
644 [label=<gini = 0.0<br/>samples = 1<br/>value = [2, 0]<br/>class = bad>, fillcolor="#e58139"] ;
642 -> 644 ;
645 [label=<gini = 0.0<br/>samples = 1<br/>value = [0, 4]<br/>class = good>, fillcolor="#399de5"] ;
641 -> 645 ;
646 [label=<gini = 0.0<br/>samples = 1<br/>value = [0, 2]<br/>class = good>, fillcolor="#399de5"] ;
640 -> 646 ;
647 [label=<gini = 0.0<br/>samples = 1<br/>value = [0, 2]<br/>class = good>, fillcolor="#399de5"] ;
639 -> 647 ;
648 [label=<gini = 0.0<br/>samples = 1<br/>value = [1, 0]<br/>class = bad>, fillcolor="#e58139"] ;
628 -> 648 ;
649 [label=<gini = 0.0<br/>samples = 4<br/>value = [5, 0]<br/>class = bad>, fillcolor="#e58139"] ;
627 -> 649 ;
650 [label=<gini = 0.0<br/>samples = 2<br/>value = [0, 3]<br/>class = good>, fillcolor="#399de5"] ;
626 -> 650 ;
651 [label=<gini = 0.0<br/>samples = 1<br/>value = [2, 0]<br/>class = bad>, fillcolor="#e58139"] ;
625 -> 651 ;
652 [label=<its &le; 1.5<br/>gini = 0.18<br/>samples = 5<br/>value = [9, 1]<br/>class = bad>, fillcolor="#e88f4f"] ;
624 -> 652 ;
653 [label=<gini = 0.0<br/>samples = 4<br/>value = [9, 0]<br/>class = bad>, fillcolor="#e58139"] ;
652 -> 653 ;
654 [label=<gini = 0.0<br/>samples = 1<br/>value = [0, 1]<br/>class = good>, fillcolor="#399de5"] ;
652 -> 654 ;
655 [label=<gini = 0.0<br/>samples = 4<br/>value = [0, 6]<br/>class = good>, fillcolor="#399de5"] ;
623 -> 655 ;
656 [label=<gini = 0.0<br/>samples = 1<br/>value = [0, 1]<br/>class = good>, fillcolor="#399de5"] ;
622 -> 656 ;
657 [label=<gini = 0.0<br/>samples = 2<br/>value = [2, 0]<br/>class = bad>, fillcolor="#e58139"] ;
621 -> 657 ;
658 [label=<gini = 0.0<br/>samples = 1<br/>value = [0, 2]<br/>class = good>, fillcolor="#399de5"] ;
620 -> 658 ;
659 [label=<gini = 0.0<br/>samples = 2<br/>value = [4, 0]<br/>class = bad>, fillcolor="#e58139"] ;
305 -> 659 ;
660 [label=<gini = 0.0<br/>samples = 2<br/>value = [4, 0]<br/>class = bad>, fillcolor="#e58139"] ;
304 -> 660 ;
661 [label=<revewhen &le; 0.5<br/>gini = 0.375<br/>samples = 9<br/>value = [9, 3]<br/>class = bad>, fillcolor="#eeab7b"] ;
303 -> 661 ;
662 [label=<gini = 0.0<br/>samples = 8<br/>value = [9, 0]<br/>class = bad>, fillcolor="#e58139"] ;
661 -> 662 ;
663 [label=<gini = 0.0<br/>samples = 1<br/>value = [0, 3]<br/>class = good>, fillcolor="#399de5"] ;
661 -> 663 ;
664 [label=<gini = 0.0<br/>samples = 4<br/>value = [7, 0]<br/>class = bad>, fillcolor="#e58139"] ;
302 -> 664 ;
665 [label=<gini = 0.0<br/>samples = 4<br/>value = [7, 0]<br/>class = bad>, fillcolor="#e58139"] ;
301 -> 665 ;
666 [label=<gini = 0.0<br/>samples = 2<br/>value = [3, 0]<br/>class = bad>, fillcolor="#e58139"] ;
300 -> 666 ;
667 [label=<gini = 0.0<br/>samples = 2<br/>value = [5, 0]<br/>class = bad>, fillcolor="#e58139"] ;
299 -> 667 ;
668 [label=<flyest &le; 0.5<br/>gini = 0.179<br/>samples = 406<br/>value = [65, 588]<br/>class = good>, fillcolor="#4fa8e8"] ;
298 -> 668 ;
669 [label=<masi &le; 1.5<br/>gini = 0.173<br/>samples = 405<br/>value = [62, 588]<br/>class = good>, fillcolor="#4ea7e8"] ;
668 -> 669 ;
670 [label=<dirty &le; 0.5<br/>gini = 0.168<br/>samples = 404<br/>value = [60, 588]<br/>class = good>, fillcolor="#4da7e8"] ;
669 -> 670 ;
671 [label=<tucker &le; 0.5<br/>gini = 0.159<br/>samples = 400<br/>value = [56, 585]<br/>class = good>, fillcolor="#4ca6e7"] ;
670 -> 671 ;
672 [label=<faster &le; 0.5<br/>gini = 0.152<br/>samples = 399<br/>value = [53, 585]<br/>class = good>, fillcolor="#4ba6e7"] ;
671 -> 672 ;
673 [label=<weapons &le; 0.5<br/>gini = 0.145<br/>samples = 396<br/>value = [50, 584]<br/>class = good>, fillcolor="#4aa5e7"] ;
672 -> 673 ;
674 [label=<tempted &le; 0.5<br/>gini = 0.138<br/>samples = 395<br/>value = [47, 584]<br/>class = good>, fillcolor="#49a5e7"] ;
673 -> 674 ;
675 [label=<asa &le; 0.5<br/>gini = 0.135<br/>samples = 394<br/>value = [46, 584]<br/>class = good>, fillcolor="#49a5e7"] ;
674 -> 675 ;
676 [label=<matter &le; 1.5<br/>gini = 0.13<br/>samples = 393<br/>value = [44, 584]<br/>class = good>, fillcolor="#48a4e7"] ;
675 -> 676 ;
677 [label=<thang &le; 10.5<br/>gini = 0.115<br/>samples = 388<br/>value = [38, 581]<br/>class = good>, fillcolor="#46a3e7"] ;
676 -> 677 ;
678 [label=<sisters &le; 2.0<br/>gini = 0.113<br/>samples = 387<br/>value = [37, 581]<br/>class = good>, fillcolor="#46a3e7"] ;
677 -> 678 ;
679 [label=<unfolding &le; 0.5<br/>gini = 0.107<br/>samples = 386<br/>value = [35, 581]<br/>class = good>, fillcolor="#45a3e7"] ;
678 -> 679 ;
680 [label=<essencial &le; 0.5<br/>gini = 0.104<br/>samples = 385<br/>value = [34, 581]<br/>class = good>, fillcolor="#45a3e7"] ;
679 -> 680 ;
681 [label=<live &le; 5.5<br/>gini = 0.102<br/>samples = 384<br/>value = [33, 581]<br/>class = good>, fillcolor="#44a3e6"] ;
680 -> 681 ;
682 [label=<shakey &le; 0.5<br/>gini = 0.091<br/>samples = 382<br/>value = [29, 578]<br/>class = good>, fillcolor="#43a2e6"] ;
681 -> 682 ;
683 [label=<act &le; 3.5<br/>gini = 0.088<br/>samples = 381<br/>value = [28, 578]<br/>class = good>, fillcolor="#43a2e6"] ;
682 -> 683 ;
684 [label=<lets &le; 0.5<br/>gini = 0.083<br/>samples = 378<br/>value = [26, 576]<br/>class = good>, fillcolor="#42a1e6"] ;
683 -> 684 ;
685 [label=<into &le; 1.5<br/>gini = 0.097<br/>samples = 325<br/>value = [26, 480]<br/>class = good>, fillcolor="#44a2e6"] ;
684 -> 685 ;
686 [label=<held &le; 0.5<br/>gini = 0.101<br/>samples = 311<br/>value = [26, 459]<br/>class = good>, fillcolor="#44a3e6"] ;
685 -> 686 ;
687 [label=<as &le; 1.5<br/>gini = 0.098<br/>samples = 309<br/>value = [25, 458]<br/>class = good>, fillcolor="#44a2e6"] ;
686 -> 687 ;
688 [label=<pout &le; 0.5<br/>gini = 0.107<br/>samples = 275<br/>value = [24, 400]<br/>class = good>, fillcolor="#45a3e7"] ;
687 -> 688 ;
689 [label=<mccay &le; 1.0<br/>gini = 0.103<br/>samples = 274<br/>value = [23, 400]<br/>class = good>, fillcolor="#44a3e6"] ;
688 -> 689 ;
690 [label=<preme &le; 0.5<br/>gini = 0.099<br/>samples = 273<br/>value = [22, 400]<br/>class = good>, fillcolor="#44a2e6"] ;
689 -> 690 ;
691 [label=<hooks &le; 0.5<br/>gini = 0.095<br/>samples = 272<br/>value = [21, 400]<br/>class = good>, fillcolor="#43a2e6"] ;
690 -> 691 ;
692 [label=<mythology &le; 0.5<br/>gini = 0.091<br/>samples = 271<br/>value = [20, 400]<br/>class = good>, fillcolor="#43a2e6"] ;
691 -> 692 ;
693 [label=<getting &le; 0.5<br/>gini = 0.087<br/>samples = 270<br/>value = [19, 400]<br/>class = good>, fillcolor="#42a2e6"] ;
692 -> 693 ;
694 [label=<sing &le; 5.0<br/>gini = 0.093<br/>samples = 249<br/>value = [19, 369]<br/>class = good>, fillcolor="#43a2e6"] ;
693 -> 694 ;
695 [label=<late &le; 0.5<br/>gini = 0.084<br/>samples = 248<br/>value = [17, 369]<br/>class = good>, fillcolor="#42a2e6"] ;
694 -> 695 ;
696 [label=<hittin &le; 0.5<br/>gini = 0.087<br/>samples = 241<br/>value = [17, 356]<br/>class = good>, fillcolor="#42a2e6"] ;
695 -> 696 ;
697 [label=<garage &le; 0.5<br/>gini = 0.083<br/>samples = 239<br/>value = [16, 355]<br/>class = good>, fillcolor="#42a1e6"] ;
696 -> 697 ;
698 [label=<knew &le; 1.5<br/>gini = 0.083<br/>samples = 238<br/>value = [16, 353]<br/>class = good>, fillcolor="#42a1e6"] ;
697 -> 698 ;
699 [label=<sober &le; 1.0<br/>gini = 0.075<br/>samples = 232<br/>value = [14, 346]<br/>class = good>, fillcolor="#41a1e6"] ;
698 -> 699 ;
700 [label=<holdin &le; 3.5<br/>gini = 0.075<br/>samples = 230<br/>value = [14, 344]<br/>class = good>, fillcolor="#41a1e6"] ;
699 -> 700 ;
701 [label=<momma &le; 0.5<br/>gini = 0.065<br/>samples = 229<br/>value = [12, 344]<br/>class = good>, fillcolor="#40a0e6"] ;
700 -> 701 ;
702 [label=<warm &le; 1.5<br/>gini = 0.066<br/>samples = 225<br/>value = [12, 337]<br/>class = good>, fillcolor="#40a0e6"] ;
701 -> 702 ;
703 [label=<well &le; 1.5<br/>gini = 0.057<br/>samples = 221<br/>value = [10, 332]<br/>class = good>, fillcolor="#3fa0e6"] ;
702 -> 703 ;
704 [label=<hot &le; 0.5<br/>gini = 0.049<br/>samples = 204<br/>value = [8, 310]<br/>class = good>, fillcolor="#3ea0e6"] ;
703 -> 704 ;
705 [label=<okay &le; 1.5<br/>gini = 0.052<br/>samples = 193<br/>value = [8, 290]<br/>class = good>, fillcolor="#3ea0e6"] ;
704 -> 705 ;
706 [label=<but &le; 5.5<br/>gini = 0.047<br/>samples = 189<br/>value = [7, 285]<br/>class = good>, fillcolor="#3e9fe6"] ;
705 -> 706 ;
707 [label=<town &le; 0.5<br/>gini = 0.03<br/>samples = 167<br/>value = [4, 259]<br/>class = good>, fillcolor="#3c9fe5"] ;
706 -> 707 ;
708 [label=<little &le; 11.5<br/>gini = 0.031<br/>samples = 160<br/>value = [4, 249]<br/>class = good>, fillcolor="#3c9fe5"] ;
707 -> 708 ;
709 [label=<theyre &le; 0.5<br/>gini = 0.024<br/>samples = 159<br/>value = [3, 249]<br/>class = good>, fillcolor="#3b9ee5"] ;
708 -> 709 ;
710 [label=<floor &le; 0.5<br/>gini = 0.024<br/>samples = 153<br/>value = [3, 239]<br/>class = good>, fillcolor="#3b9ee5"] ;
709 -> 710 ;
711 [label=<likes &le; 0.5<br/>gini = 0.026<br/>samples = 145<br/>value = [3, 226]<br/>class = good>, fillcolor="#3c9ee5"] ;
710 -> 711 ;
712 [label=<break &le; 0.5<br/>gini = 0.026<br/>samples = 143<br/>value = [3, 224]<br/>class = good>, fillcolor="#3c9ee5"] ;
711 -> 712 ;
713 [label=<harm &le; 0.5<br/>gini = 0.029<br/>samples = 128<br/>value = [3, 198]<br/>class = good>, fillcolor="#3c9ee5"] ;
712 -> 713 ;
714 [label=<lovers &le; 0.5<br/>gini = 0.03<br/>samples = 127<br/>value = [3, 197]<br/>class = good>, fillcolor="#3c9ee5"] ;
713 -> 714 ;
715 [label=<beyond &le; 1.5<br/>gini = 0.031<br/>samples = 121<br/>value = [3, 190]<br/>class = good>, fillcolor="#3c9fe5"] ;
714 -> 715 ;
716 [label=<other &le; 1.5<br/>gini = 0.031<br/>samples = 120<br/>value = [3, 187]<br/>class = good>, fillcolor="#3c9fe5"] ;
715 -> 716 ;
717 [label=<knowyoure &le; 0.5<br/>gini = 0.022<br/>samples = 113<br/>value = [2, 177]<br/>class = good>, fillcolor="#3b9ee5"] ;
716 -> 717 ;
718 [label=<people &le; 0.5<br/>gini = 0.022<br/>samples = 112<br/>value = [2, 175]<br/>class = good>, fillcolor="#3b9ee5"] ;
717 -> 718 ;
719 [label=<float &le; 0.5<br/>gini = 0.012<br/>samples = 104<br/>value = [1, 161]<br/>class = good>, fillcolor="#3a9ee5"] ;
718 -> 719 ;
720 [label=<youoh &le; 0.5<br/>gini = 0.012<br/>samples = 103<br/>value = [1, 160]<br/>class = good>, fillcolor="#3a9ee5"] ;
719 -> 720 ;
721 [label=<up &le; 0.5<br/>gini = 0.013<br/>samples = 99<br/>value = [1, 155]<br/>class = good>, fillcolor="#3a9ee5"] ;
720 -> 721 ;
722 [label=<deep &le; 0.5<br/>gini = 0.019<br/>samples = 67<br/>value = [1, 106]<br/>class = good>, fillcolor="#3b9ee5"] ;
721 -> 722 ;
723 [label=<control &le; 0.5<br/>gini = 0.022<br/>samples = 58<br/>value = [1, 90]<br/>class = good>, fillcolor="#3b9ee5"] ;
722 -> 723 ;
724 [label=<letters &le; 0.5<br/>gini = 0.022<br/>samples = 55<br/>value = [1, 87]<br/>class = good>, fillcolor="#3b9ee5"] ;
723 -> 724 ;
725 [label=<still &le; 0.5<br/>gini = 0.023<br/>samples = 54<br/>value = [1, 84]<br/>class = good>, fillcolor="#3b9ee5"] ;
724 -> 725 ;
726 [label=<ah &le; 0.5<br/>gini = 0.027<br/>samples = 47<br/>value = [1, 72]<br/>class = good>, fillcolor="#3c9ee5"] ;
725 -> 726 ;
727 [label=<being &le; 0.5<br/>gini = 0.028<br/>samples = 45<br/>value = [1, 69]<br/>class = good>, fillcolor="#3c9ee5"] ;
726 -> 727 ;
728 [label=<right &le; 0.5<br/>gini = 0.03<br/>samples = 42<br/>value = [1, 65]<br/>class = good>, fillcolor="#3c9fe5"] ;
727 -> 728 ;
729 [label=<me &le; 2.5<br/>gini = 0.039<br/>samples = 32<br/>value = [1, 49]<br/>class = good>, fillcolor="#3d9fe6"] ;
728 -> 729 ;
730 [label=<make &le; 0.5<br/>gini = 0.1<br/>samples = 13<br/>value = [1, 18]<br/>class = good>, fillcolor="#44a2e6"] ;
729 -> 730 ;
731 [label=<hard &le; 1.0<br/>gini = 0.142<br/>samples = 10<br/>value = [1, 12]<br/>class = good>, fillcolor="#49a5e7"] ;
730 -> 731 ;
732 [label=<keep &le; 0.5<br/>gini = 0.18<br/>samples = 8<br/>value = [1, 9]<br/>class = good>, fillcolor="#4fa8e8"] ;
731 -> 732 ;
733 [label=<factual &le; 1.5<br/>gini = 0.219<br/>samples = 7<br/>value = [1, 7]<br/>class = good>, fillcolor="#55abe9"] ;
732 -> 733 ;
734 [label=<chickadee &le; 0.5<br/>gini = 0.278<br/>samples = 5<br/>value = [1, 5]<br/>class = good>, fillcolor="#61b1ea"] ;
733 -> 734 ;
735 [label=<leads &le; 1.0<br/>gini = 0.32<br/>samples = 4<br/>value = [1, 4]<br/>class = good>, fillcolor="#6ab6ec"] ;
734 -> 735 ;
736 [label=<hold &le; 0.5<br/>gini = 0.444<br/>samples = 3<br/>value = [1, 2]<br/>class = good>, fillcolor="#9ccef2"] ;
735 -> 736 ;
737 [label=<sexy &le; 11.0<br/>gini = 0.5<br/>samples = 2<br/>value = [1, 1]<br/>class = bad>, fillcolor="#ffffff"] ;
736 -> 737 ;
738 [label=<gini = 0.0<br/>samples = 1<br/>value = [1, 0]<br/>class = bad>, fillcolor="#e58139"] ;
737 -> 738 ;
739 [label=<gini = 0.0<br/>samples = 1<br/>value = [0, 1]<br/>class = good>, fillcolor="#399de5"] ;
737 -> 739 ;
740 [label=<gini = 0.0<br/>samples = 1<br/>value = [0, 1]<br/>class = good>, fillcolor="#399de5"] ;
736 -> 740 ;
741 [label=<gini = 0.0<br/>samples = 1<br/>value = [0, 2]<br/>class = good>, fillcolor="#399de5"] ;
735 -> 741 ;
742 [label=<gini = 0.0<br/>samples = 1<br/>value = [0, 1]<br/>class = good>, fillcolor="#399de5"] ;
734 -> 742 ;
743 [label=<gini = 0.0<br/>samples = 2<br/>value = [0, 2]<br/>class = good>, fillcolor="#399de5"] ;
733 -> 743 ;
744 [label=<gini = 0.0<br/>samples = 1<br/>value = [0, 2]<br/>class = good>, fillcolor="#399de5"] ;
732 -> 744 ;
745 [label=<gini = 0.0<br/>samples = 2<br/>value = [0, 3]<br/>class = good>, fillcolor="#399de5"] ;
731 -> 745 ;
746 [label=<gini = 0.0<br/>samples = 3<br/>value = [0, 6]<br/>class = good>, fillcolor="#399de5"] ;
730 -> 746 ;
747 [label=<gini = 0.0<br/>samples = 19<br/>value = [0, 31]<br/>class = good>, fillcolor="#399de5"] ;
729 -> 747 ;
748 [label=<gini = 0.0<br/>samples = 10<br/>value = [0, 16]<br/>class = good>, fillcolor="#399de5"] ;
728 -> 748 ;
749 [label=<gini = 0.0<br/>samples = 3<br/>value = [0, 4]<br/>class = good>, fillcolor="#399de5"] ;
727 -> 749 ;
750 [label=<gini = 0.0<br/>samples = 2<br/>value = [0, 3]<br/>class = good>, fillcolor="#399de5"] ;
726 -> 750 ;
751 [label=<gini = 0.0<br/>samples = 7<br/>value = [0, 12]<br/>class = good>, fillcolor="#399de5"] ;
725 -> 751 ;
752 [label=<gini = 0.0<br/>samples = 1<br/>value = [0, 3]<br/>class = good>, fillcolor="#399de5"] ;
724 -> 752 ;
753 [label=<gini = 0.0<br/>samples = 3<br/>value = [0, 3]<br/>class = good>, fillcolor="#399de5"] ;
723 -> 753 ;
754 [label=<gini = 0.0<br/>samples = 9<br/>value = [0, 16]<br/>class = good>, fillcolor="#399de5"] ;
722 -> 754 ;
755 [label=<gini = 0.0<br/>samples = 32<br/>value = [0, 49]<br/>class = good>, fillcolor="#399de5"] ;
721 -> 755 ;
756 [label=<gini = 0.0<br/>samples = 4<br/>value = [0, 5]<br/>class = good>, fillcolor="#399de5"] ;
720 -> 756 ;
757 [label=<gini = 0.0<br/>samples = 1<br/>value = [0, 1]<br/>class = good>, fillcolor="#399de5"] ;
719 -> 757 ;
758 [label=<re &le; 0.5<br/>gini = 0.124<br/>samples = 8<br/>value = [1, 14]<br/>class = good>, fillcolor="#47a4e7"] ;
718 -> 758 ;
759 [label=<gini = 0.0<br/>samples = 7<br/>value = [0, 14]<br/>class = good>, fillcolor="#399de5"] ;
758 -> 759 ;
760 [label=<gini = 0.0<br/>samples = 1<br/>value = [1, 0]<br/>class = bad>, fillcolor="#e58139"] ;
758 -> 760 ;
761 [label=<gini = 0.0<br/>samples = 1<br/>value = [0, 2]<br/>class = good>, fillcolor="#399de5"] ;
717 -> 761 ;
762 [label=<boy &le; 0.5<br/>gini = 0.165<br/>samples = 7<br/>value = [1, 10]<br/>class = good>, fillcolor="#4da7e8"] ;
716 -> 762 ;
763 [label=<gini = 0.0<br/>samples = 5<br/>value = [0, 8]<br/>class = good>, fillcolor="#399de5"] ;
762 -> 763 ;
764 [label=<body &le; 2.0<br/>gini = 0.444<br/>samples = 2<br/>value = [1, 2]<br/>class = good>, fillcolor="#9ccef2"] ;
762 -> 764 ;
765 [label=<gini = 0.0<br/>samples = 1<br/>value = [1, 0]<br/>class = bad>, fillcolor="#e58139"] ;
764 -> 765 ;
766 [label=<gini = 0.0<br/>samples = 1<br/>value = [0, 2]<br/>class = good>, fillcolor="#399de5"] ;
764 -> 766 ;
767 [label=<gini = 0.0<br/>samples = 1<br/>value = [0, 3]<br/>class = good>, fillcolor="#399de5"] ;
715 -> 767 ;
768 [label=<gini = 0.0<br/>samples = 6<br/>value = [0, 7]<br/>class = good>, fillcolor="#399de5"] ;
714 -> 768 ;
769 [label=<gini = 0.0<br/>samples = 1<br/>value = [0, 1]<br/>class = good>, fillcolor="#399de5"] ;
713 -> 769 ;
770 [label=<gini = 0.0<br/>samples = 15<br/>value = [0, 26]<br/>class = good>, fillcolor="#399de5"] ;
712 -> 770 ;
771 [label=<gini = 0.0<br/>samples = 2<br/>value = [0, 2]<br/>class = good>, fillcolor="#399de5"] ;
711 -> 771 ;
772 [label=<gini = 0.0<br/>samples = 8<br/>value = [0, 13]<br/>class = good>, fillcolor="#399de5"] ;
710 -> 772 ;
773 [label=<gini = 0.0<br/>samples = 6<br/>value = [0, 10]<br/>class = good>, fillcolor="#399de5"] ;
709 -> 773 ;
774 [label=<gini = 0.0<br/>samples = 1<br/>value = [1, 0]<br/>class = bad>, fillcolor="#e58139"] ;
708 -> 774 ;
775 [label=<gini = 0.0<br/>samples = 7<br/>value = [0, 10]<br/>class = good>, fillcolor="#399de5"] ;
707 -> 775 ;
776 [label=<free &le; 0.5<br/>gini = 0.185<br/>samples = 22<br/>value = [3, 26]<br/>class = good>, fillcolor="#50a8e8"] ;
706 -> 776 ;
777 [label=<finish &le; 0.5<br/>gini = 0.236<br/>samples = 18<br/>value = [3, 19]<br/>class = good>, fillcolor="#58ace9"] ;
776 -> 777 ;
778 [label=<ooo &le; 1.0<br/>gini = 0.172<br/>samples = 17<br/>value = [2, 19]<br/>class = good>, fillcolor="#4ea7e8"] ;
777 -> 778 ;
779 [label=<mistake &le; 0.5<br/>gini = 0.188<br/>samples = 15<br/>value = [2, 17]<br/>class = good>, fillcolor="#50a9e8"] ;
778 -> 779 ;
780 [label=<meand &le; 0.5<br/>gini = 0.219<br/>samples = 14<br/>value = [2, 14]<br/>class = good>, fillcolor="#55abe9"] ;
779 -> 780 ;
781 [label=<aroundyou &le; 0.5<br/>gini = 0.245<br/>samples = 13<br/>value = [2, 12]<br/>class = good>, fillcolor="#5aade9"] ;
780 -> 781 ;
782 [label=<anywhere &le; 1.5<br/>gini = 0.26<br/>samples = 12<br/>value = [2, 11]<br/>class = good>, fillcolor="#5dafea"] ;
781 -> 782 ;
783 [label=<deep &le; 0.5<br/>gini = 0.278<br/>samples = 11<br/>value = [2, 10]<br/>class = good>, fillcolor="#61b1ea"] ;
782 -> 783 ;
784 [label=<nothing &le; 0.5<br/>gini = 0.298<br/>samples = 10<br/>value = [2, 9]<br/>class = good>, fillcolor="#65b3eb"] ;
783 -> 784 ;
785 [label=<set &le; 0.5<br/>gini = 0.32<br/>samples = 9<br/>value = [2, 8]<br/>class = good>, fillcolor="#6ab6ec"] ;
784 -> 785 ;
786 [label=<wrong &le; 0.5<br/>gini = 0.346<br/>samples = 8<br/>value = [2, 7]<br/>class = good>, fillcolor="#72b9ec"] ;
785 -> 786 ;
787 [label=<this &le; 1.5<br/>gini = 0.375<br/>samples = 7<br/>value = [2, 6]<br/>class = good>, fillcolor="#7bbeee"] ;
786 -> 787 ;
788 [label=<come &le; 0.5<br/>gini = 0.245<br/>samples = 6<br/>value = [1, 6]<br/>class = good>, fillcolor="#5aade9"] ;
787 -> 788 ;
789 [label=<only &le; 0.5<br/>gini = 0.278<br/>samples = 5<br/>value = [1, 5]<br/>class = good>, fillcolor="#61b1ea"] ;
788 -> 789 ;
790 [label=<leave &le; 0.5<br/>gini = 0.444<br/>samples = 3<br/>value = [1, 2]<br/>class = good>, fillcolor="#9ccef2"] ;
789 -> 790 ;
791 [label=<us &le; 0.5<br/>gini = 0.5<br/>samples = 2<br/>value = [1, 1]<br/>class = bad>, fillcolor="#ffffff"] ;
790 -> 791 ;
792 [label=<gini = 0.0<br/>samples = 1<br/>value = [0, 1]<br/>class = good>, fillcolor="#399de5"] ;
791 -> 792 ;
793 [label=<gini = 0.0<br/>samples = 1<br/>value = [1, 0]<br/>class = bad>, fillcolor="#e58139"] ;
791 -> 793 ;
794 [label=<gini = 0.0<br/>samples = 1<br/>value = [0, 1]<br/>class = good>, fillcolor="#399de5"] ;
790 -> 794 ;
795 [label=<gini = 0.0<br/>samples = 2<br/>value = [0, 3]<br/>class = good>, fillcolor="#399de5"] ;
789 -> 795 ;
796 [label=<gini = 0.0<br/>samples = 1<br/>value = [0, 1]<br/>class = good>, fillcolor="#399de5"] ;
788 -> 796 ;
